digraph Tree {
node [shape=box, style="filled, rounded", color="black", fontname="helvetica"] ;
edge [fontname="helvetica"] ;
0 [label=<L7_PROTO &le; 131.35<br/>gini = 0.952<br/>samples = 10804<br/>value = [541, 508, 526, 496, 531, 512, 484, 515, 502, 505<br/>481, 518, 528, 491, 498, 525, 550, 533, 546, 492<br/>522]<br/>class = ransomware>, fillcolor="#ffffff"] ;
1 [label=<FLOW_DURATION_MILLISECONDS &le; -0.946<br/>gini = 0.95<br/>samples = 10239<br/>value = [541, 508, 525, 5, 531, 512, 484, 490, 502, 498<br/>481, 509, 528, 491, 469, 525, 547, 533, 546, 492<br/>522]<br/>class = ransomware>, fillcolor="#ffffff"] ;
0 -> 1 [labeldistance=2.5, labelangle=45, headlabel="True"] ;
2 [label=<L4_DST_PORT &le; 22.5<br/>gini = 0.941<br/>samples = 8363<br/>value = [541, 508, 146, 0, 530, 453, 416, 490, 502, 497, 35<br/>83, 528, 0, 469, 525, 547, 533, 546, 492, 522]<br/>class = ransomware>, fillcolor="#ffffff"] ;
1 -> 2 ;
3 [label=<L4_SRC_PORT &le; 31885.0<br/>gini = 0.574<br/>samples = 913<br/>value = [267, 2, 5, 0, 530, 0, 26, 30, 21, 32, 0, 0, 0<br/>0, 0, 0, 0, 0, 0, 0, 0]<br/>class = Generic>, fillcolor="#cef4ae"] ;
2 -> 3 ;
4 [label=<gini = 0.306<br/>samples = 323<br/>value = [267, 2, 0, 0, 0, 0, 1, 19, 8, 26, 0, 0, 0, 0<br/>0, 0, 0, 0, 0, 0, 0]<br/>class = Benign>, fillcolor="#ea995e"] ;
3 -> 4 ;
5 [label=<L7_PROTO &le; 0.5<br/>gini = 0.19<br/>samples = 590<br/>value = [0, 0, 5, 0, 530, 0, 25, 11, 13, 6, 0, 0, 0<br/>0, 0, 0, 0, 0, 0, 0, 0]<br/>class = Generic>, fillcolor="#93e84e"] ;
3 -> 5 ;
6 [label=<gini = 0.083<br/>samples = 554<br/>value = [0, 0, 0, 0, 530, 0, 24, 0, 0, 0, 0, 0, 0, 0<br/>0, 0, 0, 0, 0, 0, 0]<br/>class = Generic>, fillcolor="#8be642"] ;
5 -> 6 ;
7 [label=<gini = 0.728<br/>samples = 36<br/>value = [0, 0, 5, 0, 0, 0, 1, 11, 13, 6, 0, 0, 0, 0<br/>0, 0, 0, 0, 0, 0, 0]<br/>class = Worms>, fillcolor="#effdf9"] ;
5 -> 7 ;
8 [label=<TCP_FLAGS &le; 30.5<br/>gini = 0.936<br/>samples = 7450<br/>value = [274, 506, 141, 0, 0, 453, 390, 460, 481, 465, 35<br/>83, 528, 0, 469, 525, 547, 533, 546, 492, 522]<br/>class = ransomware>, fillcolor="#ffffff"] ;
2 -> 8 ;
9 [label=<L4_DST_PORT &le; 9610.0<br/>gini = 0.932<br/>samples = 6693<br/>value = [274, 502, 140, 0, 0, 370, 359, 460, 481, 465, 35<br/>53, 528, 0, 469, 478, 507, 533, 25, 492, 522]<br/>class = Infilteration>, fillcolor="#ffffff"] ;
8 -> 9 ;
10 [label=<OUT_PKTS &le; 0.022<br/>gini = 0.927<br/>samples = 6086<br/>value = [274, 496, 75, 0, 0, 370, 359, 430, 481, 450, 35<br/>28, 69, 0, 462, 478, 507, 533, 25, 492, 522]<br/>class = Infilteration>, fillcolor="#ffffff"] ;
9 -> 10 ;
11 [label=<IN_PKTS &le; -0.017<br/>gini = 0.92<br/>samples = 5344<br/>value = [274, 9, 59, 0, 0, 370, 359, 345, 479, 388, 35<br/>28, 69, 0, 392, 478, 491, 533, 21, 492, 522]<br/>class = Infilteration>, fillcolor="#ffffff"] ;
10 -> 11 ;
12 [label=<gini = 0.878<br/>samples = 3325<br/>value = [0, 8, 44, 0, 0, 364, 131, 6, 142, 82, 35, 19<br/>37, 0, 39, 478, 372, 533, 21, 492, 522]<br/>class = Infilteration>, fillcolor="#fffeff"] ;
11 -> 12 ;
13 [label=<FLOW_DURATION_MILLISECONDS &le; -1.207<br/>gini = 0.855<br/>samples = 2019<br/>value = [274, 1, 15, 0, 0, 6, 228, 339, 337, 306, 0, 9<br/>32, 0, 353, 0, 119, 0, 0, 0, 0]<br/>class = mitm>, fillcolor="#fefdff"] ;
11 -> 13 ;
14 [label=<gini = 0.059<br/>samples = 233<br/>value = [0, 0, 2, 0, 0, 5, 226, 0, 0, 0, 0, 0, 0, 0<br/>0, 0, 0, 0, 0, 0, 0]<br/>class = Backdoor>, fillcolor="#3fe652"] ;
13 -> 14 ;
15 [label=<L7_PROTO &le; 7.155<br/>gini = 0.832<br/>samples = 1786<br/>value = [274, 1, 13, 0, 0, 1, 2, 339, 337, 306, 0, 9<br/>32, 0, 353, 0, 119, 0, 0, 0, 0]<br/>class = mitm>, fillcolor="#fefdff"] ;
13 -> 15 ;
16 [label=<OUT_BYTES &le; -0.036<br/>gini = 0.787<br/>samples = 1342<br/>value = [274, 1, 9, 0, 0, 0, 2, 310, 55, 289, 0, 2, 32<br/>0, 353, 0, 15, 0, 0, 0, 0]<br/>class = mitm>, fillcolor="#faf7fe"] ;
15 -> 16 ;
17 [label=<L7_PROTO &le; 6.0<br/>gini = 0.609<br/>samples = 590<br/>value = [0, 1, 0, 0, 0, 0, 0, 95, 36, 80, 0, 2, 32, 0<br/>344, 0, 0, 0, 0, 0, 0]<br/>class = mitm>, fillcolor="#be9bf2"] ;
16 -> 17 ;
18 [label=<gini = 0.642<br/>samples = 122<br/>value = [0, 1, 0, 0, 0, 0, 0, 14, 12, 63, 0, 0, 32, 0<br/>0, 0, 0, 0, 0, 0, 0]<br/>class = Analysis>, fillcolor="#bbf6f5"] ;
17 -> 18 ;
19 [label=<IN_BYTES &le; -0.022<br/>gini = 0.426<br/>samples = 468<br/>value = [0, 0, 0, 0, 0, 0, 0, 81, 24, 17, 0, 2, 0, 0<br/>344, 0, 0, 0, 0, 0, 0]<br/>class = mitm>, fillcolor="#a778ed"] ;
17 -> 19 ;
20 [label=<gini = 0.586<br/>samples = 76<br/>value = [0, 0, 0, 0, 0, 0, 0, 45, 16, 3, 0, 2, 0, 0<br/>10, 0, 0, 0, 0, 0, 0]<br/>class = Fuzzers>, fillcolor="#9ff2c1"] ;
19 -> 20 ;
21 [label=<IN_BYTES &le; -0.02<br/>gini = 0.264<br/>samples = 392<br/>value = [0, 0, 0, 0, 0, 0, 0, 36, 8, 14, 0, 0, 0, 0<br/>334, 0, 0, 0, 0, 0, 0]<br/>class = mitm>, fillcolor="#9359e9"] ;
19 -> 21 ;
22 [label=<IN_BYTES &le; -0.02<br/>gini = 0.112<br/>samples = 338<br/>value = [0, 0, 0, 0, 0, 0, 0, 18, 1, 1, 0, 0, 0, 0<br/>318, 0, 0, 0, 0, 0, 0]<br/>class = mitm>, fillcolor="#8645e7"] ;
21 -> 22 ;
23 [label=<gini = 0.435<br/>samples = 67<br/>value = [0, 0, 0, 0, 0, 0, 0, 18, 1, 1, 0, 0, 0, 0<br/>47, 0, 0, 0, 0, 0, 0]<br/>class = mitm>, fillcolor="#b38af0"] ;
22 -> 23 ;
24 [label=<gini = 0.0<br/>samples = 271<br/>value = [0, 0, 0, 0, 0, 0, 0, 0, 0, 0, 0, 0, 0, 0<br/>271, 0, 0, 0, 0, 0, 0]<br/>class = mitm>, fillcolor="#7e39e5"] ;
22 -> 24 ;
25 [label=<gini = 0.726<br/>samples = 54<br/>value = [0, 0, 0, 0, 0, 0, 0, 18, 7, 13, 0, 0, 0, 0<br/>16, 0, 0, 0, 0, 0, 0]<br/>class = Fuzzers>, fillcolor="#f5fef8"] ;
21 -> 25 ;
26 [label=<gini = 0.707<br/>samples = 752<br/>value = [274, 0, 9, 0, 0, 0, 2, 215, 19, 209, 0, 0, 0<br/>0, 9, 0, 15, 0, 0, 0, 0]<br/>class = Benign>, fillcolor="#fcf1e9"] ;
16 -> 26 ;
27 [label=<TCP_FLAGS &le; 22.0<br/>gini = 0.536<br/>samples = 444<br/>value = [0, 0, 4, 0, 0, 1, 0, 29, 282, 17, 0, 7, 0, 0<br/>0, 0, 104, 0, 0, 0, 0]<br/>class = Worms>, fillcolor="#97f1d6"] ;
15 -> 27 ;
28 [label=<OUT_BYTES &le; -0.034<br/>gini = 0.266<br/>samples = 331<br/>value = [0, 0, 1, 0, 0, 0, 0, 24, 282, 17, 0, 7, 0, 0<br/>0, 0, 0, 0, 0, 0, 0]<br/>class = Worms>, fillcolor="#59e9bd"] ;
27 -> 28 ;
29 [label=<L4_DST_PORT &le; 2514.5<br/>gini = 0.181<br/>samples = 311<br/>value = [0, 0, 1, 0, 0, 0, 0, 11, 281, 11, 0, 7, 0, 0<br/>0, 0, 0, 0, 0, 0, 0]<br/>class = Worms>, fillcolor="#4de8b9"] ;
28 -> 29 ;
30 [label=<L4_DST_PORT &le; 123.0<br/>gini = 0.116<br/>samples = 299<br/>value = [0, 0, 1, 0, 0, 0, 0, 6, 281, 4, 0, 7, 0, 0<br/>0, 0, 0, 0, 0, 0, 0]<br/>class = Worms>, fillcolor="#45e7b6"] ;
29 -> 30 ;
31 [label=<gini = 0.542<br/>samples = 12<br/>value = [0, 0, 0, 0, 0, 0, 0, 1, 0, 4, 0, 7, 0, 0<br/>0, 0, 0, 0, 0, 0, 0]<br/>class = DDoS>, fillcolor="#b5d2f5"] ;
30 -> 31 ;
32 [label=<gini = 0.041<br/>samples = 287<br/>value = [0, 0, 1, 0, 0, 0, 0, 5, 281, 0, 0, 0, 0, 0<br/>0, 0, 0, 0, 0, 0, 0]<br/>class = Worms>, fillcolor="#3de6b3"] ;
30 -> 32 ;
33 [label=<gini = 0.486<br/>samples = 12<br/>value = [0, 0, 0, 0, 0, 0, 0, 5, 0, 7, 0, 0, 0, 0<br/>0, 0, 0, 0, 0, 0, 0]<br/>class = Analysis>, fillcolor="#c6f8f7"] ;
29 -> 33 ;
34 [label=<gini = 0.485<br/>samples = 20<br/>value = [0, 0, 0, 0, 0, 0, 0, 13, 1, 6, 0, 0, 0, 0<br/>0, 0, 0, 0, 0, 0, 0]<br/>class = Fuzzers>, fillcolor="#9cf2be"] ;
28 -> 34 ;
35 [label=<gini = 0.15<br/>samples = 113<br/>value = [0, 0, 3, 0, 0, 1, 0, 5, 0, 0, 0, 0, 0, 0<br/>0, 0, 104, 0, 0, 0, 0]<br/>class = ransomware>, fillcolor="#e44ae7"] ;
27 -> 35 ;
36 [label=<OUT_BYTES &le; -0.033<br/>gini = 0.539<br/>samples = 742<br/>value = [0, 487, 16, 0, 0, 0, 0, 85, 2, 62, 0, 0, 0<br/>0, 70, 0, 16, 0, 4, 0, 0]<br/>class = Exploits>, fillcolor="#efcf86"] ;
10 -> 36 ;
37 [label=<gini = 0.0<br/>samples = 485<br/>value = [0, 485, 0, 0, 0, 0, 0, 0, 0, 0, 0, 0, 0, 0<br/>0, 0, 0, 0, 0, 0, 0]<br/>class = Exploits>, fillcolor="#e5b139"] ;
36 -> 37 ;
38 [label=<gini = 0.75<br/>samples = 257<br/>value = [0, 2, 16, 0, 0, 0, 0, 85, 2, 62, 0, 0, 0, 0<br/>70, 0, 16, 0, 4, 0, 0]<br/>class = Fuzzers>, fillcolor="#effdf5"] ;
36 -> 38 ;
39 [label=<TCP_FLAGS &le; 19.5<br/>gini = 0.412<br/>samples = 607<br/>value = [0, 6, 65, 0, 0, 0, 0, 30, 0, 15, 0, 25, 459<br/>0, 7, 0, 0, 0, 0, 0, 0]<br/>class = scanning>, fillcolor="#6f84ec"] ;
9 -> 39 ;
40 [label=<IN_PKTS &le; -0.02<br/>gini = 0.317<br/>samples = 558<br/>value = [0, 6, 16, 0, 0, 0, 0, 30, 0, 15, 0, 25, 459<br/>0, 7, 0, 0, 0, 0, 0, 0]<br/>class = scanning>, fillcolor="#5e76ea"] ;
39 -> 40 ;
41 [label=<gini = 0.389<br/>samples = 34<br/>value = [0, 0, 9, 0, 0, 0, 0, 0, 0, 0, 0, 25, 0, 0<br/>0, 0, 0, 0, 0, 0, 0]<br/>class = DDoS>, fillcolor="#80b2ee"] ;
40 -> 41 ;
42 [label=<OUT_BYTES &le; -0.036<br/>gini = 0.228<br/>samples = 524<br/>value = [0, 6, 7, 0, 0, 0, 0, 30, 0, 15, 0, 0, 459, 0<br/>7, 0, 0, 0, 0, 0, 0]<br/>class = scanning>, fillcolor="#536ce8"] ;
40 -> 42 ;
43 [label=<IN_BYTES &le; -0.016<br/>gini = 0.129<br/>samples = 492<br/>value = [0, 2, 7, 0, 0, 0, 0, 11, 0, 6, 0, 0, 459, 0<br/>7, 0, 0, 0, 0, 0, 0]<br/>class = scanning>, fillcolor="#4762e7"] ;
42 -> 43 ;
44 [label=<gini = 0.058<br/>samples = 473<br/>value = [0, 2, 6, 0, 0, 0, 0, 6, 0, 0, 0, 0, 459, 0<br/>0, 0, 0, 0, 0, 0, 0]<br/>class = scanning>, fillcolor="#3f5be6"] ;
43 -> 44 ;
45 [label=<gini = 0.693<br/>samples = 19<br/>value = [0, 0, 1, 0, 0, 0, 0, 5, 0, 6, 0, 0, 0, 0<br/>7, 0, 0, 0, 0, 0, 0]<br/>class = mitm>, fillcolor="#f5f0fd"] ;
43 -> 45 ;
46 [label=<gini = 0.553<br/>samples = 32<br/>value = [0, 4, 0, 0, 0, 0, 0, 19, 0, 9, 0, 0, 0, 0<br/>0, 0, 0, 0, 0, 0, 0]<br/>class = Fuzzers>, fillcolor="#a9f4c7"] ;
42 -> 46 ;
47 [label=<gini = 0.0<br/>samples = 49<br/>value = [0, 0, 49, 0, 0, 0, 0, 0, 0, 0, 0, 0, 0, 0<br/>0, 0, 0, 0, 0, 0, 0]<br/>class = Reconnaissance>, fillcolor="#e5e239"] ;
39 -> 47 ;
48 [label=<L4_DST_PORT &le; 444.0<br/>gini = 0.504<br/>samples = 757<br/>value = [0, 4, 1, 0, 0, 83, 31, 0, 0, 0, 0, 30, 0, 0<br/>0, 47, 40, 0, 521, 0, 0]<br/>class = Bot>, fillcolor="#ee7eb0"] ;
8 -> 48 ;
49 [label=<gini = 0.765<br/>samples = 231<br/>value = [0, 0, 0, 0, 0, 83, 31, 0, 0, 0, 0, 30, 0, 0<br/>0, 47, 40, 0, 0, 0, 0]<br/>class = Shellcode>, fillcolor="#defad8"] ;
48 -> 49 ;
50 [label=<gini = 0.019<br/>samples = 526<br/>value = [0, 4, 1, 0, 0, 0, 0, 0, 0, 0, 0, 0, 0, 0<br/>0, 0, 0, 0, 521, 0, 0]<br/>class = Bot>, fillcolor="#e53b87"] ;
48 -> 50 ;
51 [label=<IN_BYTES &le; -0.026<br/>gini = 0.78<br/>samples = 1876<br/>value = [0, 0, 379, 5, 1, 59, 68, 0, 0, 1, 446, 426, 0<br/>491, 0, 0, 0, 0, 0, 0, 0]<br/>class = password>, fillcolor="#f9f9fe"] ;
1 -> 51 ;
52 [label=<L4_SRC_PORT &le; 58104.0<br/>gini = 0.209<br/>samples = 425<br/>value = [0, 0, 2, 0, 0, 0, 0, 0, 0, 0, 48, 375, 0, 0<br/>0, 0, 0, 0, 0, 0, 0]<br/>class = DDoS>, fillcolor="#5396e8"] ;
51 -> 52 ;
53 [label=<gini = 0.064<br/>samples = 304<br/>value = [0, 0, 2, 0, 0, 0, 0, 0, 0, 0, 8, 294, 0, 0<br/>0, 0, 0, 0, 0, 0, 0]<br/>class = DDoS>, fillcolor="#408ae6"] ;
52 -> 53 ;
54 [label=<gini = 0.443<br/>samples = 121<br/>value = [0, 0, 0, 0, 0, 0, 0, 0, 0, 0, 40, 81, 0, 0<br/>0, 0, 0, 0, 0, 0, 0]<br/>class = DDoS>, fillcolor="#9bc2f2"] ;
52 -> 54 ;
55 [label=<OUT_BYTES &le; -0.037<br/>gini = 0.738<br/>samples = 1451<br/>value = [0, 0, 377, 5, 1, 59, 68, 0, 0, 1, 398, 51, 0<br/>491, 0, 0, 0, 0, 0, 0, 0]<br/>class = password>, fillcolor="#efeefd"] ;
51 -> 55 ;
56 [label=<L7_PROTO &le; 0.5<br/>gini = 0.253<br/>samples = 425<br/>value = [0, 0, 9, 0, 0, 7, 10, 0, 0, 1, 6, 26, 0, 366<br/>0, 0, 0, 0, 0, 0, 0]<br/>class = password>, fillcolor="#6756e9"] ;
55 -> 56 ;
57 [label=<L4_DST_PORT &le; 4894.0<br/>gini = 0.135<br/>samples = 394<br/>value = [0, 0, 5, 0, 0, 1, 3, 0, 0, 0, 4, 15, 0, 366<br/>0, 0, 0, 0, 0, 0, 0]<br/>class = password>, fillcolor="#5a48e7"] ;
56 -> 57 ;
58 [label=<gini = 0.072<br/>samples = 380<br/>value = [0, 0, 3, 0, 0, 1, 3, 0, 0, 0, 0, 7, 0, 366<br/>0, 0, 0, 0, 0, 0, 0]<br/>class = password>, fillcolor="#5440e6"] ;
57 -> 58 ;
59 [label=<gini = 0.571<br/>samples = 14<br/>value = [0, 0, 2, 0, 0, 0, 0, 0, 0, 0, 4, 8, 0, 0<br/>0, 0, 0, 0, 0, 0, 0]<br/>class = DDoS>, fillcolor="#b0cff5"] ;
57 -> 59 ;
60 [label=<gini = 0.764<br/>samples = 31<br/>value = [0, 0, 4, 0, 0, 6, 7, 0, 0, 1, 2, 11, 0, 0<br/>0, 0, 0, 0, 0, 0, 0]<br/>class = DDoS>, fillcolor="#deebfb"] ;
56 -> 60 ;
61 [label=<gini = 0.704<br/>samples = 1026<br/>value = [0, 0, 368, 5, 1, 52, 58, 0, 0, 0, 392, 25, 0<br/>125, 0, 0, 0, 0, 0, 0, 0]<br/>class = injection>, fillcolor="#f8fcfe"] ;
55 -> 61 ;
62 [label=<TCP_FLAGS &le; 140.0<br/>gini = 0.24<br/>samples = 565<br/>value = [0, 0, 1, 491, 0, 0, 0, 25, 0, 7, 0, 9, 0, 0<br/>29, 0, 3, 0, 0, 0, 0]<br/>class = DoS>, fillcolor="#c1e954"] ;
0 -> 62 [labeldistance=2.5, labelangle=-45, headlabel="False"] ;
63 [label=<gini = 0.707<br/>samples = 74<br/>value = [0, 0, 1, 0, 0, 0, 0, 25, 0, 7, 0, 9, 0, 0<br/>29, 0, 3, 0, 0, 0, 0]<br/>class = mitm>, fillcolor="#f4effd"] ;
62 -> 63 ;
64 [label=<gini = 0.0<br/>samples = 491<br/>value = [0, 0, 0, 491, 0, 0, 0, 0, 0, 0, 0, 0, 0, 0<br/>0, 0, 0, 0, 0, 0, 0]<br/>class = DoS>, fillcolor="#b7e539"] ;
62 -> 64 ;
}
