digraph Tree {
node [shape=box, style="filled, rounded", color="black", fontname="helvetica"] ;
edge [fontname="helvetica"] ;
0 [label=<L7_PROTO &le; 131.35<br/>gini = 0.952<br/>samples = 10804<br/>value = [577, 546, 502, 498, 551, 550, 473, 500, 483, 466<br/>539, 518, 541, 537, 503, 516, 457, 503, 515, 517<br/>512]<br/>class = Benign>, fillcolor="#fffffe"] ;
1 [label=<FLOW_DURATION_MILLISECONDS &le; -0.332<br/>gini = 0.95<br/>samples = 10256<br/>value = [577, 546, 500, 4, 551, 550, 473, 484, 483, 466<br/>537, 505, 541, 537, 482, 516, 457, 503, 515, 517<br/>512]<br/>class = Benign>, fillcolor="#fffffe"] ;
0 -> 1 [labeldistance=2.5, labelangle=45, headlabel="True"] ;
2 [label=<L4_DST_PORT &le; 22.5<br/>gini = 0.941<br/>samples = 8336<br/>value = [577, 546, 151, 0, 550, 501, 432, 484, 483, 463, 36<br/>68, 541, 2, 482, 516, 457, 503, 515, 517, 512]<br/>class = Benign>, fillcolor="#fffffe"] ;
1 -> 2 ;
3 [label=<L4_SRC_PORT &le; 32841.5<br/>gini = 0.56<br/>samples = 953<br/>value = [309, 6, 8, 0, 550, 0, 19, 21, 15, 22, 0, 1, 0<br/>2, 0, 0, 0, 0, 0, 0, 0]<br/>class = Generic>, fillcolor="#d2f5b5"] ;
2 -> 3 ;
4 [label=<TCP_FLAGS &le; 9.5<br/>gini = 0.27<br/>samples = 363<br/>value = [309, 4, 5, 0, 0, 0, 0, 14, 8, 20, 0, 1, 0, 2<br/>0, 0, 0, 0, 0, 0, 0]<br/>class = Benign>, fillcolor="#e99558"] ;
3 -> 4 ;
5 [label=<FLOW_DURATION_MILLISECONDS &le; -1.196<br/>gini = 0.17<br/>samples = 340<br/>value = [309, 4, 0, 0, 0, 0, 0, 2, 2, 20, 0, 1, 0, 2<br/>0, 0, 0, 0, 0, 0, 0]<br/>class = Benign>, fillcolor="#e88d4c"] ;
4 -> 5 ;
6 [label=<IN_PKTS &le; 0.008<br/>gini = 0.118<br/>samples = 306<br/>value = [287, 0, 0, 0, 0, 0, 0, 2, 1, 14, 0, 0, 0, 2<br/>0, 0, 0, 0, 0, 0, 0]<br/>class = Benign>, fillcolor="#e78946"] ;
5 -> 6 ;
7 [label=<IN_BYTES &le; -0.026<br/>gini = 0.107<br/>samples = 303<br/>value = [286, 0, 0, 0, 0, 0, 0, 2, 1, 12, 0, 0, 0, 2<br/>0, 0, 0, 0, 0, 0, 0]<br/>class = Benign>, fillcolor="#e78845"] ;
6 -> 7 ;
8 [label=<gini = 0.0<br/>samples = 1<br/>value = [0, 0, 0, 0, 0, 0, 0, 0, 0, 0, 0, 0, 0, 1<br/>0, 0, 0, 0, 0, 0, 0]<br/>class = password>, fillcolor="#4d39e5"] ;
7 -> 8 ;
9 [label=<PROTOCOL &le; 74.0<br/>gini = 0.102<br/>samples = 302<br/>value = [286, 0, 0, 0, 0, 0, 0, 2, 1, 12, 0, 0, 0, 1<br/>0, 0, 0, 0, 0, 0, 0]<br/>class = Benign>, fillcolor="#e68844"] ;
7 -> 9 ;
10 [label=<PROTOCOL &le; 57.0<br/>gini = 0.243<br/>samples = 95<br/>value = [82, 0, 0, 0, 0, 0, 0, 2, 0, 10, 0, 0, 0, 1<br/>0, 0, 0, 0, 0, 0, 0]<br/>class = Benign>, fillcolor="#e99457"] ;
9 -> 10 ;
11 [label=<IN_BYTES &le; -0.026<br/>gini = 0.126<br/>samples = 76<br/>value = [71, 0, 0, 0, 0, 0, 0, 2, 0, 2, 0, 0, 0, 1<br/>0, 0, 0, 0, 0, 0, 0]<br/>class = Benign>, fillcolor="#e78a46"] ;
10 -> 11 ;
12 [label=<IN_BYTES &le; -0.026<br/>gini = 0.48<br/>samples = 5<br/>value = [3, 0, 0, 0, 0, 0, 0, 2, 0, 0, 0, 0, 0, 0<br/>0, 0, 0, 0, 0, 0, 0]<br/>class = Benign>, fillcolor="#f6d5bd"] ;
11 -> 12 ;
13 [label=<gini = 0.0<br/>samples = 3<br/>value = [3, 0, 0, 0, 0, 0, 0, 0, 0, 0, 0, 0, 0, 0<br/>0, 0, 0, 0, 0, 0, 0]<br/>class = Benign>, fillcolor="#e58139"] ;
12 -> 13 ;
14 [label=<gini = 0.0<br/>samples = 2<br/>value = [0, 0, 0, 0, 0, 0, 0, 2, 0, 0, 0, 0, 0, 0<br/>0, 0, 0, 0, 0, 0, 0]<br/>class = Fuzzers>, fillcolor="#39e57e"] ;
12 -> 14 ;
15 [label=<IN_PKTS &le; -0.02<br/>gini = 0.082<br/>samples = 71<br/>value = [68, 0, 0, 0, 0, 0, 0, 0, 0, 2, 0, 0, 0, 1<br/>0, 0, 0, 0, 0, 0, 0]<br/>class = Benign>, fillcolor="#e68642"] ;
11 -> 15 ;
16 [label=<L7_PROTO &le; 40.5<br/>gini = 0.375<br/>samples = 4<br/>value = [3, 0, 0, 0, 0, 0, 0, 0, 0, 0, 0, 0, 0, 1<br/>0, 0, 0, 0, 0, 0, 0]<br/>class = Benign>, fillcolor="#eeab7b"] ;
15 -> 16 ;
17 [label=<gini = 0.0<br/>samples = 1<br/>value = [0, 0, 0, 0, 0, 0, 0, 0, 0, 0, 0, 0, 0, 1<br/>0, 0, 0, 0, 0, 0, 0]<br/>class = password>, fillcolor="#4d39e5"] ;
16 -> 17 ;
18 [label=<gini = 0.0<br/>samples = 3<br/>value = [3, 0, 0, 0, 0, 0, 0, 0, 0, 0, 0, 0, 0, 0<br/>0, 0, 0, 0, 0, 0, 0]<br/>class = Benign>, fillcolor="#e58139"] ;
16 -> 18 ;
19 [label=<PROTOCOL &le; 7.5<br/>gini = 0.058<br/>samples = 67<br/>value = [65, 0, 0, 0, 0, 0, 0, 0, 0, 2, 0, 0, 0, 0<br/>0, 0, 0, 0, 0, 0, 0]<br/>class = Benign>, fillcolor="#e6853f"] ;
15 -> 19 ;
20 [label=<L7_PROTO &le; 40.5<br/>gini = 0.142<br/>samples = 26<br/>value = [24, 0, 0, 0, 0, 0, 0, 0, 0, 2, 0, 0, 0, 0<br/>0, 0, 0, 0, 0, 0, 0]<br/>class = Benign>, fillcolor="#e78c49"] ;
19 -> 20 ;
21 [label=<IN_PKTS &le; -0.02<br/>gini = 0.298<br/>samples = 11<br/>value = [9, 0, 0, 0, 0, 0, 0, 0, 0, 2, 0, 0, 0, 0<br/>0, 0, 0, 0, 0, 0, 0]<br/>class = Benign>, fillcolor="#eb9d65"] ;
20 -> 21 ;
22 [label=<gini = 0.0<br/>samples = 1<br/>value = [0, 0, 0, 0, 0, 0, 0, 0, 0, 1, 0, 0, 0, 0<br/>0, 0, 0, 0, 0, 0, 0]<br/>class = Analysis>, fillcolor="#39e5e2"] ;
21 -> 22 ;
23 [label=<FLOW_DURATION_MILLISECONDS &le; -1.206<br/>gini = 0.18<br/>samples = 10<br/>value = [9, 0, 0, 0, 0, 0, 0, 0, 0, 1, 0, 0, 0, 0<br/>0, 0, 0, 0, 0, 0, 0]<br/>class = Benign>, fillcolor="#e88f4f"] ;
21 -> 23 ;
24 [label=<FLOW_DURATION_MILLISECONDS &le; -1.206<br/>gini = 0.32<br/>samples = 5<br/>value = [4, 0, 0, 0, 0, 0, 0, 0, 0, 1, 0, 0, 0, 0<br/>0, 0, 0, 0, 0, 0, 0]<br/>class = Benign>, fillcolor="#eca06a"] ;
23 -> 24 ;
25 [label=<gini = 0.0<br/>samples = 4<br/>value = [4, 0, 0, 0, 0, 0, 0, 0, 0, 0, 0, 0, 0, 0<br/>0, 0, 0, 0, 0, 0, 0]<br/>class = Benign>, fillcolor="#e58139"] ;
24 -> 25 ;
26 [label=<gini = 0.0<br/>samples = 1<br/>value = [0, 0, 0, 0, 0, 0, 0, 0, 0, 1, 0, 0, 0, 0<br/>0, 0, 0, 0, 0, 0, 0]<br/>class = Analysis>, fillcolor="#39e5e2"] ;
24 -> 26 ;
27 [label=<gini = 0.0<br/>samples = 5<br/>value = [5, 0, 0, 0, 0, 0, 0, 0, 0, 0, 0, 0, 0, 0<br/>0, 0, 0, 0, 0, 0, 0]<br/>class = Benign>, fillcolor="#e58139"] ;
23 -> 27 ;
28 [label=<gini = 0.0<br/>samples = 15<br/>value = [15, 0, 0, 0, 0, 0, 0, 0, 0, 0, 0, 0, 0, 0<br/>0, 0, 0, 0, 0, 0, 0]<br/>class = Benign>, fillcolor="#e58139"] ;
20 -> 28 ;
29 [label=<gini = 0.0<br/>samples = 41<br/>value = [41, 0, 0, 0, 0, 0, 0, 0, 0, 0, 0, 0, 0, 0<br/>0, 0, 0, 0, 0, 0, 0]<br/>class = Benign>, fillcolor="#e58139"] ;
19 -> 29 ;
30 [label=<PROTOCOL &le; 59.5<br/>gini = 0.488<br/>samples = 19<br/>value = [11, 0, 0, 0, 0, 0, 0, 0, 0, 8, 0, 0, 0, 0<br/>0, 0, 0, 0, 0, 0, 0]<br/>class = Benign>, fillcolor="#f8ddc9"] ;
10 -> 30 ;
31 [label=<gini = 0.0<br/>samples = 6<br/>value = [0, 0, 0, 0, 0, 0, 0, 0, 0, 6, 0, 0, 0, 0<br/>0, 0, 0, 0, 0, 0, 0]<br/>class = Analysis>, fillcolor="#39e5e2"] ;
30 -> 31 ;
32 [label=<PROTOCOL &le; 72.5<br/>gini = 0.26<br/>samples = 13<br/>value = [11, 0, 0, 0, 0, 0, 0, 0, 0, 2, 0, 0, 0, 0<br/>0, 0, 0, 0, 0, 0, 0]<br/>class = Benign>, fillcolor="#ea985d"] ;
30 -> 32 ;
33 [label=<gini = 0.0<br/>samples = 11<br/>value = [11, 0, 0, 0, 0, 0, 0, 0, 0, 0, 0, 0, 0, 0<br/>0, 0, 0, 0, 0, 0, 0]<br/>class = Benign>, fillcolor="#e58139"] ;
32 -> 33 ;
34 [label=<gini = 0.0<br/>samples = 2<br/>value = [0, 0, 0, 0, 0, 0, 0, 0, 0, 2, 0, 0, 0, 0<br/>0, 0, 0, 0, 0, 0, 0]<br/>class = Analysis>, fillcolor="#39e5e2"] ;
32 -> 34 ;
35 [label=<FLOW_DURATION_MILLISECONDS &le; -1.206<br/>gini = 0.029<br/>samples = 207<br/>value = [204, 0, 0, 0, 0, 0, 0, 0, 1, 2, 0, 0, 0, 0<br/>0, 0, 0, 0, 0, 0, 0]<br/>class = Benign>, fillcolor="#e5833c"] ;
9 -> 35 ;
36 [label=<PROTOCOL &le; 107.5<br/>gini = 0.011<br/>samples = 187<br/>value = [186, 0, 0, 0, 0, 0, 0, 0, 0, 1, 0, 0, 0, 0<br/>0, 0, 0, 0, 0, 0, 0]<br/>class = Benign>, fillcolor="#e5823a"] ;
35 -> 36 ;
37 [label=<PROTOCOL &le; 106.0<br/>gini = 0.056<br/>samples = 35<br/>value = [34, 0, 0, 0, 0, 0, 0, 0, 0, 1, 0, 0, 0, 0<br/>0, 0, 0, 0, 0, 0, 0]<br/>class = Benign>, fillcolor="#e6853f"] ;
36 -> 37 ;
38 [label=<gini = 0.0<br/>samples = 34<br/>value = [34, 0, 0, 0, 0, 0, 0, 0, 0, 0, 0, 0, 0, 0<br/>0, 0, 0, 0, 0, 0, 0]<br/>class = Benign>, fillcolor="#e58139"] ;
37 -> 38 ;
39 [label=<gini = 0.0<br/>samples = 1<br/>value = [0, 0, 0, 0, 0, 0, 0, 0, 0, 1, 0, 0, 0, 0<br/>0, 0, 0, 0, 0, 0, 0]<br/>class = Analysis>, fillcolor="#39e5e2"] ;
37 -> 39 ;
40 [label=<gini = 0.0<br/>samples = 152<br/>value = [152, 0, 0, 0, 0, 0, 0, 0, 0, 0, 0, 0, 0, 0<br/>0, 0, 0, 0, 0, 0, 0]<br/>class = Benign>, fillcolor="#e58139"] ;
36 -> 40 ;
41 [label=<IN_BYTES &le; -0.022<br/>gini = 0.185<br/>samples = 20<br/>value = [18, 0, 0, 0, 0, 0, 0, 0, 1, 1, 0, 0, 0, 0<br/>0, 0, 0, 0, 0, 0, 0]<br/>class = Benign>, fillcolor="#e88e4e"] ;
35 -> 41 ;
42 [label=<gini = 0.0<br/>samples = 1<br/>value = [0, 0, 0, 0, 0, 0, 0, 0, 0, 1, 0, 0, 0, 0<br/>0, 0, 0, 0, 0, 0, 0]<br/>class = Analysis>, fillcolor="#39e5e2"] ;
41 -> 42 ;
43 [label=<FLOW_DURATION_MILLISECONDS &le; -1.203<br/>gini = 0.1<br/>samples = 19<br/>value = [18, 0, 0, 0, 0, 0, 0, 0, 1, 0, 0, 0, 0, 0<br/>0, 0, 0, 0, 0, 0, 0]<br/>class = Benign>, fillcolor="#e68844"] ;
41 -> 43 ;
44 [label=<IN_BYTES &le; 0.01<br/>gini = 0.219<br/>samples = 8<br/>value = [7, 0, 0, 0, 0, 0, 0, 0, 1, 0, 0, 0, 0, 0<br/>0, 0, 0, 0, 0, 0, 0]<br/>class = Benign>, fillcolor="#e99355"] ;
43 -> 44 ;
45 [label=<gini = 0.0<br/>samples = 7<br/>value = [7, 0, 0, 0, 0, 0, 0, 0, 0, 0, 0, 0, 0, 0<br/>0, 0, 0, 0, 0, 0, 0]<br/>class = Benign>, fillcolor="#e58139"] ;
44 -> 45 ;
46 [label=<gini = 0.0<br/>samples = 1<br/>value = [0, 0, 0, 0, 0, 0, 0, 0, 1, 0, 0, 0, 0, 0<br/>0, 0, 0, 0, 0, 0, 0]<br/>class = Worms>, fillcolor="#39e5b1"] ;
44 -> 46 ;
47 [label=<gini = 0.0<br/>samples = 11<br/>value = [11, 0, 0, 0, 0, 0, 0, 0, 0, 0, 0, 0, 0, 0<br/>0, 0, 0, 0, 0, 0, 0]<br/>class = Benign>, fillcolor="#e58139"] ;
43 -> 47 ;
48 [label=<FLOW_DURATION_MILLISECONDS &le; -1.205<br/>gini = 0.444<br/>samples = 3<br/>value = [1, 0, 0, 0, 0, 0, 0, 0, 0, 2, 0, 0, 0, 0<br/>0, 0, 0, 0, 0, 0, 0]<br/>class = Analysis>, fillcolor="#9cf2f0"] ;
6 -> 48 ;
49 [label=<gini = 0.0<br/>samples = 1<br/>value = [1, 0, 0, 0, 0, 0, 0, 0, 0, 0, 0, 0, 0, 0<br/>0, 0, 0, 0, 0, 0, 0]<br/>class = Benign>, fillcolor="#e58139"] ;
48 -> 49 ;
50 [label=<gini = 0.0<br/>samples = 2<br/>value = [0, 0, 0, 0, 0, 0, 0, 0, 0, 2, 0, 0, 0, 0<br/>0, 0, 0, 0, 0, 0, 0]<br/>class = Analysis>, fillcolor="#39e5e2"] ;
48 -> 50 ;
51 [label=<FLOW_DURATION_MILLISECONDS &le; -1.195<br/>gini = 0.535<br/>samples = 34<br/>value = [22, 4, 0, 0, 0, 0, 0, 0, 1, 6, 0, 1, 0, 0<br/>0, 0, 0, 0, 0, 0, 0]<br/>class = Benign>, fillcolor="#f0b78e"] ;
5 -> 51 ;
52 [label=<gini = 0.0<br/>samples = 3<br/>value = [0, 3, 0, 0, 0, 0, 0, 0, 0, 0, 0, 0, 0, 0<br/>0, 0, 0, 0, 0, 0, 0]<br/>class = Exploits>, fillcolor="#e5b139"] ;
51 -> 52 ;
53 [label=<L7_PROTO &le; 42.5<br/>gini = 0.456<br/>samples = 31<br/>value = [22, 1, 0, 0, 0, 0, 0, 0, 1, 6, 0, 1, 0, 0<br/>0, 0, 0, 0, 0, 0, 0]<br/>class = Benign>, fillcolor="#eeae80"] ;
51 -> 53 ;
54 [label=<gini = 0.0<br/>samples = 1<br/>value = [0, 0, 0, 0, 0, 0, 0, 0, 0, 0, 0, 1, 0, 0<br/>0, 0, 0, 0, 0, 0, 0]<br/>class = DDoS>, fillcolor="#3986e5"] ;
53 -> 54 ;
55 [label=<FLOW_DURATION_MILLISECONDS &le; -1.151<br/>gini = 0.42<br/>samples = 30<br/>value = [22, 1, 0, 0, 0, 0, 0, 0, 1, 6, 0, 0, 0, 0<br/>0, 0, 0, 0, 0, 0, 0]<br/>class = Benign>, fillcolor="#eeab7b"] ;
53 -> 55 ;
56 [label=<FLOW_DURATION_MILLISECONDS &le; -1.166<br/>gini = 0.472<br/>samples = 21<br/>value = [14, 0, 0, 0, 0, 0, 0, 0, 1, 6, 0, 0, 0, 0<br/>0, 0, 0, 0, 0, 0, 0]<br/>class = Benign>, fillcolor="#f1bc95"] ;
55 -> 56 ;
57 [label=<IN_BYTES &le; -0.018<br/>gini = 0.381<br/>samples = 17<br/>value = [13, 0, 0, 0, 0, 0, 0, 0, 1, 3, 0, 0, 0, 0<br/>0, 0, 0, 0, 0, 0, 0]<br/>class = Benign>, fillcolor="#eca572"] ;
56 -> 57 ;
58 [label=<FLOW_DURATION_MILLISECONDS &le; -1.192<br/>gini = 0.667<br/>samples = 3<br/>value = [1, 0, 0, 0, 0, 0, 0, 0, 1, 1, 0, 0, 0, 0<br/>0, 0, 0, 0, 0, 0, 0]<br/>class = Benign>, fillcolor="#ffffff"] ;
57 -> 58 ;
59 [label=<gini = 0.0<br/>samples = 1<br/>value = [1, 0, 0, 0, 0, 0, 0, 0, 0, 0, 0, 0, 0, 0<br/>0, 0, 0, 0, 0, 0, 0]<br/>class = Benign>, fillcolor="#e58139"] ;
58 -> 59 ;
60 [label=<FLOW_DURATION_MILLISECONDS &le; -1.189<br/>gini = 0.5<br/>samples = 2<br/>value = [0, 0, 0, 0, 0, 0, 0, 0, 1, 1, 0, 0, 0, 0<br/>0, 0, 0, 0, 0, 0, 0]<br/>class = Worms>, fillcolor="#ffffff"] ;
58 -> 60 ;
61 [label=<gini = 0.0<br/>samples = 1<br/>value = [0, 0, 0, 0, 0, 0, 0, 0, 1, 0, 0, 0, 0, 0<br/>0, 0, 0, 0, 0, 0, 0]<br/>class = Worms>, fillcolor="#39e5b1"] ;
60 -> 61 ;
62 [label=<gini = 0.0<br/>samples = 1<br/>value = [0, 0, 0, 0, 0, 0, 0, 0, 0, 1, 0, 0, 0, 0<br/>0, 0, 0, 0, 0, 0, 0]<br/>class = Analysis>, fillcolor="#39e5e2"] ;
60 -> 62 ;
63 [label=<FLOW_DURATION_MILLISECONDS &le; -1.19<br/>gini = 0.245<br/>samples = 14<br/>value = [12, 0, 0, 0, 0, 0, 0, 0, 0, 2, 0, 0, 0, 0<br/>0, 0, 0, 0, 0, 0, 0]<br/>class = Benign>, fillcolor="#e9965a"] ;
57 -> 63 ;
64 [label=<FLOW_DURATION_MILLISECONDS &le; -1.193<br/>gini = 0.408<br/>samples = 7<br/>value = [5, 0, 0, 0, 0, 0, 0, 0, 0, 2, 0, 0, 0, 0<br/>0, 0, 0, 0, 0, 0, 0]<br/>class = Benign>, fillcolor="#efb388"] ;
63 -> 64 ;
65 [label=<gini = 0.0<br/>samples = 5<br/>value = [5, 0, 0, 0, 0, 0, 0, 0, 0, 0, 0, 0, 0, 0<br/>0, 0, 0, 0, 0, 0, 0]<br/>class = Benign>, fillcolor="#e58139"] ;
64 -> 65 ;
66 [label=<gini = 0.0<br/>samples = 2<br/>value = [0, 0, 0, 0, 0, 0, 0, 0, 0, 2, 0, 0, 0, 0<br/>0, 0, 0, 0, 0, 0, 0]<br/>class = Analysis>, fillcolor="#39e5e2"] ;
64 -> 66 ;
67 [label=<gini = 0.0<br/>samples = 7<br/>value = [7, 0, 0, 0, 0, 0, 0, 0, 0, 0, 0, 0, 0, 0<br/>0, 0, 0, 0, 0, 0, 0]<br/>class = Benign>, fillcolor="#e58139"] ;
63 -> 67 ;
68 [label=<IN_PKTS &le; 0.012<br/>gini = 0.375<br/>samples = 4<br/>value = [1, 0, 0, 0, 0, 0, 0, 0, 0, 3, 0, 0, 0, 0<br/>0, 0, 0, 0, 0, 0, 0]<br/>class = Analysis>, fillcolor="#7beeec"] ;
56 -> 68 ;
69 [label=<gini = 0.0<br/>samples = 1<br/>value = [1, 0, 0, 0, 0, 0, 0, 0, 0, 0, 0, 0, 0, 0<br/>0, 0, 0, 0, 0, 0, 0]<br/>class = Benign>, fillcolor="#e58139"] ;
68 -> 69 ;
70 [label=<gini = 0.0<br/>samples = 3<br/>value = [0, 0, 0, 0, 0, 0, 0, 0, 0, 3, 0, 0, 0, 0<br/>0, 0, 0, 0, 0, 0, 0]<br/>class = Analysis>, fillcolor="#39e5e2"] ;
68 -> 70 ;
71 [label=<IN_BYTES &le; 0.242<br/>gini = 0.198<br/>samples = 9<br/>value = [8, 1, 0, 0, 0, 0, 0, 0, 0, 0, 0, 0, 0, 0<br/>0, 0, 0, 0, 0, 0, 0]<br/>class = Benign>, fillcolor="#e89152"] ;
55 -> 71 ;
72 [label=<gini = 0.0<br/>samples = 8<br/>value = [8, 0, 0, 0, 0, 0, 0, 0, 0, 0, 0, 0, 0, 0<br/>0, 0, 0, 0, 0, 0, 0]<br/>class = Benign>, fillcolor="#e58139"] ;
71 -> 72 ;
73 [label=<gini = 0.0<br/>samples = 1<br/>value = [0, 1, 0, 0, 0, 0, 0, 0, 0, 0, 0, 0, 0, 0<br/>0, 0, 0, 0, 0, 0, 0]<br/>class = Exploits>, fillcolor="#e5b139"] ;
71 -> 73 ;
74 [label=<IN_BYTES &le; -0.015<br/>gini = 0.612<br/>samples = 23<br/>value = [0, 0, 5, 0, 0, 0, 0, 12, 6, 0, 0, 0, 0, 0<br/>0, 0, 0, 0, 0, 0, 0]<br/>class = Fuzzers>, fillcolor="#b9f6d1"] ;
4 -> 74 ;
75 [label=<OUT_BYTES &le; -0.034<br/>gini = 0.444<br/>samples = 18<br/>value = [0, 0, 0, 0, 0, 0, 0, 12, 6, 0, 0, 0, 0, 0<br/>0, 0, 0, 0, 0, 0, 0]<br/>class = Fuzzers>, fillcolor="#9cf2be"] ;
74 -> 75 ;
76 [label=<FLOW_DURATION_MILLISECONDS &le; -1.206<br/>gini = 0.245<br/>samples = 7<br/>value = [0, 0, 0, 0, 0, 0, 0, 1, 6, 0, 0, 0, 0, 0<br/>0, 0, 0, 0, 0, 0, 0]<br/>class = Worms>, fillcolor="#5ae9be"] ;
75 -> 76 ;
77 [label=<gini = 0.0<br/>samples = 1<br/>value = [0, 0, 0, 0, 0, 0, 0, 1, 0, 0, 0, 0, 0, 0<br/>0, 0, 0, 0, 0, 0, 0]<br/>class = Fuzzers>, fillcolor="#39e57e"] ;
76 -> 77 ;
78 [label=<gini = 0.0<br/>samples = 6<br/>value = [0, 0, 0, 0, 0, 0, 0, 0, 6, 0, 0, 0, 0, 0<br/>0, 0, 0, 0, 0, 0, 0]<br/>class = Worms>, fillcolor="#39e5b1"] ;
76 -> 78 ;
79 [label=<gini = 0.0<br/>samples = 11<br/>value = [0, 0, 0, 0, 0, 0, 0, 11, 0, 0, 0, 0, 0, 0<br/>0, 0, 0, 0, 0, 0, 0]<br/>class = Fuzzers>, fillcolor="#39e57e"] ;
75 -> 79 ;
80 [label=<gini = 0.0<br/>samples = 5<br/>value = [0, 0, 5, 0, 0, 0, 0, 0, 0, 0, 0, 0, 0, 0<br/>0, 0, 0, 0, 0, 0, 0]<br/>class = Reconnaissance>, fillcolor="#e5e239"] ;
74 -> 80 ;
81 [label=<L7_PROTO &le; 0.5<br/>gini = 0.13<br/>samples = 590<br/>value = [0, 2, 3, 0, 550, 0, 19, 7, 7, 2, 0, 0, 0, 0<br/>0, 0, 0, 0, 0, 0, 0]<br/>class = Generic>, fillcolor="#8ee747"] ;
3 -> 81 ;
82 [label=<IN_BYTES &le; -0.019<br/>gini = 0.065<br/>samples = 569<br/>value = [0, 0, 0, 0, 550, 0, 19, 0, 0, 0, 0, 0, 0, 0<br/>0, 0, 0, 0, 0, 0, 0]<br/>class = Generic>, fillcolor="#8ae640"] ;
81 -> 82 ;
83 [label=<L4_SRC_PORT &le; 49505.0<br/>gini = 0.272<br/>samples = 117<br/>value = [0, 0, 0, 0, 98, 0, 19, 0, 0, 0, 0, 0, 0, 0<br/>0, 0, 0, 0, 0, 0, 0]<br/>class = Generic>, fillcolor="#9dea5f"] ;
82 -> 83 ;
84 [label=<L4_SRC_PORT &le; 49288.0<br/>gini = 0.335<br/>samples = 80<br/>value = [0, 0, 0, 0, 63, 0, 17, 0, 0, 0, 0, 0, 0, 0<br/>0, 0, 0, 0, 0, 0, 0]<br/>class = Generic>, fillcolor="#a7ec6e"] ;
83 -> 84 ;
85 [label=<L4_SRC_PORT &le; 33685.0<br/>gini = 0.323<br/>samples = 79<br/>value = [0, 0, 0, 0, 63, 0, 16, 0, 0, 0, 0, 0, 0, 0<br/>0, 0, 0, 0, 0, 0, 0]<br/>class = Generic>, fillcolor="#a5ec6b"] ;
84 -> 85 ;
86 [label=<gini = 0.0<br/>samples = 7<br/>value = [0, 0, 0, 0, 7, 0, 0, 0, 0, 0, 0, 0, 0, 0<br/>0, 0, 0, 0, 0, 0, 0]<br/>class = Generic>, fillcolor="#86e539"] ;
85 -> 86 ;
87 [label=<L4_SRC_PORT &le; 33789.0<br/>gini = 0.346<br/>samples = 72<br/>value = [0, 0, 0, 0, 56, 0, 16, 0, 0, 0, 0, 0, 0, 0<br/>0, 0, 0, 0, 0, 0, 0]<br/>class = Generic>, fillcolor="#a9ec72"] ;
85 -> 87 ;
88 [label=<gini = 0.0<br/>samples = 2<br/>value = [0, 0, 0, 0, 0, 0, 2, 0, 0, 0, 0, 0, 0, 0<br/>0, 0, 0, 0, 0, 0, 0]<br/>class = Backdoor>, fillcolor="#39e54d"] ;
87 -> 88 ;
89 [label=<L4_SRC_PORT &le; 37093.0<br/>gini = 0.32<br/>samples = 70<br/>value = [0, 0, 0, 0, 56, 0, 14, 0, 0, 0, 0, 0, 0, 0<br/>0, 0, 0, 0, 0, 0, 0]<br/>class = Generic>, fillcolor="#a4ec6a"] ;
87 -> 89 ;
90 [label=<L4_SRC_PORT &le; 35734.0<br/>gini = 0.469<br/>samples = 8<br/>value = [0, 0, 0, 0, 5, 0, 3, 0, 0, 0, 0, 0, 0, 0<br/>0, 0, 0, 0, 0, 0, 0]<br/>class = Generic>, fillcolor="#cff5b0"] ;
89 -> 90 ;
91 [label=<L4_SRC_PORT &le; 35067.0<br/>gini = 0.278<br/>samples = 6<br/>value = [0, 0, 0, 0, 5, 0, 1, 0, 0, 0, 0, 0, 0, 0<br/>0, 0, 0, 0, 0, 0, 0]<br/>class = Generic>, fillcolor="#9eea61"] ;
90 -> 91 ;
92 [label=<L4_SRC_PORT &le; 34302.0<br/>gini = 0.444<br/>samples = 3<br/>value = [0, 0, 0, 0, 2, 0, 1, 0, 0, 0, 0, 0, 0, 0<br/>0, 0, 0, 0, 0, 0, 0]<br/>class = Generic>, fillcolor="#c2f29c"] ;
91 -> 92 ;
93 [label=<gini = 0.0<br/>samples = 2<br/>value = [0, 0, 0, 0, 2, 0, 0, 0, 0, 0, 0, 0, 0, 0<br/>0, 0, 0, 0, 0, 0, 0]<br/>class = Generic>, fillcolor="#86e539"] ;
92 -> 93 ;
94 [label=<gini = 0.0<br/>samples = 1<br/>value = [0, 0, 0, 0, 0, 0, 1, 0, 0, 0, 0, 0, 0, 0<br/>0, 0, 0, 0, 0, 0, 0]<br/>class = Backdoor>, fillcolor="#39e54d"] ;
92 -> 94 ;
95 [label=<gini = 0.0<br/>samples = 3<br/>value = [0, 0, 0, 0, 3, 0, 0, 0, 0, 0, 0, 0, 0, 0<br/>0, 0, 0, 0, 0, 0, 0]<br/>class = Generic>, fillcolor="#86e539"] ;
91 -> 95 ;
96 [label=<gini = 0.0<br/>samples = 2<br/>value = [0, 0, 0, 0, 0, 0, 2, 0, 0, 0, 0, 0, 0, 0<br/>0, 0, 0, 0, 0, 0, 0]<br/>class = Backdoor>, fillcolor="#39e54d"] ;
90 -> 96 ;
97 [label=<L4_SRC_PORT &le; 44653.0<br/>gini = 0.292<br/>samples = 62<br/>value = [0, 0, 0, 0, 51, 0, 11, 0, 0, 0, 0, 0, 0, 0<br/>0, 0, 0, 0, 0, 0, 0]<br/>class = Generic>, fillcolor="#a0eb64"] ;
89 -> 97 ;
98 [label=<L4_SRC_PORT &le; 41989.0<br/>gini = 0.17<br/>samples = 32<br/>value = [0, 0, 0, 0, 29, 0, 3, 0, 0, 0, 0, 0, 0, 0<br/>0, 0, 0, 0, 0, 0, 0]<br/>class = Generic>, fillcolor="#93e84d"] ;
97 -> 98 ;
99 [label=<L4_SRC_PORT &le; 41889.0<br/>gini = 0.219<br/>samples = 24<br/>value = [0, 0, 0, 0, 21, 0, 3, 0, 0, 0, 0, 0, 0, 0<br/>0, 0, 0, 0, 0, 0, 0]<br/>class = Generic>, fillcolor="#97e955"] ;
98 -> 99 ;
100 [label=<L4_SRC_PORT &le; 39925.0<br/>gini = 0.159<br/>samples = 23<br/>value = [0, 0, 0, 0, 21, 0, 2, 0, 0, 0, 0, 0, 0, 0<br/>0, 0, 0, 0, 0, 0, 0]<br/>class = Generic>, fillcolor="#92e74c"] ;
99 -> 100 ;
101 [label=<L4_SRC_PORT &le; 39727.0<br/>gini = 0.245<br/>samples = 14<br/>value = [0, 0, 0, 0, 12, 0, 2, 0, 0, 0, 0, 0, 0, 0<br/>0, 0, 0, 0, 0, 0, 0]<br/>class = Generic>, fillcolor="#9ae95a"] ;
100 -> 101 ;
102 [label=<L4_SRC_PORT &le; 38230.0<br/>gini = 0.142<br/>samples = 13<br/>value = [0, 0, 0, 0, 12, 0, 1, 0, 0, 0, 0, 0, 0, 0<br/>0, 0, 0, 0, 0, 0, 0]<br/>class = Generic>, fillcolor="#90e749"] ;
101 -> 102 ;
103 [label=<L4_SRC_PORT &le; 37996.0<br/>gini = 0.32<br/>samples = 5<br/>value = [0, 0, 0, 0, 4, 0, 1, 0, 0, 0, 0, 0, 0, 0<br/>0, 0, 0, 0, 0, 0, 0]<br/>class = Generic>, fillcolor="#a4ec6a"] ;
102 -> 103 ;
104 [label=<gini = 0.0<br/>samples = 4<br/>value = [0, 0, 0, 0, 4, 0, 0, 0, 0, 0, 0, 0, 0, 0<br/>0, 0, 0, 0, 0, 0, 0]<br/>class = Generic>, fillcolor="#86e539"] ;
103 -> 104 ;
105 [label=<gini = 0.0<br/>samples = 1<br/>value = [0, 0, 0, 0, 0, 0, 1, 0, 0, 0, 0, 0, 0, 0<br/>0, 0, 0, 0, 0, 0, 0]<br/>class = Backdoor>, fillcolor="#39e54d"] ;
103 -> 105 ;
106 [label=<gini = 0.0<br/>samples = 8<br/>value = [0, 0, 0, 0, 8, 0, 0, 0, 0, 0, 0, 0, 0, 0<br/>0, 0, 0, 0, 0, 0, 0]<br/>class = Generic>, fillcolor="#86e539"] ;
102 -> 106 ;
107 [label=<gini = 0.0<br/>samples = 1<br/>value = [0, 0, 0, 0, 0, 0, 1, 0, 0, 0, 0, 0, 0, 0<br/>0, 0, 0, 0, 0, 0, 0]<br/>class = Backdoor>, fillcolor="#39e54d"] ;
101 -> 107 ;
108 [label=<gini = 0.0<br/>samples = 9<br/>value = [0, 0, 0, 0, 9, 0, 0, 0, 0, 0, 0, 0, 0, 0<br/>0, 0, 0, 0, 0, 0, 0]<br/>class = Generic>, fillcolor="#86e539"] ;
100 -> 108 ;
109 [label=<gini = 0.0<br/>samples = 1<br/>value = [0, 0, 0, 0, 0, 0, 1, 0, 0, 0, 0, 0, 0, 0<br/>0, 0, 0, 0, 0, 0, 0]<br/>class = Backdoor>, fillcolor="#39e54d"] ;
99 -> 109 ;
110 [label=<gini = 0.0<br/>samples = 8<br/>value = [0, 0, 0, 0, 8, 0, 0, 0, 0, 0, 0, 0, 0, 0<br/>0, 0, 0, 0, 0, 0, 0]<br/>class = Generic>, fillcolor="#86e539"] ;
98 -> 110 ;
111 [label=<L4_SRC_PORT &le; 45349.0<br/>gini = 0.391<br/>samples = 30<br/>value = [0, 0, 0, 0, 22, 0, 8, 0, 0, 0, 0, 0, 0, 0<br/>0, 0, 0, 0, 0, 0, 0]<br/>class = Generic>, fillcolor="#b2ee81"] ;
97 -> 111 ;
112 [label=<L4_SRC_PORT &le; 44788.0<br/>gini = 0.469<br/>samples = 8<br/>value = [0, 0, 0, 0, 3, 0, 5, 0, 0, 0, 0, 0, 0, 0<br/>0, 0, 0, 0, 0, 0, 0]<br/>class = Backdoor>, fillcolor="#b0f5b8"] ;
111 -> 112 ;
113 [label=<gini = 0.0<br/>samples = 2<br/>value = [0, 0, 0, 0, 0, 0, 2, 0, 0, 0, 0, 0, 0, 0<br/>0, 0, 0, 0, 0, 0, 0]<br/>class = Backdoor>, fillcolor="#39e54d"] ;
112 -> 113 ;
114 [label=<L4_SRC_PORT &le; 45015.0<br/>gini = 0.5<br/>samples = 6<br/>value = [0, 0, 0, 0, 3, 0, 3, 0, 0, 0, 0, 0, 0, 0<br/>0, 0, 0, 0, 0, 0, 0]<br/>class = Generic>, fillcolor="#ffffff"] ;
112 -> 114 ;
115 [label=<gini = 0.0<br/>samples = 2<br/>value = [0, 0, 0, 0, 2, 0, 0, 0, 0, 0, 0, 0, 0, 0<br/>0, 0, 0, 0, 0, 0, 0]<br/>class = Generic>, fillcolor="#86e539"] ;
114 -> 115 ;
116 [label=<L4_SRC_PORT &le; 45207.0<br/>gini = 0.375<br/>samples = 4<br/>value = [0, 0, 0, 0, 1, 0, 3, 0, 0, 0, 0, 0, 0, 0<br/>0, 0, 0, 0, 0, 0, 0]<br/>class = Backdoor>, fillcolor="#7bee88"] ;
114 -> 116 ;
117 [label=<gini = 0.0<br/>samples = 2<br/>value = [0, 0, 0, 0, 0, 0, 2, 0, 0, 0, 0, 0, 0, 0<br/>0, 0, 0, 0, 0, 0, 0]<br/>class = Backdoor>, fillcolor="#39e54d"] ;
116 -> 117 ;
118 [label=<L4_SRC_PORT &le; 45275.0<br/>gini = 0.5<br/>samples = 2<br/>value = [0, 0, 0, 0, 1, 0, 1, 0, 0, 0, 0, 0, 0, 0<br/>0, 0, 0, 0, 0, 0, 0]<br/>class = Generic>, fillcolor="#ffffff"] ;
116 -> 118 ;
119 [label=<gini = 0.0<br/>samples = 1<br/>value = [0, 0, 0, 0, 1, 0, 0, 0, 0, 0, 0, 0, 0, 0<br/>0, 0, 0, 0, 0, 0, 0]<br/>class = Generic>, fillcolor="#86e539"] ;
118 -> 119 ;
120 [label=<gini = 0.0<br/>samples = 1<br/>value = [0, 0, 0, 0, 0, 0, 1, 0, 0, 0, 0, 0, 0, 0<br/>0, 0, 0, 0, 0, 0, 0]<br/>class = Backdoor>, fillcolor="#39e54d"] ;
118 -> 120 ;
121 [label=<L4_SRC_PORT &le; 47532.0<br/>gini = 0.236<br/>samples = 22<br/>value = [0, 0, 0, 0, 19, 0, 3, 0, 0, 0, 0, 0, 0, 0<br/>0, 0, 0, 0, 0, 0, 0]<br/>class = Generic>, fillcolor="#99e958"] ;
111 -> 121 ;
122 [label=<L4_SRC_PORT &le; 46335.0<br/>gini = 0.124<br/>samples = 15<br/>value = [0, 0, 0, 0, 14, 0, 1, 0, 0, 0, 0, 0, 0, 0<br/>0, 0, 0, 0, 0, 0, 0]<br/>class = Generic>, fillcolor="#8fe747"] ;
121 -> 122 ;
123 [label=<gini = 0.0<br/>samples = 7<br/>value = [0, 0, 0, 0, 7, 0, 0, 0, 0, 0, 0, 0, 0, 0<br/>0, 0, 0, 0, 0, 0, 0]<br/>class = Generic>, fillcolor="#86e539"] ;
122 -> 123 ;
124 [label=<L4_SRC_PORT &le; 46501.0<br/>gini = 0.219<br/>samples = 8<br/>value = [0, 0, 0, 0, 7, 0, 1, 0, 0, 0, 0, 0, 0, 0<br/>0, 0, 0, 0, 0, 0, 0]<br/>class = Generic>, fillcolor="#97e955"] ;
122 -> 124 ;
125 [label=<gini = 0.0<br/>samples = 1<br/>value = [0, 0, 0, 0, 0, 0, 1, 0, 0, 0, 0, 0, 0, 0<br/>0, 0, 0, 0, 0, 0, 0]<br/>class = Backdoor>, fillcolor="#39e54d"] ;
124 -> 125 ;
126 [label=<gini = 0.0<br/>samples = 7<br/>value = [0, 0, 0, 0, 7, 0, 0, 0, 0, 0, 0, 0, 0, 0<br/>0, 0, 0, 0, 0, 0, 0]<br/>class = Generic>, fillcolor="#86e539"] ;
124 -> 126 ;
127 [label=<L4_SRC_PORT &le; 48127.0<br/>gini = 0.408<br/>samples = 7<br/>value = [0, 0, 0, 0, 5, 0, 2, 0, 0, 0, 0, 0, 0, 0<br/>0, 0, 0, 0, 0, 0, 0]<br/>class = Generic>, fillcolor="#b6ef88"] ;
121 -> 127 ;
128 [label=<gini = 0.0<br/>samples = 1<br/>value = [0, 0, 0, 0, 0, 0, 1, 0, 0, 0, 0, 0, 0, 0<br/>0, 0, 0, 0, 0, 0, 0]<br/>class = Backdoor>, fillcolor="#39e54d"] ;
127 -> 128 ;
129 [label=<L4_SRC_PORT &le; 48538.0<br/>gini = 0.278<br/>samples = 6<br/>value = [0, 0, 0, 0, 5, 0, 1, 0, 0, 0, 0, 0, 0, 0<br/>0, 0, 0, 0, 0, 0, 0]<br/>class = Generic>, fillcolor="#9eea61"] ;
127 -> 129 ;
130 [label=<L4_SRC_PORT &le; 48268.0<br/>gini = 0.444<br/>samples = 3<br/>value = [0, 0, 0, 0, 2, 0, 1, 0, 0, 0, 0, 0, 0, 0<br/>0, 0, 0, 0, 0, 0, 0]<br/>class = Generic>, fillcolor="#c2f29c"] ;
129 -> 130 ;
131 [label=<gini = 0.0<br/>samples = 2<br/>value = [0, 0, 0, 0, 2, 0, 0, 0, 0, 0, 0, 0, 0, 0<br/>0, 0, 0, 0, 0, 0, 0]<br/>class = Generic>, fillcolor="#86e539"] ;
130 -> 131 ;
132 [label=<gini = 0.0<br/>samples = 1<br/>value = [0, 0, 0, 0, 0, 0, 1, 0, 0, 0, 0, 0, 0, 0<br/>0, 0, 0, 0, 0, 0, 0]<br/>class = Backdoor>, fillcolor="#39e54d"] ;
130 -> 132 ;
133 [label=<gini = 0.0<br/>samples = 3<br/>value = [0, 0, 0, 0, 3, 0, 0, 0, 0, 0, 0, 0, 0, 0<br/>0, 0, 0, 0, 0, 0, 0]<br/>class = Generic>, fillcolor="#86e539"] ;
129 -> 133 ;
134 [label=<gini = 0.0<br/>samples = 1<br/>value = [0, 0, 0, 0, 0, 0, 1, 0, 0, 0, 0, 0, 0, 0<br/>0, 0, 0, 0, 0, 0, 0]<br/>class = Backdoor>, fillcolor="#39e54d"] ;
84 -> 134 ;
135 [label=<L4_SRC_PORT &le; 55514.0<br/>gini = 0.102<br/>samples = 37<br/>value = [0, 0, 0, 0, 35, 0, 2, 0, 0, 0, 0, 0, 0, 0<br/>0, 0, 0, 0, 0, 0, 0]<br/>class = Generic>, fillcolor="#8de644"] ;
83 -> 135 ;
136 [label=<gini = 0.0<br/>samples = 21<br/>value = [0, 0, 0, 0, 21, 0, 0, 0, 0, 0, 0, 0, 0, 0<br/>0, 0, 0, 0, 0, 0, 0]<br/>class = Generic>, fillcolor="#86e539"] ;
135 -> 136 ;
137 [label=<L4_SRC_PORT &le; 56116.0<br/>gini = 0.219<br/>samples = 16<br/>value = [0, 0, 0, 0, 14, 0, 2, 0, 0, 0, 0, 0, 0, 0<br/>0, 0, 0, 0, 0, 0, 0]<br/>class = Generic>, fillcolor="#97e955"] ;
135 -> 137 ;
138 [label=<gini = 0.0<br/>samples = 1<br/>value = [0, 0, 0, 0, 0, 0, 1, 0, 0, 0, 0, 0, 0, 0<br/>0, 0, 0, 0, 0, 0, 0]<br/>class = Backdoor>, fillcolor="#39e54d"] ;
137 -> 138 ;
139 [label=<L4_SRC_PORT &le; 58651.0<br/>gini = 0.124<br/>samples = 15<br/>value = [0, 0, 0, 0, 14, 0, 1, 0, 0, 0, 0, 0, 0, 0<br/>0, 0, 0, 0, 0, 0, 0]<br/>class = Generic>, fillcolor="#8fe747"] ;
137 -> 139 ;
140 [label=<gini = 0.0<br/>samples = 7<br/>value = [0, 0, 0, 0, 7, 0, 0, 0, 0, 0, 0, 0, 0, 0<br/>0, 0, 0, 0, 0, 0, 0]<br/>class = Generic>, fillcolor="#86e539"] ;
139 -> 140 ;
141 [label=<L4_SRC_PORT &le; 58878.0<br/>gini = 0.219<br/>samples = 8<br/>value = [0, 0, 0, 0, 7, 0, 1, 0, 0, 0, 0, 0, 0, 0<br/>0, 0, 0, 0, 0, 0, 0]<br/>class = Generic>, fillcolor="#97e955"] ;
139 -> 141 ;
142 [label=<gini = 0.0<br/>samples = 1<br/>value = [0, 0, 0, 0, 0, 0, 1, 0, 0, 0, 0, 0, 0, 0<br/>0, 0, 0, 0, 0, 0, 0]<br/>class = Backdoor>, fillcolor="#39e54d"] ;
141 -> 142 ;
143 [label=<gini = 0.0<br/>samples = 7<br/>value = [0, 0, 0, 0, 7, 0, 0, 0, 0, 0, 0, 0, 0, 0<br/>0, 0, 0, 0, 0, 0, 0]<br/>class = Generic>, fillcolor="#86e539"] ;
141 -> 143 ;
144 [label=<gini = 0.0<br/>samples = 452<br/>value = [0, 0, 0, 0, 452, 0, 0, 0, 0, 0, 0, 0, 0, 0<br/>0, 0, 0, 0, 0, 0, 0]<br/>class = Generic>, fillcolor="#86e539"] ;
82 -> 144 ;
145 [label=<TCP_FLAGS &le; 23.0<br/>gini = 0.739<br/>samples = 21<br/>value = [0, 2, 3, 0, 0, 0, 0, 7, 7, 2, 0, 0, 0, 0<br/>0, 0, 0, 0, 0, 0, 0]<br/>class = Fuzzers>, fillcolor="#ffffff"] ;
81 -> 145 ;
146 [label=<FLOW_DURATION_MILLISECONDS &le; -1.206<br/>gini = 0.651<br/>samples = 13<br/>value = [0, 2, 1, 0, 0, 0, 0, 1, 7, 2, 0, 0, 0, 0<br/>0, 0, 0, 0, 0, 0, 0]<br/>class = Worms>, fillcolor="#a5f3dc"] ;
145 -> 146 ;
147 [label=<IN_PKTS &le; -0.015<br/>gini = 0.72<br/>samples = 5<br/>value = [0, 2, 1, 0, 0, 0, 0, 1, 0, 1, 0, 0, 0, 0<br/>0, 0, 0, 0, 0, 0, 0]<br/>class = Exploits>, fillcolor="#f8ecce"] ;
146 -> 147 ;
148 [label=<IN_BYTES &le; -0.025<br/>gini = 0.667<br/>samples = 3<br/>value = [0, 0, 1, 0, 0, 0, 0, 1, 0, 1, 0, 0, 0, 0<br/>0, 0, 0, 0, 0, 0, 0]<br/>class = Reconnaissance>, fillcolor="#ffffff"] ;
147 -> 148 ;
149 [label=<gini = 0.0<br/>samples = 1<br/>value = [0, 0, 1, 0, 0, 0, 0, 0, 0, 0, 0, 0, 0, 0<br/>0, 0, 0, 0, 0, 0, 0]<br/>class = Reconnaissance>, fillcolor="#e5e239"] ;
148 -> 149 ;
150 [label=<L4_SRC_PORT &le; 38662.5<br/>gini = 0.5<br/>samples = 2<br/>value = [0, 0, 0, 0, 0, 0, 0, 1, 0, 1, 0, 0, 0, 0<br/>0, 0, 0, 0, 0, 0, 0]<br/>class = Fuzzers>, fillcolor="#ffffff"] ;
148 -> 150 ;
151 [label=<gini = 0.0<br/>samples = 1<br/>value = [0, 0, 0, 0, 0, 0, 0, 0, 0, 1, 0, 0, 0, 0<br/>0, 0, 0, 0, 0, 0, 0]<br/>class = Analysis>, fillcolor="#39e5e2"] ;
150 -> 151 ;
152 [label=<gini = 0.0<br/>samples = 1<br/>value = [0, 0, 0, 0, 0, 0, 0, 1, 0, 0, 0, 0, 0, 0<br/>0, 0, 0, 0, 0, 0, 0]<br/>class = Fuzzers>, fillcolor="#39e57e"] ;
150 -> 152 ;
153 [label=<gini = 0.0<br/>samples = 2<br/>value = [0, 2, 0, 0, 0, 0, 0, 0, 0, 0, 0, 0, 0, 0<br/>0, 0, 0, 0, 0, 0, 0]<br/>class = Exploits>, fillcolor="#e5b139"] ;
147 -> 153 ;
154 [label=<IN_BYTES &le; -0.005<br/>gini = 0.219<br/>samples = 8<br/>value = [0, 0, 0, 0, 0, 0, 0, 0, 7, 1, 0, 0, 0, 0<br/>0, 0, 0, 0, 0, 0, 0]<br/>class = Worms>, fillcolor="#55e9bc"] ;
146 -> 154 ;
155 [label=<gini = 0.0<br/>samples = 7<br/>value = [0, 0, 0, 0, 0, 0, 0, 0, 7, 0, 0, 0, 0, 0<br/>0, 0, 0, 0, 0, 0, 0]<br/>class = Worms>, fillcolor="#39e5b1"] ;
154 -> 155 ;
156 [label=<gini = 0.0<br/>samples = 1<br/>value = [0, 0, 0, 0, 0, 0, 0, 0, 0, 1, 0, 0, 0, 0<br/>0, 0, 0, 0, 0, 0, 0]<br/>class = Analysis>, fillcolor="#39e5e2"] ;
154 -> 156 ;
157 [label=<L7_PROTO &le; 46.5<br/>gini = 0.375<br/>samples = 8<br/>value = [0, 0, 2, 0, 0, 0, 0, 6, 0, 0, 0, 0, 0, 0<br/>0, 0, 0, 0, 0, 0, 0]<br/>class = Fuzzers>, fillcolor="#7beea9"] ;
145 -> 157 ;
158 [label=<gini = 0.0<br/>samples = 6<br/>value = [0, 0, 0, 0, 0, 0, 0, 6, 0, 0, 0, 0, 0, 0<br/>0, 0, 0, 0, 0, 0, 0]<br/>class = Fuzzers>, fillcolor="#39e57e"] ;
157 -> 158 ;
159 [label=<gini = 0.0<br/>samples = 2<br/>value = [0, 0, 2, 0, 0, 0, 0, 0, 0, 0, 0, 0, 0, 0<br/>0, 0, 0, 0, 0, 0, 0]<br/>class = Reconnaissance>, fillcolor="#e5e239"] ;
157 -> 159 ;
160 [label=<L4_DST_PORT &le; 8335.5<br/>gini = 0.936<br/>samples = 7383<br/>value = [268, 540, 143, 0, 0, 501, 413, 463, 468, 441, 36<br/>67, 541, 0, 482, 516, 457, 503, 515, 517, 512]<br/>class = scanning>, fillcolor="#ffffff"] ;
2 -> 160 ;
161 [label=<OUT_PKTS &le; 0.022<br/>gini = 0.931<br/>samples = 6744<br/>value = [268, 534, 69, 0, 0, 501, 413, 442, 468, 422, 36<br/>46, 59, 0, 467, 516, 456, 503, 515, 517, 512]<br/>class = Exploits>, fillcolor="#fffffe"] ;
160 -> 161 ;
162 [label=<TCP_FLAGS &le; 30.5<br/>gini = 0.926<br/>samples = 5930<br/>value = [268, 10, 58, 0, 0, 500, 413, 331, 464, 368, 36<br/>46, 59, 0, 379, 516, 439, 503, 511, 517, 512]<br/>class = Brute Force>, fillcolor="#ffffff"] ;
161 -> 162 ;
163 [label=<IN_PKTS &le; -0.017<br/>gini = 0.921<br/>samples = 5243<br/>value = [268, 7, 57, 0, 0, 418, 382, 331, 464, 368, 36<br/>29, 59, 0, 379, 474, 413, 502, 28, 517, 511]<br/>class = Brute Force>, fillcolor="#ffffff"] ;
162 -> 163 ;
164 [label=<OUT_BYTES &le; -0.035<br/>gini = 0.879<br/>samples = 3300<br/>value = [0, 2, 43, 0, 0, 414, 171, 4, 119, 96, 36, 24<br/>33, 0, 30, 471, 299, 502, 28, 517, 511]<br/>class = Brute Force>, fillcolor="#ffffff"] ;
163 -> 164 ;
165 [label=<OUT_BYTES &le; -0.037<br/>gini = 0.882<br/>samples = 1745<br/>value = [0, 2, 41, 0, 0, 314, 163, 4, 119, 86, 36, 22<br/>33, 0, 30, 68, 284, 120, 28, 316, 79]<br/>class = Brute Force>, fillcolor="#ffffff"] ;
164 -> 165 ;
166 [label=<PROTOCOL &le; 11.5<br/>gini = 0.832<br/>samples = 521<br/>value = [0, 0, 9, 0, 0, 68, 129, 4, 119, 86, 1, 21, 33<br/>0, 30, 2, 2, 11, 0, 6, 0]<br/>class = Backdoor>, fillcolor="#fafefb"] ;
165 -> 166 ;
167 [label=<IN_BYTES &le; -0.026<br/>gini = 0.6<br/>samples = 225<br/>value = [0, 0, 6, 0, 0, 66, 125, 0, 0, 0, 1, 10, 0, 0<br/>0, 2, 0, 11, 0, 4, 0]<br/>class = Backdoor>, fillcolor="#b6f5bd"] ;
166 -> 167 ;
168 [label=<L4_DST_PORT &le; 493.5<br/>gini = 0.679<br/>samples = 135<br/>value = [0, 0, 6, 0, 0, 66, 35, 0, 0, 0, 1, 10, 0, 0<br/>0, 2, 0, 11, 0, 4, 0]<br/>class = Shellcode>, fillcolor="#cbf7c2"] ;
167 -> 168 ;
169 [label=<IN_BYTES &le; -0.026<br/>gini = 0.643<br/>samples = 127<br/>value = [0, 0, 5, 0, 0, 66, 35, 0, 0, 0, 1, 3, 0, 0<br/>0, 2, 0, 11, 0, 4, 0]<br/>class = Shellcode>, fillcolor="#c6f6bc"] ;
168 -> 169 ;
170 [label=<TCP_FLAGS &le; 18.0<br/>gini = 0.373<br/>samples = 36<br/>value = [0, 0, 5, 0, 0, 28, 1, 0, 0, 0, 1, 0, 0, 0<br/>0, 0, 0, 1, 0, 0, 0]<br/>class = Shellcode>, fillcolor="#82ec6c"] ;
169 -> 170 ;
171 [label=<TCP_FLAGS &le; 3.0<br/>gini = 0.449<br/>samples = 7<br/>value = [0, 0, 5, 0, 0, 0, 1, 0, 0, 0, 0, 0, 0, 0<br/>0, 0, 0, 1, 0, 0, 0]<br/>class = Reconnaissance>, fillcolor="#eeec7b"] ;
170 -> 171 ;
172 [label=<gini = 0.0<br/>samples = 5<br/>value = [0, 0, 5, 0, 0, 0, 0, 0, 0, 0, 0, 0, 0, 0<br/>0, 0, 0, 0, 0, 0, 0]<br/>class = Reconnaissance>, fillcolor="#e5e239"] ;
171 -> 172 ;
173 [label=<L4_SRC_PORT &le; 44343.0<br/>gini = 0.5<br/>samples = 2<br/>value = [0, 0, 0, 0, 0, 0, 1, 0, 0, 0, 0, 0, 0, 0<br/>0, 0, 0, 1, 0, 0, 0]<br/>class = Backdoor>, fillcolor="#ffffff"] ;
171 -> 173 ;
174 [label=<gini = 0.0<br/>samples = 1<br/>value = [0, 0, 0, 0, 0, 0, 1, 0, 0, 0, 0, 0, 0, 0<br/>0, 0, 0, 0, 0, 0, 0]<br/>class = Backdoor>, fillcolor="#39e54d"] ;
173 -> 174 ;
175 [label=<gini = 0.0<br/>samples = 1<br/>value = [0, 0, 0, 0, 0, 0, 0, 0, 0, 0, 0, 0, 0, 0<br/>0, 0, 0, 1, 0, 0, 0]<br/>class = Infilteration>, fillcolor="#e539b7"] ;
173 -> 175 ;
176 [label=<L4_DST_PORT &le; 261.5<br/>gini = 0.067<br/>samples = 29<br/>value = [0, 0, 0, 0, 0, 28, 0, 0, 0, 0, 1, 0, 0, 0<br/>0, 0, 0, 0, 0, 0, 0]<br/>class = Shellcode>, fillcolor="#5ce640"] ;
170 -> 176 ;
177 [label=<gini = 0.0<br/>samples = 28<br/>value = [0, 0, 0, 0, 0, 28, 0, 0, 0, 0, 0, 0, 0, 0<br/>0, 0, 0, 0, 0, 0, 0]<br/>class = Shellcode>, fillcolor="#56e539"] ;
176 -> 177 ;
178 [label=<gini = 0.0<br/>samples = 1<br/>value = [0, 0, 0, 0, 0, 0, 0, 0, 0, 0, 1, 0, 0, 0<br/>0, 0, 0, 0, 0, 0, 0]<br/>class = injection>, fillcolor="#39b7e5"] ;
176 -> 178 ;
179 [label=<TCP_FLAGS &le; 19.5<br/>gini = 0.67<br/>samples = 91<br/>value = [0, 0, 0, 0, 0, 38, 34, 0, 0, 0, 0, 3, 0, 0<br/>0, 2, 0, 10, 0, 4, 0]<br/>class = Shellcode>, fillcolor="#f3fdf1"] ;
169 -> 179 ;
180 [label=<L7_PROTO &le; 49.0<br/>gini = 0.59<br/>samples = 37<br/>value = [0, 0, 0, 0, 0, 21, 0, 0, 0, 0, 0, 0, 0, 0<br/>0, 2, 0, 10, 0, 4, 0]<br/>class = Shellcode>, fillcolor="#baf4ae"] ;
179 -> 180 ;
181 [label=<L4_SRC_PORT &le; 38058.0<br/>gini = 0.66<br/>samples = 20<br/>value = [0, 0, 0, 0, 0, 4, 0, 0, 0, 0, 0, 0, 0, 0<br/>0, 2, 0, 10, 0, 4, 0]<br/>class = Infilteration>, fillcolor="#f5b5e4"] ;
180 -> 181 ;
182 [label=<L4_SRC_PORT &le; 33092.0<br/>gini = 0.346<br/>samples = 9<br/>value = [0, 0, 0, 0, 0, 0, 0, 0, 0, 0, 0, 0, 0, 0<br/>0, 2, 0, 7, 0, 0, 0]<br/>class = Infilteration>, fillcolor="#ec72cc"] ;
181 -> 182 ;
183 [label=<gini = 0.0<br/>samples = 2<br/>value = [0, 0, 0, 0, 0, 0, 0, 0, 0, 0, 0, 0, 0, 0<br/>0, 2, 0, 0, 0, 0, 0]<br/>class = xss>, fillcolor="#b139e5"] ;
182 -> 183 ;
184 [label=<gini = 0.0<br/>samples = 7<br/>value = [0, 0, 0, 0, 0, 0, 0, 0, 0, 0, 0, 0, 0, 0<br/>0, 0, 0, 7, 0, 0, 0]<br/>class = Infilteration>, fillcolor="#e539b7"] ;
182 -> 184 ;
185 [label=<L4_SRC_PORT &le; 42677.0<br/>gini = 0.661<br/>samples = 11<br/>value = [0, 0, 0, 0, 0, 4, 0, 0, 0, 0, 0, 0, 0, 0<br/>0, 0, 0, 3, 0, 4, 0]<br/>class = Shellcode>, fillcolor="#ffffff"] ;
181 -> 185 ;
186 [label=<gini = 0.0<br/>samples = 2<br/>value = [0, 0, 0, 0, 0, 0, 0, 0, 0, 0, 0, 0, 0, 0<br/>0, 0, 0, 0, 0, 2, 0]<br/>class = Brute Force>, fillcolor="#e53956"] ;
185 -> 186 ;
187 [label=<L4_SRC_PORT &le; 56154.0<br/>gini = 0.642<br/>samples = 9<br/>value = [0, 0, 0, 0, 0, 4, 0, 0, 0, 0, 0, 0, 0, 0<br/>0, 0, 0, 3, 0, 2, 0]<br/>class = Shellcode>, fillcolor="#e3fbde"] ;
185 -> 187 ;
188 [label=<L4_SRC_PORT &le; 44253.0<br/>gini = 0.5<br/>samples = 6<br/>value = [0, 0, 0, 0, 0, 3, 0, 0, 0, 0, 0, 0, 0, 0<br/>0, 0, 0, 3, 0, 0, 0]<br/>class = Shellcode>, fillcolor="#ffffff"] ;
187 -> 188 ;
189 [label=<gini = 0.0<br/>samples = 1<br/>value = [0, 0, 0, 0, 0, 1, 0, 0, 0, 0, 0, 0, 0, 0<br/>0, 0, 0, 0, 0, 0, 0]<br/>class = Shellcode>, fillcolor="#56e539"] ;
188 -> 189 ;
190 [label=<FLOW_DURATION_MILLISECONDS &le; -1.207<br/>gini = 0.48<br/>samples = 5<br/>value = [0, 0, 0, 0, 0, 2, 0, 0, 0, 0, 0, 0, 0, 0<br/>0, 0, 0, 3, 0, 0, 0]<br/>class = Infilteration>, fillcolor="#f6bde7"] ;
188 -> 190 ;
191 [label=<L4_SRC_PORT &le; 44770.0<br/>gini = 0.5<br/>samples = 4<br/>value = [0, 0, 0, 0, 0, 2, 0, 0, 0, 0, 0, 0, 0, 0<br/>0, 0, 0, 2, 0, 0, 0]<br/>class = Shellcode>, fillcolor="#ffffff"] ;
190 -> 191 ;
192 [label=<gini = 0.0<br/>samples = 1<br/>value = [0, 0, 0, 0, 0, 0, 0, 0, 0, 0, 0, 0, 0, 0<br/>0, 0, 0, 1, 0, 0, 0]<br/>class = Infilteration>, fillcolor="#e539b7"] ;
191 -> 192 ;
193 [label=<IN_PKTS &le; -0.02<br/>gini = 0.444<br/>samples = 3<br/>value = [0, 0, 0, 0, 0, 2, 0, 0, 0, 0, 0, 0, 0, 0<br/>0, 0, 0, 1, 0, 0, 0]<br/>class = Shellcode>, fillcolor="#aaf29c"] ;
191 -> 193 ;
194 [label=<L4_SRC_PORT &le; 45025.0<br/>gini = 0.5<br/>samples = 2<br/>value = [0, 0, 0, 0, 0, 1, 0, 0, 0, 0, 0, 0, 0, 0<br/>0, 0, 0, 1, 0, 0, 0]<br/>class = Shellcode>, fillcolor="#ffffff"] ;
193 -> 194 ;
195 [label=<gini = 0.0<br/>samples = 1<br/>value = [0, 0, 0, 0, 0, 1, 0, 0, 0, 0, 0, 0, 0, 0<br/>0, 0, 0, 0, 0, 0, 0]<br/>class = Shellcode>, fillcolor="#56e539"] ;
194 -> 195 ;
196 [label=<gini = 0.0<br/>samples = 1<br/>value = [0, 0, 0, 0, 0, 0, 0, 0, 0, 0, 0, 0, 0, 0<br/>0, 0, 0, 1, 0, 0, 0]<br/>class = Infilteration>, fillcolor="#e539b7"] ;
194 -> 196 ;
197 [label=<gini = 0.0<br/>samples = 1<br/>value = [0, 0, 0, 0, 0, 1, 0, 0, 0, 0, 0, 0, 0, 0<br/>0, 0, 0, 0, 0, 0, 0]<br/>class = Shellcode>, fillcolor="#56e539"] ;
193 -> 197 ;
198 [label=<gini = 0.0<br/>samples = 1<br/>value = [0, 0, 0, 0, 0, 0, 0, 0, 0, 0, 0, 0, 0, 0<br/>0, 0, 0, 1, 0, 0, 0]<br/>class = Infilteration>, fillcolor="#e539b7"] ;
190 -> 198 ;
199 [label=<L4_SRC_PORT &le; 57501.0<br/>gini = 0.444<br/>samples = 3<br/>value = [0, 0, 0, 0, 0, 1, 0, 0, 0, 0, 0, 0, 0, 0<br/>0, 0, 0, 0, 0, 2, 0]<br/>class = Brute Force>, fillcolor="#f29caa"] ;
187 -> 199 ;
200 [label=<gini = 0.0<br/>samples = 2<br/>value = [0, 0, 0, 0, 0, 0, 0, 0, 0, 0, 0, 0, 0, 0<br/>0, 0, 0, 0, 0, 2, 0]<br/>class = Brute Force>, fillcolor="#e53956"] ;
199 -> 200 ;
201 [label=<gini = 0.0<br/>samples = 1<br/>value = [0, 0, 0, 0, 0, 1, 0, 0, 0, 0, 0, 0, 0, 0<br/>0, 0, 0, 0, 0, 0, 0]<br/>class = Shellcode>, fillcolor="#56e539"] ;
199 -> 201 ;
202 [label=<gini = 0.0<br/>samples = 17<br/>value = [0, 0, 0, 0, 0, 17, 0, 0, 0, 0, 0, 0, 0, 0<br/>0, 0, 0, 0, 0, 0, 0]<br/>class = Shellcode>, fillcolor="#56e539"] ;
180 -> 202 ;
203 [label=<FLOW_DURATION_MILLISECONDS &le; -0.858<br/>gini = 0.501<br/>samples = 54<br/>value = [0, 0, 0, 0, 0, 17, 34, 0, 0, 0, 0, 3, 0, 0<br/>0, 0, 0, 0, 0, 0, 0]<br/>class = Backdoor>, fillcolor="#a4f3ad"] ;
179 -> 203 ;
204 [label=<L4_SRC_PORT &le; 33109.0<br/>gini = 0.439<br/>samples = 44<br/>value = [0, 0, 0, 0, 0, 11, 31, 0, 0, 0, 0, 2, 0, 0<br/>0, 0, 0, 0, 0, 0, 0]<br/>class = Backdoor>, fillcolor="#87ef93"] ;
203 -> 204 ;
205 [label=<gini = 0.0<br/>samples = 1<br/>value = [0, 0, 0, 0, 0, 0, 0, 0, 0, 0, 0, 1, 0, 0<br/>0, 0, 0, 0, 0, 0, 0]<br/>class = DDoS>, fillcolor="#3986e5"] ;
204 -> 205 ;
206 [label=<L7_PROTO &le; 3.5<br/>gini = 0.414<br/>samples = 43<br/>value = [0, 0, 0, 0, 0, 11, 31, 0, 0, 0, 0, 1, 0, 0<br/>0, 0, 0, 0, 0, 0, 0]<br/>class = Backdoor>, fillcolor="#83ef90"] ;
204 -> 206 ;
207 [label=<gini = 0.0<br/>samples = 8<br/>value = [0, 0, 0, 0, 0, 0, 8, 0, 0, 0, 0, 0, 0, 0<br/>0, 0, 0, 0, 0, 0, 0]<br/>class = Backdoor>, fillcolor="#39e54d"] ;
206 -> 207 ;
208 [label=<FLOW_DURATION_MILLISECONDS &le; -0.95<br/>gini = 0.469<br/>samples = 35<br/>value = [0, 0, 0, 0, 0, 11, 23, 0, 0, 0, 0, 1, 0, 0<br/>0, 0, 0, 0, 0, 0, 0]<br/>class = Backdoor>, fillcolor="#9cf2a6"] ;
206 -> 208 ;
209 [label=<FLOW_DURATION_MILLISECONDS &le; -1.047<br/>gini = 0.504<br/>samples = 30<br/>value = [0, 0, 0, 0, 0, 11, 18, 0, 0, 0, 0, 1, 0, 0<br/>0, 0, 0, 0, 0, 0, 0]<br/>class = Backdoor>, fillcolor="#b6f5bd"] ;
208 -> 209 ;
210 [label=<L4_SRC_PORT &le; 34689.0<br/>gini = 0.435<br/>samples = 25<br/>value = [0, 0, 0, 0, 0, 8, 17, 0, 0, 0, 0, 0, 0, 0<br/>0, 0, 0, 0, 0, 0, 0]<br/>class = Backdoor>, fillcolor="#96f1a1"] ;
209 -> 210 ;
211 [label=<gini = 0.0<br/>samples = 4<br/>value = [0, 0, 0, 0, 0, 0, 4, 0, 0, 0, 0, 0, 0, 0<br/>0, 0, 0, 0, 0, 0, 0]<br/>class = Backdoor>, fillcolor="#39e54d"] ;
210 -> 211 ;
212 [label=<L4_SRC_PORT &le; 54374.0<br/>gini = 0.472<br/>samples = 21<br/>value = [0, 0, 0, 0, 0, 8, 13, 0, 0, 0, 0, 0, 0, 0<br/>0, 0, 0, 0, 0, 0, 0]<br/>class = Backdoor>, fillcolor="#b3f5bb"] ;
210 -> 212 ;
213 [label=<L4_SRC_PORT &le; 53426.0<br/>gini = 0.496<br/>samples = 11<br/>value = [0, 0, 0, 0, 0, 6, 5, 0, 0, 0, 0, 0, 0, 0<br/>0, 0, 0, 0, 0, 0, 0]<br/>class = Shellcode>, fillcolor="#e3fbde"] ;
212 -> 213 ;
214 [label=<L4_SRC_PORT &le; 34915.0<br/>gini = 0.469<br/>samples = 8<br/>value = [0, 0, 0, 0, 0, 3, 5, 0, 0, 0, 0, 0, 0, 0<br/>0, 0, 0, 0, 0, 0, 0]<br/>class = Backdoor>, fillcolor="#b0f5b8"] ;
213 -> 214 ;
215 [label=<gini = 0.0<br/>samples = 1<br/>value = [0, 0, 0, 0, 0, 1, 0, 0, 0, 0, 0, 0, 0, 0<br/>0, 0, 0, 0, 0, 0, 0]<br/>class = Shellcode>, fillcolor="#56e539"] ;
214 -> 215 ;
216 [label=<L4_SRC_PORT &le; 36223.0<br/>gini = 0.408<br/>samples = 7<br/>value = [0, 0, 0, 0, 0, 2, 5, 0, 0, 0, 0, 0, 0, 0<br/>0, 0, 0, 0, 0, 0, 0]<br/>class = Backdoor>, fillcolor="#88ef94"] ;
214 -> 216 ;
217 [label=<gini = 0.0<br/>samples = 2<br/>value = [0, 0, 0, 0, 0, 0, 2, 0, 0, 0, 0, 0, 0, 0<br/>0, 0, 0, 0, 0, 0, 0]<br/>class = Backdoor>, fillcolor="#39e54d"] ;
216 -> 217 ;
218 [label=<L4_SRC_PORT &le; 52630.0<br/>gini = 0.48<br/>samples = 5<br/>value = [0, 0, 0, 0, 0, 2, 3, 0, 0, 0, 0, 0, 0, 0<br/>0, 0, 0, 0, 0, 0, 0]<br/>class = Backdoor>, fillcolor="#bdf6c4"] ;
216 -> 218 ;
219 [label=<L4_SRC_PORT &le; 39273.0<br/>gini = 0.444<br/>samples = 3<br/>value = [0, 0, 0, 0, 0, 2, 1, 0, 0, 0, 0, 0, 0, 0<br/>0, 0, 0, 0, 0, 0, 0]<br/>class = Shellcode>, fillcolor="#aaf29c"] ;
218 -> 219 ;
220 [label=<gini = 0.0<br/>samples = 1<br/>value = [0, 0, 0, 0, 0, 1, 0, 0, 0, 0, 0, 0, 0, 0<br/>0, 0, 0, 0, 0, 0, 0]<br/>class = Shellcode>, fillcolor="#56e539"] ;
219 -> 220 ;
221 [label=<L4_SRC_PORT &le; 47293.0<br/>gini = 0.5<br/>samples = 2<br/>value = [0, 0, 0, 0, 0, 1, 1, 0, 0, 0, 0, 0, 0, 0<br/>0, 0, 0, 0, 0, 0, 0]<br/>class = Shellcode>, fillcolor="#ffffff"] ;
219 -> 221 ;
222 [label=<gini = 0.0<br/>samples = 1<br/>value = [0, 0, 0, 0, 0, 0, 1, 0, 0, 0, 0, 0, 0, 0<br/>0, 0, 0, 0, 0, 0, 0]<br/>class = Backdoor>, fillcolor="#39e54d"] ;
221 -> 222 ;
223 [label=<gini = 0.0<br/>samples = 1<br/>value = [0, 0, 0, 0, 0, 1, 0, 0, 0, 0, 0, 0, 0, 0<br/>0, 0, 0, 0, 0, 0, 0]<br/>class = Shellcode>, fillcolor="#56e539"] ;
221 -> 223 ;
224 [label=<gini = 0.0<br/>samples = 2<br/>value = [0, 0, 0, 0, 0, 0, 2, 0, 0, 0, 0, 0, 0, 0<br/>0, 0, 0, 0, 0, 0, 0]<br/>class = Backdoor>, fillcolor="#39e54d"] ;
218 -> 224 ;
225 [label=<gini = 0.0<br/>samples = 3<br/>value = [0, 0, 0, 0, 0, 3, 0, 0, 0, 0, 0, 0, 0, 0<br/>0, 0, 0, 0, 0, 0, 0]<br/>class = Shellcode>, fillcolor="#56e539"] ;
213 -> 225 ;
226 [label=<L4_SRC_PORT &le; 59957.0<br/>gini = 0.32<br/>samples = 10<br/>value = [0, 0, 0, 0, 0, 2, 8, 0, 0, 0, 0, 0, 0, 0<br/>0, 0, 0, 0, 0, 0, 0]<br/>class = Backdoor>, fillcolor="#6aec79"] ;
212 -> 226 ;
227 [label=<L4_SRC_PORT &le; 58207.0<br/>gini = 0.198<br/>samples = 9<br/>value = [0, 0, 0, 0, 0, 1, 8, 0, 0, 0, 0, 0, 0, 0<br/>0, 0, 0, 0, 0, 0, 0]<br/>class = Backdoor>, fillcolor="#52e863"] ;
226 -> 227 ;
228 [label=<gini = 0.0<br/>samples = 6<br/>value = [0, 0, 0, 0, 0, 0, 6, 0, 0, 0, 0, 0, 0, 0<br/>0, 0, 0, 0, 0, 0, 0]<br/>class = Backdoor>, fillcolor="#39e54d"] ;
227 -> 228 ;
229 [label=<L4_SRC_PORT &le; 58974.0<br/>gini = 0.444<br/>samples = 3<br/>value = [0, 0, 0, 0, 0, 1, 2, 0, 0, 0, 0, 0, 0, 0<br/>0, 0, 0, 0, 0, 0, 0]<br/>class = Backdoor>, fillcolor="#9cf2a6"] ;
227 -> 229 ;
230 [label=<gini = 0.0<br/>samples = 1<br/>value = [0, 0, 0, 0, 0, 1, 0, 0, 0, 0, 0, 0, 0, 0<br/>0, 0, 0, 0, 0, 0, 0]<br/>class = Shellcode>, fillcolor="#56e539"] ;
229 -> 230 ;
231 [label=<gini = 0.0<br/>samples = 2<br/>value = [0, 0, 0, 0, 0, 0, 2, 0, 0, 0, 0, 0, 0, 0<br/>0, 0, 0, 0, 0, 0, 0]<br/>class = Backdoor>, fillcolor="#39e54d"] ;
229 -> 231 ;
232 [label=<gini = 0.0<br/>samples = 1<br/>value = [0, 0, 0, 0, 0, 1, 0, 0, 0, 0, 0, 0, 0, 0<br/>0, 0, 0, 0, 0, 0, 0]<br/>class = Shellcode>, fillcolor="#56e539"] ;
226 -> 232 ;
233 [label=<FLOW_DURATION_MILLISECONDS &le; -1.021<br/>gini = 0.56<br/>samples = 5<br/>value = [0, 0, 0, 0, 0, 3, 1, 0, 0, 0, 0, 1, 0, 0<br/>0, 0, 0, 0, 0, 0, 0]<br/>class = Shellcode>, fillcolor="#aaf29c"] ;
209 -> 233 ;
234 [label=<L4_SRC_PORT &le; 35686.0<br/>gini = 0.5<br/>samples = 2<br/>value = [0, 0, 0, 0, 0, 1, 0, 0, 0, 0, 0, 1, 0, 0<br/>0, 0, 0, 0, 0, 0, 0]<br/>class = Shellcode>, fillcolor="#ffffff"] ;
233 -> 234 ;
235 [label=<gini = 0.0<br/>samples = 1<br/>value = [0, 0, 0, 0, 0, 1, 0, 0, 0, 0, 0, 0, 0, 0<br/>0, 0, 0, 0, 0, 0, 0]<br/>class = Shellcode>, fillcolor="#56e539"] ;
234 -> 235 ;
236 [label=<gini = 0.0<br/>samples = 1<br/>value = [0, 0, 0, 0, 0, 0, 0, 0, 0, 0, 0, 1, 0, 0<br/>0, 0, 0, 0, 0, 0, 0]<br/>class = DDoS>, fillcolor="#3986e5"] ;
234 -> 236 ;
237 [label=<L4_SRC_PORT &le; 36352.0<br/>gini = 0.444<br/>samples = 3<br/>value = [0, 0, 0, 0, 0, 2, 1, 0, 0, 0, 0, 0, 0, 0<br/>0, 0, 0, 0, 0, 0, 0]<br/>class = Shellcode>, fillcolor="#aaf29c"] ;
233 -> 237 ;
238 [label=<gini = 0.0<br/>samples = 1<br/>value = [0, 0, 0, 0, 0, 0, 1, 0, 0, 0, 0, 0, 0, 0<br/>0, 0, 0, 0, 0, 0, 0]<br/>class = Backdoor>, fillcolor="#39e54d"] ;
237 -> 238 ;
239 [label=<gini = 0.0<br/>samples = 2<br/>value = [0, 0, 0, 0, 0, 2, 0, 0, 0, 0, 0, 0, 0, 0<br/>0, 0, 0, 0, 0, 0, 0]<br/>class = Shellcode>, fillcolor="#56e539"] ;
237 -> 239 ;
240 [label=<gini = 0.0<br/>samples = 5<br/>value = [0, 0, 0, 0, 0, 0, 5, 0, 0, 0, 0, 0, 0, 0<br/>0, 0, 0, 0, 0, 0, 0]<br/>class = Backdoor>, fillcolor="#39e54d"] ;
208 -> 240 ;
241 [label=<FLOW_DURATION_MILLISECONDS &le; -0.422<br/>gini = 0.54<br/>samples = 10<br/>value = [0, 0, 0, 0, 0, 6, 3, 0, 0, 0, 0, 1, 0, 0<br/>0, 0, 0, 0, 0, 0, 0]<br/>class = Shellcode>, fillcolor="#b7f4aa"] ;
203 -> 241 ;
242 [label=<FLOW_DURATION_MILLISECONDS &le; -0.811<br/>gini = 0.278<br/>samples = 6<br/>value = [0, 0, 0, 0, 0, 5, 1, 0, 0, 0, 0, 0, 0, 0<br/>0, 0, 0, 0, 0, 0, 0]<br/>class = Shellcode>, fillcolor="#78ea61"] ;
241 -> 242 ;
243 [label=<FLOW_DURATION_MILLISECONDS &le; -0.824<br/>gini = 0.5<br/>samples = 2<br/>value = [0, 0, 0, 0, 0, 1, 1, 0, 0, 0, 0, 0, 0, 0<br/>0, 0, 0, 0, 0, 0, 0]<br/>class = Shellcode>, fillcolor="#ffffff"] ;
242 -> 243 ;
244 [label=<gini = 0.0<br/>samples = 1<br/>value = [0, 0, 0, 0, 0, 1, 0, 0, 0, 0, 0, 0, 0, 0<br/>0, 0, 0, 0, 0, 0, 0]<br/>class = Shellcode>, fillcolor="#56e539"] ;
243 -> 244 ;
245 [label=<gini = 0.0<br/>samples = 1<br/>value = [0, 0, 0, 0, 0, 0, 1, 0, 0, 0, 0, 0, 0, 0<br/>0, 0, 0, 0, 0, 0, 0]<br/>class = Backdoor>, fillcolor="#39e54d"] ;
243 -> 245 ;
246 [label=<gini = 0.0<br/>samples = 4<br/>value = [0, 0, 0, 0, 0, 4, 0, 0, 0, 0, 0, 0, 0, 0<br/>0, 0, 0, 0, 0, 0, 0]<br/>class = Shellcode>, fillcolor="#56e539"] ;
242 -> 246 ;
247 [label=<L4_SRC_PORT &le; 39975.0<br/>gini = 0.625<br/>samples = 4<br/>value = [0, 0, 0, 0, 0, 1, 2, 0, 0, 0, 0, 1, 0, 0<br/>0, 0, 0, 0, 0, 0, 0]<br/>class = Backdoor>, fillcolor="#bdf6c4"] ;
241 -> 247 ;
248 [label=<FLOW_DURATION_MILLISECONDS &le; -0.343<br/>gini = 0.444<br/>samples = 3<br/>value = [0, 0, 0, 0, 0, 1, 2, 0, 0, 0, 0, 0, 0, 0<br/>0, 0, 0, 0, 0, 0, 0]<br/>class = Backdoor>, fillcolor="#9cf2a6"] ;
247 -> 248 ;
249 [label=<gini = 0.0<br/>samples = 2<br/>value = [0, 0, 0, 0, 0, 0, 2, 0, 0, 0, 0, 0, 0, 0<br/>0, 0, 0, 0, 0, 0, 0]<br/>class = Backdoor>, fillcolor="#39e54d"] ;
248 -> 249 ;
250 [label=<gini = 0.0<br/>samples = 1<br/>value = [0, 0, 0, 0, 0, 1, 0, 0, 0, 0, 0, 0, 0, 0<br/>0, 0, 0, 0, 0, 0, 0]<br/>class = Shellcode>, fillcolor="#56e539"] ;
248 -> 250 ;
251 [label=<gini = 0.0<br/>samples = 1<br/>value = [0, 0, 0, 0, 0, 0, 0, 0, 0, 0, 0, 1, 0, 0<br/>0, 0, 0, 0, 0, 0, 0]<br/>class = DDoS>, fillcolor="#3986e5"] ;
247 -> 251 ;
252 [label=<L4_SRC_PORT &le; 60886.5<br/>gini = 0.219<br/>samples = 8<br/>value = [0, 0, 1, 0, 0, 0, 0, 0, 0, 0, 0, 7, 0, 0<br/>0, 0, 0, 0, 0, 0, 0]<br/>class = DDoS>, fillcolor="#5597e9"] ;
168 -> 252 ;
253 [label=<gini = 0.0<br/>samples = 7<br/>value = [0, 0, 0, 0, 0, 0, 0, 0, 0, 0, 0, 7, 0, 0<br/>0, 0, 0, 0, 0, 0, 0]<br/>class = DDoS>, fillcolor="#3986e5"] ;
252 -> 253 ;
254 [label=<gini = 0.0<br/>samples = 1<br/>value = [0, 0, 1, 0, 0, 0, 0, 0, 0, 0, 0, 0, 0, 0<br/>0, 0, 0, 0, 0, 0, 0]<br/>class = Reconnaissance>, fillcolor="#e5e239"] ;
252 -> 254 ;
255 [label=<gini = 0.0<br/>samples = 90<br/>value = [0, 0, 0, 0, 0, 0, 90, 0, 0, 0, 0, 0, 0, 0<br/>0, 0, 0, 0, 0, 0, 0]<br/>class = Backdoor>, fillcolor="#39e54d"] ;
167 -> 255 ;
256 [label=<L7_PROTO &le; 17.5<br/>gini = 0.729<br/>samples = 296<br/>value = [0, 0, 3, 0, 0, 2, 4, 4, 119, 86, 0, 11, 33<br/>0, 30, 0, 2, 0, 0, 2, 0]<br/>class = Worms>, fillcolor="#e0fbf3"] ;
166 -> 256 ;
257 [label=<L4_DST_PORT &le; 592.0<br/>gini = 0.551<br/>samples = 181<br/>value = [0, 0, 3, 0, 0, 2, 4, 2, 116, 3, 0, 11, 33, 0<br/>3, 0, 2, 0, 0, 2, 0]<br/>class = Worms>, fillcolor="#90f0d3"] ;
256 -> 257 ;
258 [label=<L4_DST_PORT &le; 478.5<br/>gini = 0.279<br/>samples = 137<br/>value = [0, 0, 2, 0, 0, 2, 4, 0, 116, 3, 0, 6, 0, 0<br/>0, 0, 2, 0, 0, 2, 0]<br/>class = Worms>, fillcolor="#59e9be"] ;
257 -> 258 ;
259 [label=<L7_PROTO &le; 8.0<br/>gini = 0.825<br/>samples = 21<br/>value = [0, 0, 2, 0, 0, 2, 4, 0, 0, 3, 0, 6, 0, 0<br/>0, 0, 2, 0, 0, 2, 0]<br/>class = DDoS>, fillcolor="#e8f1fc"] ;
258 -> 259 ;
260 [label=<IN_BYTES &le; -0.026<br/>gini = 0.818<br/>samples = 15<br/>value = [0, 0, 2, 0, 0, 2, 4, 0, 0, 3, 0, 0, 0, 0<br/>0, 0, 2, 0, 0, 2, 0]<br/>class = Backdoor>, fillcolor="#effdf0"] ;
259 -> 260 ;
261 [label=<L4_SRC_PORT &le; 52442.0<br/>gini = 0.72<br/>samples = 10<br/>value = [0, 0, 0, 0, 0, 2, 4, 0, 0, 0, 0, 0, 0, 0<br/>0, 0, 2, 0, 0, 2, 0]<br/>class = Backdoor>, fillcolor="#cef8d2"] ;
260 -> 261 ;
262 [label=<IN_BYTES &le; -0.026<br/>gini = 0.625<br/>samples = 8<br/>value = [0, 0, 0, 0, 0, 2, 4, 0, 0, 0, 0, 0, 0, 0<br/>0, 0, 0, 0, 0, 2, 0]<br/>class = Backdoor>, fillcolor="#bdf6c4"] ;
261 -> 262 ;
263 [label=<gini = 0.0<br/>samples = 2<br/>value = [0, 0, 0, 0, 0, 0, 2, 0, 0, 0, 0, 0, 0, 0<br/>0, 0, 0, 0, 0, 0, 0]<br/>class = Backdoor>, fillcolor="#39e54d"] ;
262 -> 263 ;
264 [label=<L4_SRC_PORT &le; 48610.5<br/>gini = 0.667<br/>samples = 6<br/>value = [0, 0, 0, 0, 0, 2, 2, 0, 0, 0, 0, 0, 0, 0<br/>0, 0, 0, 0, 0, 2, 0]<br/>class = Shellcode>, fillcolor="#ffffff"] ;
262 -> 264 ;
265 [label=<L4_SRC_PORT &le; 42988.0<br/>gini = 0.5<br/>samples = 4<br/>value = [0, 0, 0, 0, 0, 2, 0, 0, 0, 0, 0, 0, 0, 0<br/>0, 0, 0, 0, 0, 2, 0]<br/>class = Shellcode>, fillcolor="#ffffff"] ;
264 -> 265 ;
266 [label=<gini = 0.0<br/>samples = 1<br/>value = [0, 0, 0, 0, 0, 1, 0, 0, 0, 0, 0, 0, 0, 0<br/>0, 0, 0, 0, 0, 0, 0]<br/>class = Shellcode>, fillcolor="#56e539"] ;
265 -> 266 ;
267 [label=<L4_SRC_PORT &le; 45453.0<br/>gini = 0.444<br/>samples = 3<br/>value = [0, 0, 0, 0, 0, 1, 0, 0, 0, 0, 0, 0, 0, 0<br/>0, 0, 0, 0, 0, 2, 0]<br/>class = Brute Force>, fillcolor="#f29caa"] ;
265 -> 267 ;
268 [label=<gini = 0.0<br/>samples = 2<br/>value = [0, 0, 0, 0, 0, 0, 0, 0, 0, 0, 0, 0, 0, 0<br/>0, 0, 0, 0, 0, 2, 0]<br/>class = Brute Force>, fillcolor="#e53956"] ;
267 -> 268 ;
269 [label=<gini = 0.0<br/>samples = 1<br/>value = [0, 0, 0, 0, 0, 1, 0, 0, 0, 0, 0, 0, 0, 0<br/>0, 0, 0, 0, 0, 0, 0]<br/>class = Shellcode>, fillcolor="#56e539"] ;
267 -> 269 ;
270 [label=<gini = 0.0<br/>samples = 2<br/>value = [0, 0, 0, 0, 0, 0, 2, 0, 0, 0, 0, 0, 0, 0<br/>0, 0, 0, 0, 0, 0, 0]<br/>class = Backdoor>, fillcolor="#39e54d"] ;
264 -> 270 ;
271 [label=<gini = 0.0<br/>samples = 2<br/>value = [0, 0, 0, 0, 0, 0, 0, 0, 0, 0, 0, 0, 0, 0<br/>0, 0, 2, 0, 0, 0, 0]<br/>class = ransomware>, fillcolor="#e239e5"] ;
261 -> 271 ;
272 [label=<L7_PROTO &le; 2.5<br/>gini = 0.48<br/>samples = 5<br/>value = [0, 0, 2, 0, 0, 0, 0, 0, 0, 3, 0, 0, 0, 0<br/>0, 0, 0, 0, 0, 0, 0]<br/>class = Analysis>, fillcolor="#bdf6f5"] ;
260 -> 272 ;
273 [label=<gini = 0.0<br/>samples = 2<br/>value = [0, 0, 2, 0, 0, 0, 0, 0, 0, 0, 0, 0, 0, 0<br/>0, 0, 0, 0, 0, 0, 0]<br/>class = Reconnaissance>, fillcolor="#e5e239"] ;
272 -> 273 ;
274 [label=<gini = 0.0<br/>samples = 3<br/>value = [0, 0, 0, 0, 0, 0, 0, 0, 0, 3, 0, 0, 0, 0<br/>0, 0, 0, 0, 0, 0, 0]<br/>class = Analysis>, fillcolor="#39e5e2"] ;
272 -> 274 ;
275 [label=<gini = 0.0<br/>samples = 6<br/>value = [0, 0, 0, 0, 0, 0, 0, 0, 0, 0, 0, 6, 0, 0<br/>0, 0, 0, 0, 0, 0, 0]<br/>class = DDoS>, fillcolor="#3986e5"] ;
259 -> 275 ;
276 [label=<gini = 0.0<br/>samples = 116<br/>value = [0, 0, 0, 0, 0, 0, 0, 0, 116, 0, 0, 0, 0, 0<br/>0, 0, 0, 0, 0, 0, 0]<br/>class = Worms>, fillcolor="#39e5b1"] ;
258 -> 276 ;
277 [label=<IN_PKTS &le; -0.02<br/>gini = 0.417<br/>samples = 44<br/>value = [0, 0, 1, 0, 0, 0, 0, 2, 0, 0, 0, 5, 33, 0<br/>3, 0, 0, 0, 0, 0, 0]<br/>class = scanning>, fillcolor="#7186ec"] ;
257 -> 277 ;
278 [label=<gini = 0.0<br/>samples = 5<br/>value = [0, 0, 0, 0, 0, 0, 0, 0, 0, 0, 0, 5, 0, 0<br/>0, 0, 0, 0, 0, 0, 0]<br/>class = DDoS>, fillcolor="#3986e5"] ;
277 -> 278 ;
279 [label=<IN_BYTES &le; -0.018<br/>gini = 0.275<br/>samples = 39<br/>value = [0, 0, 1, 0, 0, 0, 0, 2, 0, 0, 0, 0, 33, 0<br/>3, 0, 0, 0, 0, 0, 0]<br/>class = scanning>, fillcolor="#5a72e9"] ;
277 -> 279 ;
280 [label=<L4_SRC_PORT &le; 6308.0<br/>gini = 0.057<br/>samples = 34<br/>value = [0, 0, 1, 0, 0, 0, 0, 0, 0, 0, 0, 0, 33, 0<br/>0, 0, 0, 0, 0, 0, 0]<br/>class = scanning>, fillcolor="#3f5be6"] ;
279 -> 280 ;
281 [label=<gini = 0.0<br/>samples = 1<br/>value = [0, 0, 1, 0, 0, 0, 0, 0, 0, 0, 0, 0, 0, 0<br/>0, 0, 0, 0, 0, 0, 0]<br/>class = Reconnaissance>, fillcolor="#e5e239"] ;
280 -> 281 ;
282 [label=<gini = 0.0<br/>samples = 33<br/>value = [0, 0, 0, 0, 0, 0, 0, 0, 0, 0, 0, 0, 33, 0<br/>0, 0, 0, 0, 0, 0, 0]<br/>class = scanning>, fillcolor="#3956e5"] ;
280 -> 282 ;
283 [label=<L4_SRC_PORT &le; 31822.5<br/>gini = 0.48<br/>samples = 5<br/>value = [0, 0, 0, 0, 0, 0, 0, 2, 0, 0, 0, 0, 0, 0<br/>3, 0, 0, 0, 0, 0, 0]<br/>class = mitm>, fillcolor="#d4bdf6"] ;
279 -> 283 ;
284 [label=<gini = 0.0<br/>samples = 3<br/>value = [0, 0, 0, 0, 0, 0, 0, 0, 0, 0, 0, 0, 0, 0<br/>3, 0, 0, 0, 0, 0, 0]<br/>class = mitm>, fillcolor="#7e39e5"] ;
283 -> 284 ;
285 [label=<gini = 0.0<br/>samples = 2<br/>value = [0, 0, 0, 0, 0, 0, 0, 2, 0, 0, 0, 0, 0, 0<br/>0, 0, 0, 0, 0, 0, 0]<br/>class = Fuzzers>, fillcolor="#39e57e"] ;
283 -> 285 ;
286 [label=<IN_BYTES &le; -0.026<br/>gini = 0.423<br/>samples = 115<br/>value = [0, 0, 0, 0, 0, 0, 0, 2, 3, 83, 0, 0, 0, 0<br/>27, 0, 0, 0, 0, 0, 0]<br/>class = Analysis>, fillcolor="#81eeed"] ;
256 -> 286 ;
287 [label=<gini = 0.0<br/>samples = 27<br/>value = [0, 0, 0, 0, 0, 0, 0, 0, 0, 0, 0, 0, 0, 0<br/>27, 0, 0, 0, 0, 0, 0]<br/>class = mitm>, fillcolor="#7e39e5"] ;
286 -> 287 ;
288 [label=<IN_BYTES &le; -0.014<br/>gini = 0.109<br/>samples = 88<br/>value = [0, 0, 0, 0, 0, 0, 0, 2, 3, 83, 0, 0, 0, 0<br/>0, 0, 0, 0, 0, 0, 0]<br/>class = Analysis>, fillcolor="#45e7e4"] ;
286 -> 288 ;
289 [label=<IN_PKTS &le; -0.02<br/>gini = 0.047<br/>samples = 83<br/>value = [0, 0, 0, 0, 0, 0, 0, 1, 1, 81, 0, 0, 0, 0<br/>0, 0, 0, 0, 0, 0, 0]<br/>class = Analysis>, fillcolor="#3ee6e3"] ;
288 -> 289 ;
290 [label=<gini = 0.0<br/>samples = 1<br/>value = [0, 0, 0, 0, 0, 0, 0, 0, 1, 0, 0, 0, 0, 0<br/>0, 0, 0, 0, 0, 0, 0]<br/>class = Worms>, fillcolor="#39e5b1"] ;
289 -> 290 ;
291 [label=<L4_SRC_PORT &le; 54136.0<br/>gini = 0.024<br/>samples = 82<br/>value = [0, 0, 0, 0, 0, 0, 0, 1, 0, 81, 0, 0, 0, 0<br/>0, 0, 0, 0, 0, 0, 0]<br/>class = Analysis>, fillcolor="#3be5e2"] ;
289 -> 291 ;
292 [label=<gini = 0.0<br/>samples = 71<br/>value = [0, 0, 0, 0, 0, 0, 0, 0, 0, 71, 0, 0, 0, 0<br/>0, 0, 0, 0, 0, 0, 0]<br/>class = Analysis>, fillcolor="#39e5e2"] ;
291 -> 292 ;
293 [label=<L4_SRC_PORT &le; 56084.0<br/>gini = 0.165<br/>samples = 11<br/>value = [0, 0, 0, 0, 0, 0, 0, 1, 0, 10, 0, 0, 0, 0<br/>0, 0, 0, 0, 0, 0, 0]<br/>class = Analysis>, fillcolor="#4de8e5"] ;
291 -> 293 ;
294 [label=<gini = 0.0<br/>samples = 1<br/>value = [0, 0, 0, 0, 0, 0, 0, 1, 0, 0, 0, 0, 0, 0<br/>0, 0, 0, 0, 0, 0, 0]<br/>class = Fuzzers>, fillcolor="#39e57e"] ;
293 -> 294 ;
295 [label=<gini = 0.0<br/>samples = 10<br/>value = [0, 0, 0, 0, 0, 0, 0, 0, 0, 10, 0, 0, 0, 0<br/>0, 0, 0, 0, 0, 0, 0]<br/>class = Analysis>, fillcolor="#39e5e2"] ;
293 -> 295 ;
296 [label=<L4_SRC_PORT &le; 6780.0<br/>gini = 0.64<br/>samples = 5<br/>value = [0, 0, 0, 0, 0, 0, 0, 1, 2, 2, 0, 0, 0, 0<br/>0, 0, 0, 0, 0, 0, 0]<br/>class = Worms>, fillcolor="#ffffff"] ;
288 -> 296 ;
297 [label=<FLOW_DURATION_MILLISECONDS &le; -1.206<br/>gini = 0.444<br/>samples = 3<br/>value = [0, 0, 0, 0, 0, 0, 0, 1, 0, 2, 0, 0, 0, 0<br/>0, 0, 0, 0, 0, 0, 0]<br/>class = Analysis>, fillcolor="#9cf2f0"] ;
296 -> 297 ;
298 [label=<gini = 0.0<br/>samples = 2<br/>value = [0, 0, 0, 0, 0, 0, 0, 0, 0, 2, 0, 0, 0, 0<br/>0, 0, 0, 0, 0, 0, 0]<br/>class = Analysis>, fillcolor="#39e5e2"] ;
297 -> 298 ;
299 [label=<gini = 0.0<br/>samples = 1<br/>value = [0, 0, 0, 0, 0, 0, 0, 1, 0, 0, 0, 0, 0, 0<br/>0, 0, 0, 0, 0, 0, 0]<br/>class = Fuzzers>, fillcolor="#39e57e"] ;
297 -> 299 ;
300 [label=<gini = 0.0<br/>samples = 2<br/>value = [0, 0, 0, 0, 0, 0, 0, 0, 2, 0, 0, 0, 0, 0<br/>0, 0, 0, 0, 0, 0, 0]<br/>class = Worms>, fillcolor="#39e5b1"] ;
296 -> 300 ;
301 [label=<TCP_FLAGS &le; 17.5<br/>gini = 0.825<br/>samples = 1224<br/>value = [0, 2, 32, 0, 0, 246, 34, 0, 0, 0, 35, 1, 0<br/>0, 0, 66, 282, 109, 28, 310, 79]<br/>class = Brute Force>, fillcolor="#fef9fa"] ;
165 -> 301 ;
302 [label=<OUT_BYTES &le; -0.036<br/>gini = 0.73<br/>samples = 464<br/>value = [0, 1, 31, 0, 0, 38, 34, 0, 0, 0, 35, 0, 0, 0<br/>0, 16, 221, 5, 0, 60, 23]<br/>class = ransomware>, fillcolor="#f3b0f5"] ;
301 -> 302 ;
303 [label=<IN_BYTES &le; -0.026<br/>gini = 0.825<br/>samples = 240<br/>value = [0, 1, 7, 0, 0, 38, 34, 0, 0, 0, 1, 0, 0, 0<br/>0, 16, 56, 5, 0, 59, 23]<br/>class = Brute Force>, fillcolor="#fffcfc"] ;
302 -> 303 ;
304 [label=<L7_PROTO &le; 8.0<br/>gini = 0.743<br/>samples = 157<br/>value = [0, 1, 0, 0, 0, 33, 25, 0, 0, 0, 0, 0, 0, 0<br/>0, 1, 45, 1, 0, 51, 0]<br/>class = Brute Force>, fillcolor="#fef4f6"] ;
303 -> 304 ;
305 [label=<FLOW_DURATION_MILLISECONDS &le; -1.207<br/>gini = 0.74<br/>samples = 148<br/>value = [0, 0, 0, 0, 0, 33, 25, 0, 0, 0, 0, 0, 0, 0<br/>0, 1, 37, 1, 0, 51, 0]<br/>class = Brute Force>, fillcolor="#fce6ea"] ;
304 -> 305 ;
306 [label=<FLOW_DURATION_MILLISECONDS &le; -1.207<br/>gini = 0.746<br/>samples = 139<br/>value = [0, 0, 0, 0, 0, 33, 24, 0, 0, 0, 0, 0, 0, 0<br/>0, 1, 36, 1, 0, 44, 0]<br/>class = Brute Force>, fillcolor="#fdf0f2"] ;
305 -> 306 ;
307 [label=<L4_SRC_PORT &le; 54989.0<br/>gini = 0.734<br/>samples = 124<br/>value = [0, 0, 0, 0, 0, 29, 16, 0, 0, 0, 0, 0, 0, 0<br/>0, 1, 35, 1, 0, 42, 0]<br/>class = Brute Force>, fillcolor="#fdeff2"] ;
306 -> 307 ;
308 [label=<L4_SRC_PORT &le; 33701.0<br/>gini = 0.741<br/>samples = 97<br/>value = [0, 0, 0, 0, 0, 26, 16, 0, 0, 0, 0, 0, 0, 0<br/>0, 1, 22, 0, 0, 32, 0]<br/>class = Brute Force>, fillcolor="#fdeef1"] ;
307 -> 308 ;
309 [label=<gini = 0.0<br/>samples = 2<br/>value = [0, 0, 0, 0, 0, 0, 0, 0, 0, 0, 0, 0, 0, 0<br/>0, 0, 2, 0, 0, 0, 0]<br/>class = ransomware>, fillcolor="#e239e5"] ;
308 -> 309 ;
310 [label=<L4_SRC_PORT &le; 53734.5<br/>gini = 0.739<br/>samples = 95<br/>value = [0, 0, 0, 0, 0, 26, 16, 0, 0, 0, 0, 0, 0, 0<br/>0, 1, 20, 0, 0, 32, 0]<br/>class = Brute Force>, fillcolor="#fdeef0"] ;
308 -> 310 ;
311 [label=<L4_SRC_PORT &le; 37701.0<br/>gini = 0.742<br/>samples = 87<br/>value = [0, 0, 0, 0, 0, 25, 14, 0, 0, 0, 0, 0, 0, 0<br/>0, 1, 20, 0, 0, 27, 0]<br/>class = Brute Force>, fillcolor="#fef9fa"] ;
310 -> 311 ;
312 [label=<FLOW_DURATION_MILLISECONDS &le; -1.207<br/>gini = 0.612<br/>samples = 14<br/>value = [0, 0, 0, 0, 0, 6, 2, 0, 0, 0, 0, 0, 0, 0<br/>0, 0, 0, 0, 0, 6, 0]<br/>class = Shellcode>, fillcolor="#ffffff"] ;
311 -> 312 ;
313 [label=<IN_BYTES &le; -0.026<br/>gini = 0.593<br/>samples = 9<br/>value = [0, 0, 0, 0, 0, 5, 2, 0, 0, 0, 0, 0, 0, 0<br/>0, 0, 0, 0, 0, 2, 0]<br/>class = Shellcode>, fillcolor="#b7f4aa"] ;
312 -> 313 ;
314 [label=<L4_SRC_PORT &le; 35249.5<br/>gini = 0.444<br/>samples = 3<br/>value = [0, 0, 0, 0, 0, 0, 1, 0, 0, 0, 0, 0, 0, 0<br/>0, 0, 0, 0, 0, 2, 0]<br/>class = Brute Force>, fillcolor="#f29caa"] ;
313 -> 314 ;
315 [label=<gini = 0.0<br/>samples = 1<br/>value = [0, 0, 0, 0, 0, 0, 1, 0, 0, 0, 0, 0, 0, 0<br/>0, 0, 0, 0, 0, 0, 0]<br/>class = Backdoor>, fillcolor="#39e54d"] ;
314 -> 315 ;
316 [label=<gini = 0.0<br/>samples = 2<br/>value = [0, 0, 0, 0, 0, 0, 0, 0, 0, 0, 0, 0, 0, 0<br/>0, 0, 0, 0, 0, 2, 0]<br/>class = Brute Force>, fillcolor="#e53956"] ;
314 -> 316 ;
317 [label=<L4_SRC_PORT &le; 35901.5<br/>gini = 0.278<br/>samples = 6<br/>value = [0, 0, 0, 0, 0, 5, 1, 0, 0, 0, 0, 0, 0, 0<br/>0, 0, 0, 0, 0, 0, 0]<br/>class = Shellcode>, fillcolor="#78ea61"] ;
313 -> 317 ;
318 [label=<L4_SRC_PORT &le; 35702.0<br/>gini = 0.444<br/>samples = 3<br/>value = [0, 0, 0, 0, 0, 2, 1, 0, 0, 0, 0, 0, 0, 0<br/>0, 0, 0, 0, 0, 0, 0]<br/>class = Shellcode>, fillcolor="#aaf29c"] ;
317 -> 318 ;
319 [label=<gini = 0.0<br/>samples = 2<br/>value = [0, 0, 0, 0, 0, 2, 0, 0, 0, 0, 0, 0, 0, 0<br/>0, 0, 0, 0, 0, 0, 0]<br/>class = Shellcode>, fillcolor="#56e539"] ;
318 -> 319 ;
320 [label=<gini = 0.0<br/>samples = 1<br/>value = [0, 0, 0, 0, 0, 0, 1, 0, 0, 0, 0, 0, 0, 0<br/>0, 0, 0, 0, 0, 0, 0]<br/>class = Backdoor>, fillcolor="#39e54d"] ;
318 -> 320 ;
321 [label=<gini = 0.0<br/>samples = 3<br/>value = [0, 0, 0, 0, 0, 3, 0, 0, 0, 0, 0, 0, 0, 0<br/>0, 0, 0, 0, 0, 0, 0]<br/>class = Shellcode>, fillcolor="#56e539"] ;
317 -> 321 ;
322 [label=<IN_BYTES &le; -0.026<br/>gini = 0.32<br/>samples = 5<br/>value = [0, 0, 0, 0, 0, 1, 0, 0, 0, 0, 0, 0, 0, 0<br/>0, 0, 0, 0, 0, 4, 0]<br/>class = Brute Force>, fillcolor="#ec6a80"] ;
312 -> 322 ;
323 [label=<FLOW_DURATION_MILLISECONDS &le; -1.207<br/>gini = 0.5<br/>samples = 2<br/>value = [0, 0, 0, 0, 0, 1, 0, 0, 0, 0, 0, 0, 0, 0<br/>0, 0, 0, 0, 0, 1, 0]<br/>class = Shellcode>, fillcolor="#ffffff"] ;
322 -> 323 ;
324 [label=<gini = 0.0<br/>samples = 1<br/>value = [0, 0, 0, 0, 0, 0, 0, 0, 0, 0, 0, 0, 0, 0<br/>0, 0, 0, 0, 0, 1, 0]<br/>class = Brute Force>, fillcolor="#e53956"] ;
323 -> 324 ;
325 [label=<gini = 0.0<br/>samples = 1<br/>value = [0, 0, 0, 0, 0, 1, 0, 0, 0, 0, 0, 0, 0, 0<br/>0, 0, 0, 0, 0, 0, 0]<br/>class = Shellcode>, fillcolor="#56e539"] ;
323 -> 325 ;
326 [label=<gini = 0.0<br/>samples = 3<br/>value = [0, 0, 0, 0, 0, 0, 0, 0, 0, 0, 0, 0, 0, 0<br/>0, 0, 0, 0, 0, 3, 0]<br/>class = Brute Force>, fillcolor="#e53956"] ;
322 -> 326 ;
327 [label=<FLOW_DURATION_MILLISECONDS &le; -1.207<br/>gini = 0.747<br/>samples = 73<br/>value = [0, 0, 0, 0, 0, 19, 12, 0, 0, 0, 0, 0, 0, 0<br/>0, 1, 20, 0, 0, 21, 0]<br/>class = Brute Force>, fillcolor="#fffbfc"] ;
311 -> 327 ;
328 [label=<L4_SRC_PORT &le; 47102.0<br/>gini = 0.717<br/>samples = 37<br/>value = [0, 0, 0, 0, 0, 5, 7, 0, 0, 0, 0, 0, 0, 0<br/>0, 0, 13, 0, 0, 12, 0]<br/>class = ransomware>, fillcolor="#fef7fe"] ;
327 -> 328 ;
329 [label=<L4_SRC_PORT &le; 44861.0<br/>gini = 0.653<br/>samples = 21<br/>value = [0, 0, 0, 0, 0, 1, 6, 0, 0, 0, 0, 0, 0, 0<br/>0, 0, 10, 0, 0, 4, 0]<br/>class = ransomware>, fillcolor="#f7caf8"] ;
328 -> 329 ;
330 [label=<L4_SRC_PORT &le; 38706.0<br/>gini = 0.582<br/>samples = 14<br/>value = [0, 0, 0, 0, 0, 1, 1, 0, 0, 0, 0, 0, 0, 0<br/>0, 0, 8, 0, 0, 4, 0]<br/>class = ransomware>, fillcolor="#f3b0f5"] ;
329 -> 330 ;
331 [label=<gini = 0.0<br/>samples = 3<br/>value = [0, 0, 0, 0, 0, 0, 0, 0, 0, 0, 0, 0, 0, 0<br/>0, 0, 3, 0, 0, 0, 0]<br/>class = ransomware>, fillcolor="#e239e5"] ;
330 -> 331 ;
332 [label=<L4_SRC_PORT &le; 40679.5<br/>gini = 0.645<br/>samples = 11<br/>value = [0, 0, 0, 0, 0, 1, 1, 0, 0, 0, 0, 0, 0, 0<br/>0, 0, 5, 0, 0, 4, 0]<br/>class = ransomware>, fillcolor="#fbe3fb"] ;
330 -> 332 ;
333 [label=<L4_SRC_PORT &le; 38823.0<br/>gini = 0.667<br/>samples = 3<br/>value = [0, 0, 0, 0, 0, 1, 1, 0, 0, 0, 0, 0, 0, 0<br/>0, 0, 0, 0, 0, 1, 0]<br/>class = Shellcode>, fillcolor="#ffffff"] ;
332 -> 333 ;
334 [label=<gini = 0.0<br/>samples = 1<br/>value = [0, 0, 0, 0, 0, 0, 0, 0, 0, 0, 0, 0, 0, 0<br/>0, 0, 0, 0, 0, 1, 0]<br/>class = Brute Force>, fillcolor="#e53956"] ;
333 -> 334 ;
335 [label=<L4_SRC_PORT &le; 39226.5<br/>gini = 0.5<br/>samples = 2<br/>value = [0, 0, 0, 0, 0, 1, 1, 0, 0, 0, 0, 0, 0, 0<br/>0, 0, 0, 0, 0, 0, 0]<br/>class = Shellcode>, fillcolor="#ffffff"] ;
333 -> 335 ;
336 [label=<gini = 0.0<br/>samples = 1<br/>value = [0, 0, 0, 0, 0, 0, 1, 0, 0, 0, 0, 0, 0, 0<br/>0, 0, 0, 0, 0, 0, 0]<br/>class = Backdoor>, fillcolor="#39e54d"] ;
335 -> 336 ;
337 [label=<gini = 0.0<br/>samples = 1<br/>value = [0, 0, 0, 0, 0, 1, 0, 0, 0, 0, 0, 0, 0, 0<br/>0, 0, 0, 0, 0, 0, 0]<br/>class = Shellcode>, fillcolor="#56e539"] ;
335 -> 337 ;
338 [label=<L4_SRC_PORT &le; 44549.0<br/>gini = 0.469<br/>samples = 8<br/>value = [0, 0, 0, 0, 0, 0, 0, 0, 0, 0, 0, 0, 0, 0<br/>0, 0, 5, 0, 0, 3, 0]<br/>class = ransomware>, fillcolor="#f3b0f5"] ;
332 -> 338 ;
339 [label=<L4_SRC_PORT &le; 43842.5<br/>gini = 0.408<br/>samples = 7<br/>value = [0, 0, 0, 0, 0, 0, 0, 0, 0, 0, 0, 0, 0, 0<br/>0, 0, 5, 0, 0, 2, 0]<br/>class = ransomware>, fillcolor="#ee88ef"] ;
338 -> 339 ;
340 [label=<L4_SRC_PORT &le; 43664.5<br/>gini = 0.48<br/>samples = 5<br/>value = [0, 0, 0, 0, 0, 0, 0, 0, 0, 0, 0, 0, 0, 0<br/>0, 0, 3, 0, 0, 2, 0]<br/>class = ransomware>, fillcolor="#f5bdf6"] ;
339 -> 340 ;
341 [label=<L4_SRC_PORT &le; 42794.5<br/>gini = 0.375<br/>samples = 4<br/>value = [0, 0, 0, 0, 0, 0, 0, 0, 0, 0, 0, 0, 0, 0<br/>0, 0, 3, 0, 0, 1, 0]<br/>class = ransomware>, fillcolor="#ec7bee"] ;
340 -> 341 ;
342 [label=<L4_SRC_PORT &le; 42067.0<br/>gini = 0.5<br/>samples = 2<br/>value = [0, 0, 0, 0, 0, 0, 0, 0, 0, 0, 0, 0, 0, 0<br/>0, 0, 1, 0, 0, 1, 0]<br/>class = ransomware>, fillcolor="#ffffff"] ;
341 -> 342 ;
343 [label=<gini = 0.0<br/>samples = 1<br/>value = [0, 0, 0, 0, 0, 0, 0, 0, 0, 0, 0, 0, 0, 0<br/>0, 0, 1, 0, 0, 0, 0]<br/>class = ransomware>, fillcolor="#e239e5"] ;
342 -> 343 ;
344 [label=<gini = 0.0<br/>samples = 1<br/>value = [0, 0, 0, 0, 0, 0, 0, 0, 0, 0, 0, 0, 0, 0<br/>0, 0, 0, 0, 0, 1, 0]<br/>class = Brute Force>, fillcolor="#e53956"] ;
342 -> 344 ;
345 [label=<gini = 0.0<br/>samples = 2<br/>value = [0, 0, 0, 0, 0, 0, 0, 0, 0, 0, 0, 0, 0, 0<br/>0, 0, 2, 0, 0, 0, 0]<br/>class = ransomware>, fillcolor="#e239e5"] ;
341 -> 345 ;
346 [label=<gini = 0.0<br/>samples = 1<br/>value = [0, 0, 0, 0, 0, 0, 0, 0, 0, 0, 0, 0, 0, 0<br/>0, 0, 0, 0, 0, 1, 0]<br/>class = Brute Force>, fillcolor="#e53956"] ;
340 -> 346 ;
347 [label=<gini = 0.0<br/>samples = 2<br/>value = [0, 0, 0, 0, 0, 0, 0, 0, 0, 0, 0, 0, 0, 0<br/>0, 0, 2, 0, 0, 0, 0]<br/>class = ransomware>, fillcolor="#e239e5"] ;
339 -> 347 ;
348 [label=<gini = 0.0<br/>samples = 1<br/>value = [0, 0, 0, 0, 0, 0, 0, 0, 0, 0, 0, 0, 0, 0<br/>0, 0, 0, 0, 0, 1, 0]<br/>class = Brute Force>, fillcolor="#e53956"] ;
338 -> 348 ;
349 [label=<L4_SRC_PORT &le; 46024.0<br/>gini = 0.408<br/>samples = 7<br/>value = [0, 0, 0, 0, 0, 0, 5, 0, 0, 0, 0, 0, 0, 0<br/>0, 0, 2, 0, 0, 0, 0]<br/>class = Backdoor>, fillcolor="#88ef94"] ;
329 -> 349 ;
350 [label=<gini = 0.0<br/>samples = 4<br/>value = [0, 0, 0, 0, 0, 0, 4, 0, 0, 0, 0, 0, 0, 0<br/>0, 0, 0, 0, 0, 0, 0]<br/>class = Backdoor>, fillcolor="#39e54d"] ;
349 -> 350 ;
351 [label=<IN_BYTES &le; -0.026<br/>gini = 0.444<br/>samples = 3<br/>value = [0, 0, 0, 0, 0, 0, 1, 0, 0, 0, 0, 0, 0, 0<br/>0, 0, 2, 0, 0, 0, 0]<br/>class = ransomware>, fillcolor="#f09cf2"] ;
349 -> 351 ;
352 [label=<gini = 0.0<br/>samples = 1<br/>value = [0, 0, 0, 0, 0, 0, 0, 0, 0, 0, 0, 0, 0, 0<br/>0, 0, 1, 0, 0, 0, 0]<br/>class = ransomware>, fillcolor="#e239e5"] ;
351 -> 352 ;
353 [label=<L4_SRC_PORT &le; 46560.0<br/>gini = 0.5<br/>samples = 2<br/>value = [0, 0, 0, 0, 0, 0, 1, 0, 0, 0, 0, 0, 0, 0<br/>0, 0, 1, 0, 0, 0, 0]<br/>class = Backdoor>, fillcolor="#ffffff"] ;
351 -> 353 ;
354 [label=<gini = 0.0<br/>samples = 1<br/>value = [0, 0, 0, 0, 0, 0, 1, 0, 0, 0, 0, 0, 0, 0<br/>0, 0, 0, 0, 0, 0, 0]<br/>class = Backdoor>, fillcolor="#39e54d"] ;
353 -> 354 ;
355 [label=<gini = 0.0<br/>samples = 1<br/>value = [0, 0, 0, 0, 0, 0, 0, 0, 0, 0, 0, 0, 0, 0<br/>0, 0, 1, 0, 0, 0, 0]<br/>class = ransomware>, fillcolor="#e239e5"] ;
353 -> 355 ;
356 [label=<L4_SRC_PORT &le; 52934.5<br/>gini = 0.648<br/>samples = 16<br/>value = [0, 0, 0, 0, 0, 4, 1, 0, 0, 0, 0, 0, 0, 0<br/>0, 0, 3, 0, 0, 8, 0]<br/>class = Brute Force>, fillcolor="#f6bdc7"] ;
328 -> 356 ;
357 [label=<L4_SRC_PORT &le; 50707.5<br/>gini = 0.571<br/>samples = 14<br/>value = [0, 0, 0, 0, 0, 4, 0, 0, 0, 0, 0, 0, 0, 0<br/>0, 0, 2, 0, 0, 8, 0]<br/>class = Brute Force>, fillcolor="#f5b0bb"] ;
356 -> 357 ;
358 [label=<L4_SRC_PORT &le; 47275.5<br/>gini = 0.656<br/>samples = 8<br/>value = [0, 0, 0, 0, 0, 3, 0, 0, 0, 0, 0, 0, 0, 0<br/>0, 0, 2, 0, 0, 3, 0]<br/>class = Shellcode>, fillcolor="#ffffff"] ;
357 -> 358 ;
359 [label=<gini = 0.0<br/>samples = 2<br/>value = [0, 0, 0, 0, 0, 0, 0, 0, 0, 0, 0, 0, 0, 0<br/>0, 0, 0, 0, 0, 2, 0]<br/>class = Brute Force>, fillcolor="#e53956"] ;
358 -> 359 ;
360 [label=<L4_SRC_PORT &le; 47707.5<br/>gini = 0.611<br/>samples = 6<br/>value = [0, 0, 0, 0, 0, 3, 0, 0, 0, 0, 0, 0, 0, 0<br/>0, 0, 2, 0, 0, 1, 0]<br/>class = Shellcode>, fillcolor="#d5f8ce"] ;
358 -> 360 ;
361 [label=<gini = 0.0<br/>samples = 2<br/>value = [0, 0, 0, 0, 0, 2, 0, 0, 0, 0, 0, 0, 0, 0<br/>0, 0, 0, 0, 0, 0, 0]<br/>class = Shellcode>, fillcolor="#56e539"] ;
360 -> 361 ;
362 [label=<L4_SRC_PORT &le; 50185.0<br/>gini = 0.625<br/>samples = 4<br/>value = [0, 0, 0, 0, 0, 1, 0, 0, 0, 0, 0, 0, 0, 0<br/>0, 0, 2, 0, 0, 1, 0]<br/>class = ransomware>, fillcolor="#f5bdf6"] ;
360 -> 362 ;
363 [label=<L4_SRC_PORT &le; 48196.0<br/>gini = 0.444<br/>samples = 3<br/>value = [0, 0, 0, 0, 0, 0, 0, 0, 0, 0, 0, 0, 0, 0<br/>0, 0, 2, 0, 0, 1, 0]<br/>class = ransomware>, fillcolor="#f09cf2"] ;
362 -> 363 ;
364 [label=<gini = 0.0<br/>samples = 1<br/>value = [0, 0, 0, 0, 0, 0, 0, 0, 0, 0, 0, 0, 0, 0<br/>0, 0, 1, 0, 0, 0, 0]<br/>class = ransomware>, fillcolor="#e239e5"] ;
363 -> 364 ;
365 [label=<OUT_BYTES &le; -0.037<br/>gini = 0.5<br/>samples = 2<br/>value = [0, 0, 0, 0, 0, 0, 0, 0, 0, 0, 0, 0, 0, 0<br/>0, 0, 1, 0, 0, 1, 0]<br/>class = ransomware>, fillcolor="#ffffff"] ;
363 -> 365 ;
366 [label=<gini = 0.0<br/>samples = 1<br/>value = [0, 0, 0, 0, 0, 0, 0, 0, 0, 0, 0, 0, 0, 0<br/>0, 0, 0, 0, 0, 1, 0]<br/>class = Brute Force>, fillcolor="#e53956"] ;
365 -> 366 ;
367 [label=<gini = 0.0<br/>samples = 1<br/>value = [0, 0, 0, 0, 0, 0, 0, 0, 0, 0, 0, 0, 0, 0<br/>0, 0, 1, 0, 0, 0, 0]<br/>class = ransomware>, fillcolor="#e239e5"] ;
365 -> 367 ;
368 [label=<gini = 0.0<br/>samples = 1<br/>value = [0, 0, 0, 0, 0, 1, 0, 0, 0, 0, 0, 0, 0, 0<br/>0, 0, 0, 0, 0, 0, 0]<br/>class = Shellcode>, fillcolor="#56e539"] ;
362 -> 368 ;
369 [label=<L4_SRC_PORT &le; 51650.0<br/>gini = 0.278<br/>samples = 6<br/>value = [0, 0, 0, 0, 0, 1, 0, 0, 0, 0, 0, 0, 0, 0<br/>0, 0, 0, 0, 0, 5, 0]<br/>class = Brute Force>, fillcolor="#ea6178"] ;
357 -> 369 ;
370 [label=<gini = 0.0<br/>samples = 3<br/>value = [0, 0, 0, 0, 0, 0, 0, 0, 0, 0, 0, 0, 0, 0<br/>0, 0, 0, 0, 0, 3, 0]<br/>class = Brute Force>, fillcolor="#e53956"] ;
369 -> 370 ;
371 [label=<OUT_BYTES &le; -0.037<br/>gini = 0.444<br/>samples = 3<br/>value = [0, 0, 0, 0, 0, 1, 0, 0, 0, 0, 0, 0, 0, 0<br/>0, 0, 0, 0, 0, 2, 0]<br/>class = Brute Force>, fillcolor="#f29caa"] ;
369 -> 371 ;
372 [label=<gini = 0.0<br/>samples = 2<br/>value = [0, 0, 0, 0, 0, 0, 0, 0, 0, 0, 0, 0, 0, 0<br/>0, 0, 0, 0, 0, 2, 0]<br/>class = Brute Force>, fillcolor="#e53956"] ;
371 -> 372 ;
373 [label=<gini = 0.0<br/>samples = 1<br/>value = [0, 0, 0, 0, 0, 1, 0, 0, 0, 0, 0, 0, 0, 0<br/>0, 0, 0, 0, 0, 0, 0]<br/>class = Shellcode>, fillcolor="#56e539"] ;
371 -> 373 ;
374 [label=<L4_SRC_PORT &le; 53471.5<br/>gini = 0.5<br/>samples = 2<br/>value = [0, 0, 0, 0, 0, 0, 1, 0, 0, 0, 0, 0, 0, 0<br/>0, 0, 1, 0, 0, 0, 0]<br/>class = Backdoor>, fillcolor="#ffffff"] ;
356 -> 374 ;
375 [label=<gini = 0.0<br/>samples = 1<br/>value = [0, 0, 0, 0, 0, 0, 1, 0, 0, 0, 0, 0, 0, 0<br/>0, 0, 0, 0, 0, 0, 0]<br/>class = Backdoor>, fillcolor="#39e54d"] ;
374 -> 375 ;
376 [label=<gini = 0.0<br/>samples = 1<br/>value = [0, 0, 0, 0, 0, 0, 0, 0, 0, 0, 0, 0, 0, 0<br/>0, 0, 1, 0, 0, 0, 0]<br/>class = ransomware>, fillcolor="#e239e5"] ;
374 -> 376 ;
377 [label=<L4_SRC_PORT &le; 40391.0<br/>gini = 0.728<br/>samples = 36<br/>value = [0, 0, 0, 0, 0, 14, 5, 0, 0, 0, 0, 0, 0, 0<br/>0, 1, 7, 0, 0, 9, 0]<br/>class = Shellcode>, fillcolor="#e0fada"] ;
327 -> 377 ;
378 [label=<IN_BYTES &le; -0.026<br/>gini = 0.444<br/>samples = 6<br/>value = [0, 0, 0, 0, 0, 4, 2, 0, 0, 0, 0, 0, 0, 0<br/>0, 0, 0, 0, 0, 0, 0]<br/>class = Shellcode>, fillcolor="#aaf29c"] ;
377 -> 378 ;
379 [label=<L4_SRC_PORT &le; 39311.0<br/>gini = 0.32<br/>samples = 5<br/>value = [0, 0, 0, 0, 0, 4, 1, 0, 0, 0, 0, 0, 0, 0<br/>0, 0, 0, 0, 0, 0, 0]<br/>class = Shellcode>, fillcolor="#80ec6a"] ;
378 -> 379 ;
380 [label=<gini = 0.0<br/>samples = 3<br/>value = [0, 0, 0, 0, 0, 3, 0, 0, 0, 0, 0, 0, 0, 0<br/>0, 0, 0, 0, 0, 0, 0]<br/>class = Shellcode>, fillcolor="#56e539"] ;
379 -> 380 ;
381 [label=<L4_SRC_PORT &le; 39461.0<br/>gini = 0.5<br/>samples = 2<br/>value = [0, 0, 0, 0, 0, 1, 1, 0, 0, 0, 0, 0, 0, 0<br/>0, 0, 0, 0, 0, 0, 0]<br/>class = Shellcode>, fillcolor="#ffffff"] ;
379 -> 381 ;
382 [label=<gini = 0.0<br/>samples = 1<br/>value = [0, 0, 0, 0, 0, 0, 1, 0, 0, 0, 0, 0, 0, 0<br/>0, 0, 0, 0, 0, 0, 0]<br/>class = Backdoor>, fillcolor="#39e54d"] ;
381 -> 382 ;
383 [label=<gini = 0.0<br/>samples = 1<br/>value = [0, 0, 0, 0, 0, 1, 0, 0, 0, 0, 0, 0, 0, 0<br/>0, 0, 0, 0, 0, 0, 0]<br/>class = Shellcode>, fillcolor="#56e539"] ;
381 -> 383 ;
384 [label=<gini = 0.0<br/>samples = 1<br/>value = [0, 0, 0, 0, 0, 0, 1, 0, 0, 0, 0, 0, 0, 0<br/>0, 0, 0, 0, 0, 0, 0]<br/>class = Backdoor>, fillcolor="#39e54d"] ;
378 -> 384 ;
385 [label=<L4_SRC_PORT &le; 48126.0<br/>gini = 0.733<br/>samples = 30<br/>value = [0, 0, 0, 0, 0, 10, 3, 0, 0, 0, 0, 0, 0, 0<br/>0, 1, 7, 0, 0, 9, 0]<br/>class = Shellcode>, fillcolor="#f7fef6"] ;
377 -> 385 ;
386 [label=<L4_SRC_PORT &le; 44091.0<br/>gini = 0.663<br/>samples = 14<br/>value = [0, 0, 0, 0, 0, 2, 2, 0, 0, 0, 0, 0, 0, 0<br/>0, 0, 3, 0, 0, 7, 0]<br/>class = Brute Force>, fillcolor="#f6b7c2"] ;
385 -> 386 ;
387 [label=<L4_SRC_PORT &le; 43767.5<br/>gini = 0.75<br/>samples = 8<br/>value = [0, 0, 0, 0, 0, 2, 2, 0, 0, 0, 0, 0, 0, 0<br/>0, 0, 2, 0, 0, 2, 0]<br/>class = Shellcode>, fillcolor="#ffffff"] ;
386 -> 387 ;
388 [label=<L4_SRC_PORT &le; 41693.5<br/>gini = 0.667<br/>samples = 6<br/>value = [0, 0, 0, 0, 0, 0, 2, 0, 0, 0, 0, 0, 0, 0<br/>0, 0, 2, 0, 0, 2, 0]<br/>class = Backdoor>, fillcolor="#ffffff"] ;
387 -> 388 ;
389 [label=<gini = 0.0<br/>samples = 1<br/>value = [0, 0, 0, 0, 0, 0, 0, 0, 0, 0, 0, 0, 0, 0<br/>0, 0, 0, 0, 0, 1, 0]<br/>class = Brute Force>, fillcolor="#e53956"] ;
388 -> 389 ;
390 [label=<IN_BYTES &le; -0.026<br/>gini = 0.64<br/>samples = 5<br/>value = [0, 0, 0, 0, 0, 0, 2, 0, 0, 0, 0, 0, 0, 0<br/>0, 0, 2, 0, 0, 1, 0]<br/>class = Backdoor>, fillcolor="#ffffff"] ;
388 -> 390 ;
391 [label=<L4_SRC_PORT &le; 43458.0<br/>gini = 0.444<br/>samples = 3<br/>value = [0, 0, 0, 0, 0, 0, 1, 0, 0, 0, 0, 0, 0, 0<br/>0, 0, 2, 0, 0, 0, 0]<br/>class = ransomware>, fillcolor="#f09cf2"] ;
390 -> 391 ;
392 [label=<gini = 0.0<br/>samples = 2<br/>value = [0, 0, 0, 0, 0, 0, 0, 0, 0, 0, 0, 0, 0, 0<br/>0, 0, 2, 0, 0, 0, 0]<br/>class = ransomware>, fillcolor="#e239e5"] ;
391 -> 392 ;
393 [label=<gini = 0.0<br/>samples = 1<br/>value = [0, 0, 0, 0, 0, 0, 1, 0, 0, 0, 0, 0, 0, 0<br/>0, 0, 0, 0, 0, 0, 0]<br/>class = Backdoor>, fillcolor="#39e54d"] ;
391 -> 393 ;
394 [label=<L4_SRC_PORT &le; 42321.5<br/>gini = 0.5<br/>samples = 2<br/>value = [0, 0, 0, 0, 0, 0, 1, 0, 0, 0, 0, 0, 0, 0<br/>0, 0, 0, 0, 0, 1, 0]<br/>class = Backdoor>, fillcolor="#ffffff"] ;
390 -> 394 ;
395 [label=<gini = 0.0<br/>samples = 1<br/>value = [0, 0, 0, 0, 0, 0, 1, 0, 0, 0, 0, 0, 0, 0<br/>0, 0, 0, 0, 0, 0, 0]<br/>class = Backdoor>, fillcolor="#39e54d"] ;
394 -> 395 ;
396 [label=<gini = 0.0<br/>samples = 1<br/>value = [0, 0, 0, 0, 0, 0, 0, 0, 0, 0, 0, 0, 0, 0<br/>0, 0, 0, 0, 0, 1, 0]<br/>class = Brute Force>, fillcolor="#e53956"] ;
394 -> 396 ;
397 [label=<gini = 0.0<br/>samples = 2<br/>value = [0, 0, 0, 0, 0, 2, 0, 0, 0, 0, 0, 0, 0, 0<br/>0, 0, 0, 0, 0, 0, 0]<br/>class = Shellcode>, fillcolor="#56e539"] ;
387 -> 397 ;
398 [label=<OUT_BYTES &le; -0.037<br/>gini = 0.278<br/>samples = 6<br/>value = [0, 0, 0, 0, 0, 0, 0, 0, 0, 0, 0, 0, 0, 0<br/>0, 0, 1, 0, 0, 5, 0]<br/>class = Brute Force>, fillcolor="#ea6178"] ;
386 -> 398 ;
399 [label=<gini = 0.0<br/>samples = 1<br/>value = [0, 0, 0, 0, 0, 0, 0, 0, 0, 0, 0, 0, 0, 0<br/>0, 0, 1, 0, 0, 0, 0]<br/>class = ransomware>, fillcolor="#e239e5"] ;
398 -> 399 ;
400 [label=<gini = 0.0<br/>samples = 5<br/>value = [0, 0, 0, 0, 0, 0, 0, 0, 0, 0, 0, 0, 0, 0<br/>0, 0, 0, 0, 0, 5, 0]<br/>class = Brute Force>, fillcolor="#e53956"] ;
398 -> 400 ;
401 [label=<L4_SRC_PORT &le; 53254.0<br/>gini = 0.664<br/>samples = 16<br/>value = [0, 0, 0, 0, 0, 8, 1, 0, 0, 0, 0, 0, 0, 0<br/>0, 1, 4, 0, 0, 2, 0]<br/>class = Shellcode>, fillcolor="#c7f6bd"] ;
385 -> 401 ;
402 [label=<L4_SRC_PORT &le; 52915.5<br/>gini = 0.631<br/>samples = 15<br/>value = [0, 0, 0, 0, 0, 8, 1, 0, 0, 0, 0, 0, 0, 0<br/>0, 1, 4, 0, 0, 1, 0]<br/>class = Shellcode>, fillcolor="#c2f6b7"] ;
401 -> 402 ;
403 [label=<L4_SRC_PORT &le; 51941.5<br/>gini = 0.694<br/>samples = 12<br/>value = [0, 0, 0, 0, 0, 5, 1, 0, 0, 0, 0, 0, 0, 0<br/>0, 1, 4, 0, 0, 1, 0]<br/>class = Shellcode>, fillcolor="#eafce6"] ;
402 -> 403 ;
404 [label=<L4_SRC_PORT &le; 51660.5<br/>gini = 0.568<br/>samples = 9<br/>value = [0, 0, 0, 0, 0, 5, 0, 0, 0, 0, 0, 0, 0, 0<br/>0, 0, 3, 0, 0, 1, 0]<br/>class = Shellcode>, fillcolor="#c7f6bd"] ;
403 -> 404 ;
405 [label=<FLOW_DURATION_MILLISECONDS &le; -1.207<br/>gini = 0.611<br/>samples = 6<br/>value = [0, 0, 0, 0, 0, 2, 0, 0, 0, 0, 0, 0, 0, 0<br/>0, 0, 3, 0, 0, 1, 0]<br/>class = ransomware>, fillcolor="#f8cef8"] ;
404 -> 405 ;
406 [label=<L4_SRC_PORT &le; 51276.0<br/>gini = 0.375<br/>samples = 4<br/>value = [0, 0, 0, 0, 0, 0, 0, 0, 0, 0, 0, 0, 0, 0<br/>0, 0, 3, 0, 0, 1, 0]<br/>class = ransomware>, fillcolor="#ec7bee"] ;
405 -> 406 ;
407 [label=<gini = 0.0<br/>samples = 3<br/>value = [0, 0, 0, 0, 0, 0, 0, 0, 0, 0, 0, 0, 0, 0<br/>0, 0, 3, 0, 0, 0, 0]<br/>class = ransomware>, fillcolor="#e239e5"] ;
406 -> 407 ;
408 [label=<gini = 0.0<br/>samples = 1<br/>value = [0, 0, 0, 0, 0, 0, 0, 0, 0, 0, 0, 0, 0, 0<br/>0, 0, 0, 0, 0, 1, 0]<br/>class = Brute Force>, fillcolor="#e53956"] ;
406 -> 408 ;
409 [label=<gini = 0.0<br/>samples = 2<br/>value = [0, 0, 0, 0, 0, 2, 0, 0, 0, 0, 0, 0, 0, 0<br/>0, 0, 0, 0, 0, 0, 0]<br/>class = Shellcode>, fillcolor="#56e539"] ;
405 -> 409 ;
410 [label=<gini = 0.0<br/>samples = 3<br/>value = [0, 0, 0, 0, 0, 3, 0, 0, 0, 0, 0, 0, 0, 0<br/>0, 0, 0, 0, 0, 0, 0]<br/>class = Shellcode>, fillcolor="#56e539"] ;
404 -> 410 ;
411 [label=<IN_BYTES &le; -0.026<br/>gini = 0.667<br/>samples = 3<br/>value = [0, 0, 0, 0, 0, 0, 1, 0, 0, 0, 0, 0, 0, 0<br/>0, 1, 1, 0, 0, 0, 0]<br/>class = Backdoor>, fillcolor="#ffffff"] ;
403 -> 411 ;
412 [label=<FLOW_DURATION_MILLISECONDS &le; -1.207<br/>gini = 0.5<br/>samples = 2<br/>value = [0, 0, 0, 0, 0, 0, 1, 0, 0, 0, 0, 0, 0, 0<br/>0, 0, 1, 0, 0, 0, 0]<br/>class = Backdoor>, fillcolor="#ffffff"] ;
411 -> 412 ;
413 [label=<gini = 0.0<br/>samples = 1<br/>value = [0, 0, 0, 0, 0, 0, 1, 0, 0, 0, 0, 0, 0, 0<br/>0, 0, 0, 0, 0, 0, 0]<br/>class = Backdoor>, fillcolor="#39e54d"] ;
412 -> 413 ;
414 [label=<gini = 0.0<br/>samples = 1<br/>value = [0, 0, 0, 0, 0, 0, 0, 0, 0, 0, 0, 0, 0, 0<br/>0, 0, 1, 0, 0, 0, 0]<br/>class = ransomware>, fillcolor="#e239e5"] ;
412 -> 414 ;
415 [label=<gini = 0.0<br/>samples = 1<br/>value = [0, 0, 0, 0, 0, 0, 0, 0, 0, 0, 0, 0, 0, 0<br/>0, 1, 0, 0, 0, 0, 0]<br/>class = xss>, fillcolor="#b139e5"] ;
411 -> 415 ;
416 [label=<gini = 0.0<br/>samples = 3<br/>value = [0, 0, 0, 0, 0, 3, 0, 0, 0, 0, 0, 0, 0, 0<br/>0, 0, 0, 0, 0, 0, 0]<br/>class = Shellcode>, fillcolor="#56e539"] ;
402 -> 416 ;
417 [label=<gini = 0.0<br/>samples = 1<br/>value = [0, 0, 0, 0, 0, 0, 0, 0, 0, 0, 0, 0, 0, 0<br/>0, 0, 0, 0, 0, 1, 0]<br/>class = Brute Force>, fillcolor="#e53956"] ;
401 -> 417 ;
418 [label=<FLOW_DURATION_MILLISECONDS &le; -1.207<br/>gini = 0.531<br/>samples = 8<br/>value = [0, 0, 0, 0, 0, 1, 2, 0, 0, 0, 0, 0, 0, 0<br/>0, 0, 0, 0, 0, 5, 0]<br/>class = Brute Force>, fillcolor="#f29caa"] ;
310 -> 418 ;
419 [label=<gini = 0.0<br/>samples = 5<br/>value = [0, 0, 0, 0, 0, 0, 0, 0, 0, 0, 0, 0, 0, 0<br/>0, 0, 0, 0, 0, 5, 0]<br/>class = Brute Force>, fillcolor="#e53956"] ;
418 -> 419 ;
420 [label=<L4_SRC_PORT &le; 54095.0<br/>gini = 0.444<br/>samples = 3<br/>value = [0, 0, 0, 0, 0, 1, 2, 0, 0, 0, 0, 0, 0, 0<br/>0, 0, 0, 0, 0, 0, 0]<br/>class = Backdoor>, fillcolor="#9cf2a6"] ;
418 -> 420 ;
421 [label=<gini = 0.0<br/>samples = 1<br/>value = [0, 0, 0, 0, 0, 1, 0, 0, 0, 0, 0, 0, 0, 0<br/>0, 0, 0, 0, 0, 0, 0]<br/>class = Shellcode>, fillcolor="#56e539"] ;
420 -> 421 ;
422 [label=<gini = 0.0<br/>samples = 2<br/>value = [0, 0, 0, 0, 0, 0, 2, 0, 0, 0, 0, 0, 0, 0<br/>0, 0, 0, 0, 0, 0, 0]<br/>class = Backdoor>, fillcolor="#39e54d"] ;
420 -> 422 ;
423 [label=<L4_SRC_PORT &le; 56449.0<br/>gini = 0.617<br/>samples = 27<br/>value = [0, 0, 0, 0, 0, 3, 0, 0, 0, 0, 0, 0, 0, 0<br/>0, 0, 13, 1, 0, 10, 0]<br/>class = ransomware>, fillcolor="#fadcfa"] ;
307 -> 423 ;
424 [label=<FLOW_DURATION_MILLISECONDS &le; -1.207<br/>gini = 0.219<br/>samples = 8<br/>value = [0, 0, 0, 0, 0, 0, 0, 0, 0, 0, 0, 0, 0, 0<br/>0, 0, 7, 0, 0, 1, 0]<br/>class = ransomware>, fillcolor="#e655e9"] ;
423 -> 424 ;
425 [label=<L4_SRC_PORT &le; 55982.0<br/>gini = 0.375<br/>samples = 4<br/>value = [0, 0, 0, 0, 0, 0, 0, 0, 0, 0, 0, 0, 0, 0<br/>0, 0, 3, 0, 0, 1, 0]<br/>class = ransomware>, fillcolor="#ec7bee"] ;
424 -> 425 ;
426 [label=<OUT_BYTES &le; -0.037<br/>gini = 0.5<br/>samples = 2<br/>value = [0, 0, 0, 0, 0, 0, 0, 0, 0, 0, 0, 0, 0, 0<br/>0, 0, 1, 0, 0, 1, 0]<br/>class = ransomware>, fillcolor="#ffffff"] ;
425 -> 426 ;
427 [label=<gini = 0.0<br/>samples = 1<br/>value = [0, 0, 0, 0, 0, 0, 0, 0, 0, 0, 0, 0, 0, 0<br/>0, 0, 0, 0, 0, 1, 0]<br/>class = Brute Force>, fillcolor="#e53956"] ;
426 -> 427 ;
428 [label=<gini = 0.0<br/>samples = 1<br/>value = [0, 0, 0, 0, 0, 0, 0, 0, 0, 0, 0, 0, 0, 0<br/>0, 0, 1, 0, 0, 0, 0]<br/>class = ransomware>, fillcolor="#e239e5"] ;
426 -> 428 ;
429 [label=<gini = 0.0<br/>samples = 2<br/>value = [0, 0, 0, 0, 0, 0, 0, 0, 0, 0, 0, 0, 0, 0<br/>0, 0, 2, 0, 0, 0, 0]<br/>class = ransomware>, fillcolor="#e239e5"] ;
425 -> 429 ;
430 [label=<gini = 0.0<br/>samples = 4<br/>value = [0, 0, 0, 0, 0, 0, 0, 0, 0, 0, 0, 0, 0, 0<br/>0, 0, 4, 0, 0, 0, 0]<br/>class = ransomware>, fillcolor="#e239e5"] ;
424 -> 430 ;
431 [label=<OUT_BYTES &le; -0.037<br/>gini = 0.648<br/>samples = 19<br/>value = [0, 0, 0, 0, 0, 3, 0, 0, 0, 0, 0, 0, 0, 0<br/>0, 0, 6, 1, 0, 9, 0]<br/>class = Brute Force>, fillcolor="#f9d1d8"] ;
423 -> 431 ;
432 [label=<PROTOCOL &le; 11.5<br/>gini = 0.691<br/>samples = 9<br/>value = [0, 0, 0, 0, 0, 2, 0, 0, 0, 0, 0, 0, 0, 0<br/>0, 0, 4, 1, 0, 2, 0]<br/>class = ransomware>, fillcolor="#f7c6f8"] ;
431 -> 432 ;
433 [label=<gini = 0.0<br/>samples = 1<br/>value = [0, 0, 0, 0, 0, 0, 0, 0, 0, 0, 0, 0, 0, 0<br/>0, 0, 0, 1, 0, 0, 0]<br/>class = Infilteration>, fillcolor="#e539b7"] ;
432 -> 433 ;
434 [label=<FLOW_DURATION_MILLISECONDS &le; -1.207<br/>gini = 0.625<br/>samples = 8<br/>value = [0, 0, 0, 0, 0, 2, 0, 0, 0, 0, 0, 0, 0, 0<br/>0, 0, 4, 0, 0, 2, 0]<br/>class = ransomware>, fillcolor="#f5bdf6"] ;
432 -> 434 ;
435 [label=<L4_SRC_PORT &le; 57802.5<br/>gini = 0.667<br/>samples = 6<br/>value = [0, 0, 0, 0, 0, 2, 0, 0, 0, 0, 0, 0, 0, 0<br/>0, 0, 2, 0, 0, 2, 0]<br/>class = Shellcode>, fillcolor="#ffffff"] ;
434 -> 435 ;
436 [label=<gini = 0.0<br/>samples = 1<br/>value = [0, 0, 0, 0, 0, 0, 0, 0, 0, 0, 0, 0, 0, 0<br/>0, 0, 0, 0, 0, 1, 0]<br/>class = Brute Force>, fillcolor="#e53956"] ;
435 -> 436 ;
437 [label=<L4_SRC_PORT &le; 60097.0<br/>gini = 0.64<br/>samples = 5<br/>value = [0, 0, 0, 0, 0, 2, 0, 0, 0, 0, 0, 0, 0, 0<br/>0, 0, 2, 0, 0, 1, 0]<br/>class = Shellcode>, fillcolor="#ffffff"] ;
435 -> 437 ;
438 [label=<L4_SRC_PORT &le; 59546.5<br/>gini = 0.444<br/>samples = 3<br/>value = [0, 0, 0, 0, 0, 2, 0, 0, 0, 0, 0, 0, 0, 0<br/>0, 0, 1, 0, 0, 0, 0]<br/>class = Shellcode>, fillcolor="#aaf29c"] ;
437 -> 438 ;
439 [label=<gini = 0.0<br/>samples = 1<br/>value = [0, 0, 0, 0, 0, 0, 0, 0, 0, 0, 0, 0, 0, 0<br/>0, 0, 1, 0, 0, 0, 0]<br/>class = ransomware>, fillcolor="#e239e5"] ;
438 -> 439 ;
440 [label=<gini = 0.0<br/>samples = 2<br/>value = [0, 0, 0, 0, 0, 2, 0, 0, 0, 0, 0, 0, 0, 0<br/>0, 0, 0, 0, 0, 0, 0]<br/>class = Shellcode>, fillcolor="#56e539"] ;
438 -> 440 ;
441 [label=<L4_SRC_PORT &le; 60461.0<br/>gini = 0.5<br/>samples = 2<br/>value = [0, 0, 0, 0, 0, 0, 0, 0, 0, 0, 0, 0, 0, 0<br/>0, 0, 1, 0, 0, 1, 0]<br/>class = ransomware>, fillcolor="#ffffff"] ;
437 -> 441 ;
442 [label=<gini = 0.0<br/>samples = 1<br/>value = [0, 0, 0, 0, 0, 0, 0, 0, 0, 0, 0, 0, 0, 0<br/>0, 0, 0, 0, 0, 1, 0]<br/>class = Brute Force>, fillcolor="#e53956"] ;
441 -> 442 ;
443 [label=<gini = 0.0<br/>samples = 1<br/>value = [0, 0, 0, 0, 0, 0, 0, 0, 0, 0, 0, 0, 0, 0<br/>0, 0, 1, 0, 0, 0, 0]<br/>class = ransomware>, fillcolor="#e239e5"] ;
441 -> 443 ;
444 [label=<gini = 0.0<br/>samples = 2<br/>value = [0, 0, 0, 0, 0, 0, 0, 0, 0, 0, 0, 0, 0, 0<br/>0, 0, 2, 0, 0, 0, 0]<br/>class = ransomware>, fillcolor="#e239e5"] ;
434 -> 444 ;
445 [label=<L4_SRC_PORT &le; 57923.5<br/>gini = 0.46<br/>samples = 10<br/>value = [0, 0, 0, 0, 0, 1, 0, 0, 0, 0, 0, 0, 0, 0<br/>0, 0, 2, 0, 0, 7, 0]<br/>class = Brute Force>, fillcolor="#ef8395"] ;
431 -> 445 ;
446 [label=<L4_SRC_PORT &le; 57169.5<br/>gini = 0.32<br/>samples = 5<br/>value = [0, 0, 0, 0, 0, 1, 0, 0, 0, 0, 0, 0, 0, 0<br/>0, 0, 0, 0, 0, 4, 0]<br/>class = Brute Force>, fillcolor="#ec6a80"] ;
445 -> 446 ;
447 [label=<gini = 0.0<br/>samples = 3<br/>value = [0, 0, 0, 0, 0, 0, 0, 0, 0, 0, 0, 0, 0, 0<br/>0, 0, 0, 0, 0, 3, 0]<br/>class = Brute Force>, fillcolor="#e53956"] ;
446 -> 447 ;
448 [label=<FLOW_DURATION_MILLISECONDS &le; -1.207<br/>gini = 0.5<br/>samples = 2<br/>value = [0, 0, 0, 0, 0, 1, 0, 0, 0, 0, 0, 0, 0, 0<br/>0, 0, 0, 0, 0, 1, 0]<br/>class = Shellcode>, fillcolor="#ffffff"] ;
446 -> 448 ;
449 [label=<gini = 0.0<br/>samples = 1<br/>value = [0, 0, 0, 0, 0, 1, 0, 0, 0, 0, 0, 0, 0, 0<br/>0, 0, 0, 0, 0, 0, 0]<br/>class = Shellcode>, fillcolor="#56e539"] ;
448 -> 449 ;
450 [label=<gini = 0.0<br/>samples = 1<br/>value = [0, 0, 0, 0, 0, 0, 0, 0, 0, 0, 0, 0, 0, 0<br/>0, 0, 0, 0, 0, 1, 0]<br/>class = Brute Force>, fillcolor="#e53956"] ;
448 -> 450 ;
451 [label=<L4_SRC_PORT &le; 59379.0<br/>gini = 0.48<br/>samples = 5<br/>value = [0, 0, 0, 0, 0, 0, 0, 0, 0, 0, 0, 0, 0, 0<br/>0, 0, 2, 0, 0, 3, 0]<br/>class = Brute Force>, fillcolor="#f6bdc7"] ;
445 -> 451 ;
452 [label=<gini = 0.0<br/>samples = 2<br/>value = [0, 0, 0, 0, 0, 0, 0, 0, 0, 0, 0, 0, 0, 0<br/>0, 0, 2, 0, 0, 0, 0]<br/>class = ransomware>, fillcolor="#e239e5"] ;
451 -> 452 ;
453 [label=<gini = 0.0<br/>samples = 3<br/>value = [0, 0, 0, 0, 0, 0, 0, 0, 0, 0, 0, 0, 0, 0<br/>0, 0, 0, 0, 0, 3, 0]<br/>class = Brute Force>, fillcolor="#e53956"] ;
451 -> 453 ;
454 [label=<FLOW_DURATION_MILLISECONDS &le; -1.207<br/>gini = 0.622<br/>samples = 15<br/>value = [0, 0, 0, 0, 0, 4, 8, 0, 0, 0, 0, 0, 0, 0<br/>0, 0, 1, 0, 0, 2, 0]<br/>class = Backdoor>, fillcolor="#b7f6be"] ;
306 -> 454 ;
455 [label=<gini = 0.0<br/>samples = 5<br/>value = [0, 0, 0, 0, 0, 0, 5, 0, 0, 0, 0, 0, 0, 0<br/>0, 0, 0, 0, 0, 0, 0]<br/>class = Backdoor>, fillcolor="#39e54d"] ;
454 -> 455 ;
456 [label=<FLOW_DURATION_MILLISECONDS &le; -1.207<br/>gini = 0.7<br/>samples = 10<br/>value = [0, 0, 0, 0, 0, 4, 3, 0, 0, 0, 0, 0, 0, 0<br/>0, 0, 1, 0, 0, 2, 0]<br/>class = Shellcode>, fillcolor="#e7fbe3"] ;
454 -> 456 ;
457 [label=<L4_SRC_PORT &le; 48156.5<br/>gini = 0.656<br/>samples = 8<br/>value = [0, 0, 0, 0, 0, 4, 1, 0, 0, 0, 0, 0, 0, 0<br/>0, 0, 1, 0, 0, 2, 0]<br/>class = Shellcode>, fillcolor="#c7f6bd"] ;
456 -> 457 ;
458 [label=<gini = 0.0<br/>samples = 2<br/>value = [0, 0, 0, 0, 0, 0, 0, 0, 0, 0, 0, 0, 0, 0<br/>0, 0, 0, 0, 0, 2, 0]<br/>class = Brute Force>, fillcolor="#e53956"] ;
457 -> 458 ;
459 [label=<L4_SRC_PORT &le; 57785.5<br/>gini = 0.5<br/>samples = 6<br/>value = [0, 0, 0, 0, 0, 4, 1, 0, 0, 0, 0, 0, 0, 0<br/>0, 0, 1, 0, 0, 0, 0]<br/>class = Shellcode>, fillcolor="#9aef88"] ;
457 -> 459 ;
460 [label=<gini = 0.0<br/>samples = 4<br/>value = [0, 0, 0, 0, 0, 4, 0, 0, 0, 0, 0, 0, 0, 0<br/>0, 0, 0, 0, 0, 0, 0]<br/>class = Shellcode>, fillcolor="#56e539"] ;
459 -> 460 ;
461 [label=<OUT_BYTES &le; -0.037<br/>gini = 0.5<br/>samples = 2<br/>value = [0, 0, 0, 0, 0, 0, 1, 0, 0, 0, 0, 0, 0, 0<br/>0, 0, 1, 0, 0, 0, 0]<br/>class = Backdoor>, fillcolor="#ffffff"] ;
459 -> 461 ;
462 [label=<gini = 0.0<br/>samples = 1<br/>value = [0, 0, 0, 0, 0, 0, 1, 0, 0, 0, 0, 0, 0, 0<br/>0, 0, 0, 0, 0, 0, 0]<br/>class = Backdoor>, fillcolor="#39e54d"] ;
461 -> 462 ;
463 [label=<gini = 0.0<br/>samples = 1<br/>value = [0, 0, 0, 0, 0, 0, 0, 0, 0, 0, 0, 0, 0, 0<br/>0, 0, 1, 0, 0, 0, 0]<br/>class = ransomware>, fillcolor="#e239e5"] ;
461 -> 463 ;
464 [label=<gini = 0.0<br/>samples = 2<br/>value = [0, 0, 0, 0, 0, 0, 2, 0, 0, 0, 0, 0, 0, 0<br/>0, 0, 0, 0, 0, 0, 0]<br/>class = Backdoor>, fillcolor="#39e54d"] ;
456 -> 464 ;
465 [label=<L4_SRC_PORT &le; 48497.5<br/>gini = 0.37<br/>samples = 9<br/>value = [0, 0, 0, 0, 0, 0, 1, 0, 0, 0, 0, 0, 0, 0<br/>0, 0, 1, 0, 0, 7, 0]<br/>class = Brute Force>, fillcolor="#ec6a80"] ;
305 -> 465 ;
466 [label=<FLOW_DURATION_MILLISECONDS &le; -1.207<br/>gini = 0.5<br/>samples = 2<br/>value = [0, 0, 0, 0, 0, 0, 1, 0, 0, 0, 0, 0, 0, 0<br/>0, 0, 1, 0, 0, 0, 0]<br/>class = Backdoor>, fillcolor="#ffffff"] ;
465 -> 466 ;
467 [label=<gini = 0.0<br/>samples = 1<br/>value = [0, 0, 0, 0, 0, 0, 0, 0, 0, 0, 0, 0, 0, 0<br/>0, 0, 1, 0, 0, 0, 0]<br/>class = ransomware>, fillcolor="#e239e5"] ;
466 -> 467 ;
468 [label=<gini = 0.0<br/>samples = 1<br/>value = [0, 0, 0, 0, 0, 0, 1, 0, 0, 0, 0, 0, 0, 0<br/>0, 0, 0, 0, 0, 0, 0]<br/>class = Backdoor>, fillcolor="#39e54d"] ;
466 -> 468 ;
469 [label=<gini = 0.0<br/>samples = 7<br/>value = [0, 0, 0, 0, 0, 0, 0, 0, 0, 0, 0, 0, 0, 0<br/>0, 0, 0, 0, 0, 7, 0]<br/>class = Brute Force>, fillcolor="#e53956"] ;
465 -> 469 ;
470 [label=<FLOW_DURATION_MILLISECONDS &le; -1.207<br/>gini = 0.198<br/>samples = 9<br/>value = [0, 1, 0, 0, 0, 0, 0, 0, 0, 0, 0, 0, 0, 0<br/>0, 0, 8, 0, 0, 0, 0]<br/>class = ransomware>, fillcolor="#e652e8"] ;
304 -> 470 ;
471 [label=<FLOW_DURATION_MILLISECONDS &le; -1.207<br/>gini = 0.375<br/>samples = 4<br/>value = [0, 1, 0, 0, 0, 0, 0, 0, 0, 0, 0, 0, 0, 0<br/>0, 0, 3, 0, 0, 0, 0]<br/>class = ransomware>, fillcolor="#ec7bee"] ;
470 -> 471 ;
472 [label=<gini = 0.0<br/>samples = 3<br/>value = [0, 0, 0, 0, 0, 0, 0, 0, 0, 0, 0, 0, 0, 0<br/>0, 0, 3, 0, 0, 0, 0]<br/>class = ransomware>, fillcolor="#e239e5"] ;
471 -> 472 ;
473 [label=<gini = 0.0<br/>samples = 1<br/>value = [0, 1, 0, 0, 0, 0, 0, 0, 0, 0, 0, 0, 0, 0<br/>0, 0, 0, 0, 0, 0, 0]<br/>class = Exploits>, fillcolor="#e5b139"] ;
471 -> 473 ;
474 [label=<gini = 0.0<br/>samples = 5<br/>value = [0, 0, 0, 0, 0, 0, 0, 0, 0, 0, 0, 0, 0, 0<br/>0, 0, 5, 0, 0, 0, 0]<br/>class = ransomware>, fillcolor="#e239e5"] ;
470 -> 474 ;
475 [label=<L4_SRC_PORT &le; 30611.5<br/>gini = 0.839<br/>samples = 83<br/>value = [0, 0, 7, 0, 0, 5, 9, 0, 0, 0, 1, 0, 0, 0<br/>0, 15, 11, 4, 0, 8, 23]<br/>class = Theft>, fillcolor="#fceae8"] ;
303 -> 475 ;
476 [label=<gini = 0.0<br/>samples = 5<br/>value = [0, 0, 5, 0, 0, 0, 0, 0, 0, 0, 0, 0, 0, 0<br/>0, 0, 0, 0, 0, 0, 0]<br/>class = Reconnaissance>, fillcolor="#e5e239"] ;
475 -> 476 ;
477 [label=<FLOW_DURATION_MILLISECONDS &le; -1.207<br/>gini = 0.825<br/>samples = 78<br/>value = [0, 0, 2, 0, 0, 5, 9, 0, 0, 0, 1, 0, 0, 0<br/>0, 15, 11, 4, 0, 8, 23]<br/>class = Theft>, fillcolor="#fce8e6"] ;
475 -> 477 ;
478 [label=<FLOW_DURATION_MILLISECONDS &le; -1.207<br/>gini = 0.811<br/>samples = 70<br/>value = [0, 0, 2, 0, 0, 5, 9, 0, 0, 0, 1, 0, 0, 0<br/>0, 14, 5, 4, 0, 7, 23]<br/>class = Theft>, fillcolor="#fbe2df"] ;
477 -> 478 ;
479 [label=<L4_SRC_PORT &le; 38130.0<br/>gini = 0.84<br/>samples = 50<br/>value = [0, 0, 2, 0, 0, 4, 9, 0, 0, 0, 1, 0, 0, 0<br/>0, 10, 3, 3, 0, 6, 12]<br/>class = Theft>, fillcolor="#fef6f5"] ;
478 -> 479 ;
480 [label=<FLOW_DURATION_MILLISECONDS &le; -1.207<br/>gini = 0.568<br/>samples = 9<br/>value = [0, 0, 0, 0, 0, 0, 0, 0, 0, 0, 0, 0, 0, 0<br/>0, 0, 0, 3, 0, 1, 5]<br/>class = Theft>, fillcolor="#f6c4bd"] ;
479 -> 480 ;
481 [label=<IN_BYTES &le; -0.026<br/>gini = 0.469<br/>samples = 8<br/>value = [0, 0, 0, 0, 0, 0, 0, 0, 0, 0, 0, 0, 0, 0<br/>0, 0, 0, 3, 0, 0, 5]<br/>class = Theft>, fillcolor="#f5b8b0"] ;
480 -> 481 ;
482 [label=<L4_SRC_PORT &le; 35868.0<br/>gini = 0.48<br/>samples = 5<br/>value = [0, 0, 0, 0, 0, 0, 0, 0, 0, 0, 0, 0, 0, 0<br/>0, 0, 0, 3, 0, 0, 2]<br/>class = Infilteration>, fillcolor="#f6bde7"] ;
481 -> 482 ;
483 [label=<gini = 0.0<br/>samples = 2<br/>value = [0, 0, 0, 0, 0, 0, 0, 0, 0, 0, 0, 0, 0, 0<br/>0, 0, 0, 2, 0, 0, 0]<br/>class = Infilteration>, fillcolor="#e539b7"] ;
482 -> 483 ;
484 [label=<OUT_BYTES &le; -0.037<br/>gini = 0.444<br/>samples = 3<br/>value = [0, 0, 0, 0, 0, 0, 0, 0, 0, 0, 0, 0, 0, 0<br/>0, 0, 0, 1, 0, 0, 2]<br/>class = Theft>, fillcolor="#f2a69c"] ;
482 -> 484 ;
485 [label=<gini = 0.0<br/>samples = 1<br/>value = [0, 0, 0, 0, 0, 0, 0, 0, 0, 0, 0, 0, 0, 0<br/>0, 0, 0, 0, 0, 0, 1]<br/>class = Theft>, fillcolor="#e54d39"] ;
484 -> 485 ;
486 [label=<L4_SRC_PORT &le; 36091.0<br/>gini = 0.5<br/>samples = 2<br/>value = [0, 0, 0, 0, 0, 0, 0, 0, 0, 0, 0, 0, 0, 0<br/>0, 0, 0, 1, 0, 0, 1]<br/>class = Infilteration>, fillcolor="#ffffff"] ;
484 -> 486 ;
487 [label=<gini = 0.0<br/>samples = 1<br/>value = [0, 0, 0, 0, 0, 0, 0, 0, 0, 0, 0, 0, 0, 0<br/>0, 0, 0, 0, 0, 0, 1]<br/>class = Theft>, fillcolor="#e54d39"] ;
486 -> 487 ;
488 [label=<gini = 0.0<br/>samples = 1<br/>value = [0, 0, 0, 0, 0, 0, 0, 0, 0, 0, 0, 0, 0, 0<br/>0, 0, 0, 1, 0, 0, 0]<br/>class = Infilteration>, fillcolor="#e539b7"] ;
486 -> 488 ;
489 [label=<gini = 0.0<br/>samples = 3<br/>value = [0, 0, 0, 0, 0, 0, 0, 0, 0, 0, 0, 0, 0, 0<br/>0, 0, 0, 0, 0, 0, 3]<br/>class = Theft>, fillcolor="#e54d39"] ;
481 -> 489 ;
490 [label=<gini = 0.0<br/>samples = 1<br/>value = [0, 0, 0, 0, 0, 0, 0, 0, 0, 0, 0, 0, 0, 0<br/>0, 0, 0, 0, 0, 1, 0]<br/>class = Brute Force>, fillcolor="#e53956"] ;
480 -> 490 ;
491 [label=<OUT_PKTS &le; -0.025<br/>gini = 0.83<br/>samples = 41<br/>value = [0, 0, 2, 0, 0, 4, 9, 0, 0, 0, 1, 0, 0, 0<br/>0, 10, 3, 0, 0, 5, 7]<br/>class = xss>, fillcolor="#fdf9fe"] ;
479 -> 491 ;
492 [label=<gini = 0.0<br/>samples = 2<br/>value = [0, 0, 0, 0, 0, 2, 0, 0, 0, 0, 0, 0, 0, 0<br/>0, 0, 0, 0, 0, 0, 0]<br/>class = Shellcode>, fillcolor="#56e539"] ;
491 -> 492 ;
493 [label=<OUT_BYTES &le; -0.036<br/>gini = 0.821<br/>samples = 39<br/>value = [0, 0, 2, 0, 0, 2, 9, 0, 0, 0, 1, 0, 0, 0<br/>0, 10, 3, 0, 0, 5, 7]<br/>class = xss>, fillcolor="#fcf8fe"] ;
491 -> 493 ;
494 [label=<L4_SRC_PORT &le; 47615.0<br/>gini = 0.62<br/>samples = 10<br/>value = [0, 0, 0, 0, 0, 0, 0, 0, 0, 0, 0, 0, 0, 0<br/>0, 5, 0, 0, 0, 2, 3]<br/>class = xss>, fillcolor="#e9c6f8"] ;
493 -> 494 ;
495 [label=<L4_SRC_PORT &le; 39191.0<br/>gini = 0.444<br/>samples = 3<br/>value = [0, 0, 0, 0, 0, 0, 0, 0, 0, 0, 0, 0, 0, 0<br/>0, 1, 0, 0, 0, 2, 0]<br/>class = Brute Force>, fillcolor="#f29caa"] ;
494 -> 495 ;
496 [label=<gini = 0.0<br/>samples = 1<br/>value = [0, 0, 0, 0, 0, 0, 0, 0, 0, 0, 0, 0, 0, 0<br/>0, 1, 0, 0, 0, 0, 0]<br/>class = xss>, fillcolor="#b139e5"] ;
495 -> 496 ;
497 [label=<gini = 0.0<br/>samples = 2<br/>value = [0, 0, 0, 0, 0, 0, 0, 0, 0, 0, 0, 0, 0, 0<br/>0, 0, 0, 0, 0, 2, 0]<br/>class = Brute Force>, fillcolor="#e53956"] ;
495 -> 497 ;
498 [label=<L4_SRC_PORT &le; 50410.5<br/>gini = 0.49<br/>samples = 7<br/>value = [0, 0, 0, 0, 0, 0, 0, 0, 0, 0, 0, 0, 0, 0<br/>0, 4, 0, 0, 0, 0, 3]<br/>class = xss>, fillcolor="#eccef8"] ;
494 -> 498 ;
499 [label=<gini = 0.0<br/>samples = 1<br/>value = [0, 0, 0, 0, 0, 0, 0, 0, 0, 0, 0, 0, 0, 0<br/>0, 0, 0, 0, 0, 0, 1]<br/>class = Theft>, fillcolor="#e54d39"] ;
498 -> 499 ;
500 [label=<OUT_BYTES &le; -0.036<br/>gini = 0.444<br/>samples = 6<br/>value = [0, 0, 0, 0, 0, 0, 0, 0, 0, 0, 0, 0, 0, 0<br/>0, 4, 0, 0, 0, 0, 2]<br/>class = xss>, fillcolor="#d89cf2"] ;
498 -> 500 ;
501 [label=<gini = 0.0<br/>samples = 2<br/>value = [0, 0, 0, 0, 0, 0, 0, 0, 0, 0, 0, 0, 0, 0<br/>0, 2, 0, 0, 0, 0, 0]<br/>class = xss>, fillcolor="#b139e5"] ;
500 -> 501 ;
502 [label=<L4_SRC_PORT &le; 53375.0<br/>gini = 0.5<br/>samples = 4<br/>value = [0, 0, 0, 0, 0, 0, 0, 0, 0, 0, 0, 0, 0, 0<br/>0, 2, 0, 0, 0, 0, 2]<br/>class = xss>, fillcolor="#ffffff"] ;
500 -> 502 ;
503 [label=<gini = 0.0<br/>samples = 1<br/>value = [0, 0, 0, 0, 0, 0, 0, 0, 0, 0, 0, 0, 0, 0<br/>0, 0, 0, 0, 0, 0, 1]<br/>class = Theft>, fillcolor="#e54d39"] ;
502 -> 503 ;
504 [label=<L4_SRC_PORT &le; 56553.0<br/>gini = 0.444<br/>samples = 3<br/>value = [0, 0, 0, 0, 0, 0, 0, 0, 0, 0, 0, 0, 0, 0<br/>0, 2, 0, 0, 0, 0, 1]<br/>class = xss>, fillcolor="#d89cf2"] ;
502 -> 504 ;
505 [label=<gini = 0.0<br/>samples = 1<br/>value = [0, 0, 0, 0, 0, 0, 0, 0, 0, 0, 0, 0, 0, 0<br/>0, 1, 0, 0, 0, 0, 0]<br/>class = xss>, fillcolor="#b139e5"] ;
504 -> 505 ;
506 [label=<L4_SRC_PORT &le; 58791.5<br/>gini = 0.5<br/>samples = 2<br/>value = [0, 0, 0, 0, 0, 0, 0, 0, 0, 0, 0, 0, 0, 0<br/>0, 1, 0, 0, 0, 0, 1]<br/>class = xss>, fillcolor="#ffffff"] ;
504 -> 506 ;
507 [label=<gini = 0.0<br/>samples = 1<br/>value = [0, 0, 0, 0, 0, 0, 0, 0, 0, 0, 0, 0, 0, 0<br/>0, 0, 0, 0, 0, 0, 1]<br/>class = Theft>, fillcolor="#e54d39"] ;
506 -> 507 ;
508 [label=<gini = 0.0<br/>samples = 1<br/>value = [0, 0, 0, 0, 0, 0, 0, 0, 0, 0, 0, 0, 0, 0<br/>0, 1, 0, 0, 0, 0, 0]<br/>class = xss>, fillcolor="#b139e5"] ;
506 -> 508 ;
509 [label=<OUT_BYTES &le; -0.036<br/>gini = 0.823<br/>samples = 29<br/>value = [0, 0, 2, 0, 0, 2, 9, 0, 0, 0, 1, 0, 0, 0<br/>0, 5, 3, 0, 0, 3, 4]<br/>class = Backdoor>, fillcolor="#defbe1"] ;
493 -> 509 ;
510 [label=<gini = 0.0<br/>samples = 2<br/>value = [0, 0, 0, 0, 0, 0, 0, 0, 0, 0, 0, 0, 0, 0<br/>0, 0, 2, 0, 0, 0, 0]<br/>class = ransomware>, fillcolor="#e239e5"] ;
509 -> 510 ;
511 [label=<OUT_BYTES &le; -0.036<br/>gini = 0.807<br/>samples = 27<br/>value = [0, 0, 2, 0, 0, 2, 9, 0, 0, 0, 1, 0, 0, 0<br/>0, 5, 1, 0, 0, 3, 4]<br/>class = Backdoor>, fillcolor="#dbfadf"] ;
509 -> 511 ;
512 [label=<L4_SRC_PORT &le; 56422.0<br/>gini = 0.744<br/>samples = 22<br/>value = [0, 0, 0, 0, 0, 2, 9, 0, 0, 0, 0, 0, 0, 0<br/>0, 5, 1, 0, 0, 2, 3]<br/>class = Backdoor>, fillcolor="#d0f9d5"] ;
511 -> 512 ;
513 [label=<L4_SRC_PORT &le; 51197.0<br/>gini = 0.693<br/>samples = 19<br/>value = [0, 0, 0, 0, 0, 1, 9, 0, 0, 0, 0, 0, 0, 0<br/>0, 4, 0, 0, 0, 2, 3]<br/>class = Backdoor>, fillcolor="#bdf6c4"] ;
512 -> 513 ;
