digraph Tree {
node [shape=box, style="filled, rounded", color="black", fontname="helvetica"] ;
edge [fontname="helvetica"] ;
0 [label=<L7_PROTO &le; 131.35<br/>gini = 0.952<br/>samples = 10804<br/>value = [541, 508, 526, 496, 531, 512, 484, 515, 502, 505<br/>481, 518, 528, 491, 498, 525, 550, 533, 546, 492<br/>522]<br/>class = ransomware>, fillcolor="#ffffff"] ;
1 [label=<FLOW_DURATION_MILLISECONDS &le; -0.946<br/>gini = 0.95<br/>samples = 10239<br/>value = [541, 508, 525, 5, 531, 512, 484, 490, 502, 498<br/>481, 509, 528, 491, 469, 525, 547, 533, 546, 492<br/>522]<br/>class = ransomware>, fillcolor="#ffffff"] ;
0 -> 1 [labeldistance=2.5, labelangle=45, headlabel="True"] ;
2 [label=<L4_DST_PORT &le; 22.5<br/>gini = 0.941<br/>samples = 8363<br/>value = [541, 508, 146, 0, 530, 453, 416, 490, 502, 497, 35<br/>83, 528, 0, 469, 525, 547, 533, 546, 492, 522]<br/>class = ransomware>, fillcolor="#ffffff"] ;
1 -> 2 ;
3 [label=<L4_SRC_PORT &le; 31885.0<br/>gini = 0.574<br/>samples = 913<br/>value = [267, 2, 5, 0, 530, 0, 26, 30, 21, 32, 0, 0, 0<br/>0, 0, 0, 0, 0, 0, 0, 0]<br/>class = Generic>, fillcolor="#cef4ae"] ;
2 -> 3 ;
4 [label=<TCP_FLAGS &le; 9.5<br/>gini = 0.306<br/>samples = 323<br/>value = [267, 2, 0, 0, 0, 0, 1, 19, 8, 26, 0, 0, 0, 0<br/>0, 0, 0, 0, 0, 0, 0]<br/>class = Benign>, fillcolor="#ea995e"] ;
3 -> 4 ;
5 [label=<IN_PKTS &le; -0.015<br/>gini = 0.19<br/>samples = 298<br/>value = [267, 1, 0, 0, 0, 0, 1, 2, 1, 26, 0, 0, 0, 0<br/>0, 0, 0, 0, 0, 0, 0]<br/>class = Benign>, fillcolor="#e88f50"] ;
4 -> 5 ;
6 [label=<PROTOCOL &le; 187.0<br/>gini = 0.081<br/>samples = 236<br/>value = [226, 0, 0, 0, 0, 0, 0, 0, 0, 10, 0, 0, 0, 0<br/>0, 0, 0, 0, 0, 0, 0]<br/>class = Benign>, fillcolor="#e68742"] ;
5 -> 6 ;
7 [label=<IN_PKTS &le; -0.018<br/>gini = 0.051<br/>samples = 192<br/>value = [187, 0, 0, 0, 0, 0, 0, 0, 0, 5, 0, 0, 0, 0<br/>0, 0, 0, 0, 0, 0, 0]<br/>class = Benign>, fillcolor="#e6843e"] ;
6 -> 7 ;
8 [label=<PROTOCOL &le; 111.5<br/>gini = 0.042<br/>samples = 186<br/>value = [182, 0, 0, 0, 0, 0, 0, 0, 0, 4, 0, 0, 0, 0<br/>0, 0, 0, 0, 0, 0, 0]<br/>class = Benign>, fillcolor="#e6843d"] ;
7 -> 8 ;
9 [label=<PROTOCOL &le; 109.0<br/>gini = 0.067<br/>samples = 115<br/>value = [111, 0, 0, 0, 0, 0, 0, 0, 0, 4, 0, 0, 0, 0<br/>0, 0, 0, 0, 0, 0, 0]<br/>class = Benign>, fillcolor="#e68640"] ;
8 -> 9 ;
10 [label=<PROTOCOL &le; 35.5<br/>gini = 0.035<br/>samples = 113<br/>value = [111, 0, 0, 0, 0, 0, 0, 0, 0, 2, 0, 0, 0, 0<br/>0, 0, 0, 0, 0, 0, 0]<br/>class = Benign>, fillcolor="#e5833d"] ;
9 -> 10 ;
11 [label=<PROTOCOL &le; 34.0<br/>gini = 0.065<br/>samples = 59<br/>value = [57, 0, 0, 0, 0, 0, 0, 0, 0, 2, 0, 0, 0, 0<br/>0, 0, 0, 0, 0, 0, 0]<br/>class = Benign>, fillcolor="#e68540"] ;
10 -> 11 ;
12 [label=<PROTOCOL &le; 24.5<br/>gini = 0.034<br/>samples = 58<br/>value = [57, 0, 0, 0, 0, 0, 0, 0, 0, 1, 0, 0, 0, 0<br/>0, 0, 0, 0, 0, 0, 0]<br/>class = Benign>, fillcolor="#e5833c"] ;
11 -> 12 ;
13 [label=<gini = 0.0<br/>samples = 50<br/>value = [50, 0, 0, 0, 0, 0, 0, 0, 0, 0, 0, 0, 0, 0<br/>0, 0, 0, 0, 0, 0, 0]<br/>class = Benign>, fillcolor="#e58139"] ;
12 -> 13 ;
14 [label=<PROTOCOL &le; 26.0<br/>gini = 0.219<br/>samples = 8<br/>value = [7, 0, 0, 0, 0, 0, 0, 0, 0, 1, 0, 0, 0, 0<br/>0, 0, 0, 0, 0, 0, 0]<br/>class = Benign>, fillcolor="#e99355"] ;
12 -> 14 ;
15 [label=<gini = 0.0<br/>samples = 1<br/>value = [0, 0, 0, 0, 0, 0, 0, 0, 0, 1, 0, 0, 0, 0<br/>0, 0, 0, 0, 0, 0, 0]<br/>class = Analysis>, fillcolor="#39e5e2"] ;
14 -> 15 ;
16 [label=<gini = 0.0<br/>samples = 7<br/>value = [7, 0, 0, 0, 0, 0, 0, 0, 0, 0, 0, 0, 0, 0<br/>0, 0, 0, 0, 0, 0, 0]<br/>class = Benign>, fillcolor="#e58139"] ;
14 -> 16 ;
17 [label=<gini = 0.0<br/>samples = 1<br/>value = [0, 0, 0, 0, 0, 0, 0, 0, 0, 1, 0, 0, 0, 0<br/>0, 0, 0, 0, 0, 0, 0]<br/>class = Analysis>, fillcolor="#39e5e2"] ;
11 -> 17 ;
18 [label=<gini = 0.0<br/>samples = 54<br/>value = [54, 0, 0, 0, 0, 0, 0, 0, 0, 0, 0, 0, 0, 0<br/>0, 0, 0, 0, 0, 0, 0]<br/>class = Benign>, fillcolor="#e58139"] ;
10 -> 18 ;
19 [label=<gini = 0.0<br/>samples = 2<br/>value = [0, 0, 0, 0, 0, 0, 0, 0, 0, 2, 0, 0, 0, 0<br/>0, 0, 0, 0, 0, 0, 0]<br/>class = Analysis>, fillcolor="#39e5e2"] ;
9 -> 19 ;
20 [label=<gini = 0.0<br/>samples = 71<br/>value = [71, 0, 0, 0, 0, 0, 0, 0, 0, 0, 0, 0, 0, 0<br/>0, 0, 0, 0, 0, 0, 0]<br/>class = Benign>, fillcolor="#e58139"] ;
8 -> 20 ;
21 [label=<FLOW_DURATION_MILLISECONDS &le; -1.206<br/>gini = 0.278<br/>samples = 6<br/>value = [5, 0, 0, 0, 0, 0, 0, 0, 0, 1, 0, 0, 0, 0<br/>0, 0, 0, 0, 0, 0, 0]<br/>class = Benign>, fillcolor="#ea9a61"] ;
7 -> 21 ;
22 [label=<gini = 0.0<br/>samples = 3<br/>value = [3, 0, 0, 0, 0, 0, 0, 0, 0, 0, 0, 0, 0, 0<br/>0, 0, 0, 0, 0, 0, 0]<br/>class = Benign>, fillcolor="#e58139"] ;
21 -> 22 ;
23 [label=<IN_PKTS &le; -0.017<br/>gini = 0.444<br/>samples = 3<br/>value = [2, 0, 0, 0, 0, 0, 0, 0, 0, 1, 0, 0, 0, 0<br/>0, 0, 0, 0, 0, 0, 0]<br/>class = Benign>, fillcolor="#f2c09c"] ;
21 -> 23 ;
24 [label=<gini = 0.0<br/>samples = 1<br/>value = [0, 0, 0, 0, 0, 0, 0, 0, 0, 1, 0, 0, 0, 0<br/>0, 0, 0, 0, 0, 0, 0]<br/>class = Analysis>, fillcolor="#39e5e2"] ;
23 -> 24 ;
25 [label=<gini = 0.0<br/>samples = 2<br/>value = [2, 0, 0, 0, 0, 0, 0, 0, 0, 0, 0, 0, 0, 0<br/>0, 0, 0, 0, 0, 0, 0]<br/>class = Benign>, fillcolor="#e58139"] ;
23 -> 25 ;
26 [label=<PROTOCOL &le; 190.0<br/>gini = 0.201<br/>samples = 44<br/>value = [39, 0, 0, 0, 0, 0, 0, 0, 0, 5, 0, 0, 0, 0<br/>0, 0, 0, 0, 0, 0, 0]<br/>class = Benign>, fillcolor="#e89152"] ;
6 -> 26 ;
27 [label=<gini = 0.0<br/>samples = 2<br/>value = [0, 0, 0, 0, 0, 0, 0, 0, 0, 2, 0, 0, 0, 0<br/>0, 0, 0, 0, 0, 0, 0]<br/>class = Analysis>, fillcolor="#39e5e2"] ;
26 -> 27 ;
28 [label=<PROTOCOL &le; 221.5<br/>gini = 0.133<br/>samples = 42<br/>value = [39, 0, 0, 0, 0, 0, 0, 0, 0, 3, 0, 0, 0, 0<br/>0, 0, 0, 0, 0, 0, 0]<br/>class = Benign>, fillcolor="#e78b48"] ;
26 -> 28 ;
29 [label=<gini = 0.0<br/>samples = 22<br/>value = [22, 0, 0, 0, 0, 0, 0, 0, 0, 0, 0, 0, 0, 0<br/>0, 0, 0, 0, 0, 0, 0]<br/>class = Benign>, fillcolor="#e58139"] ;
28 -> 29 ;
30 [label=<PROTOCOL &le; 223.5<br/>gini = 0.255<br/>samples = 20<br/>value = [17, 0, 0, 0, 0, 0, 0, 0, 0, 3, 0, 0, 0, 0<br/>0, 0, 0, 0, 0, 0, 0]<br/>class = Benign>, fillcolor="#ea975c"] ;
28 -> 30 ;
31 [label=<gini = 0.0<br/>samples = 1<br/>value = [0, 0, 0, 0, 0, 0, 0, 0, 0, 1, 0, 0, 0, 0<br/>0, 0, 0, 0, 0, 0, 0]<br/>class = Analysis>, fillcolor="#39e5e2"] ;
30 -> 31 ;
32 [label=<PROTOCOL &le; 238.0<br/>gini = 0.188<br/>samples = 19<br/>value = [17, 0, 0, 0, 0, 0, 0, 0, 0, 2, 0, 0, 0, 0<br/>0, 0, 0, 0, 0, 0, 0]<br/>class = Benign>, fillcolor="#e89050"] ;
30 -> 32 ;
33 [label=<PROTOCOL &le; 236.5<br/>gini = 0.32<br/>samples = 10<br/>value = [8, 0, 0, 0, 0, 0, 0, 0, 0, 2, 0, 0, 0, 0<br/>0, 0, 0, 0, 0, 0, 0]<br/>class = Benign>, fillcolor="#eca06a"] ;
32 -> 33 ;
34 [label=<gini = 0.0<br/>samples = 8<br/>value = [8, 0, 0, 0, 0, 0, 0, 0, 0, 0, 0, 0, 0, 0<br/>0, 0, 0, 0, 0, 0, 0]<br/>class = Benign>, fillcolor="#e58139"] ;
33 -> 34 ;
35 [label=<gini = 0.0<br/>samples = 2<br/>value = [0, 0, 0, 0, 0, 0, 0, 0, 0, 2, 0, 0, 0, 0<br/>0, 0, 0, 0, 0, 0, 0]<br/>class = Analysis>, fillcolor="#39e5e2"] ;
33 -> 35 ;
36 [label=<gini = 0.0<br/>samples = 9<br/>value = [9, 0, 0, 0, 0, 0, 0, 0, 0, 0, 0, 0, 0, 0<br/>0, 0, 0, 0, 0, 0, 0]<br/>class = Benign>, fillcolor="#e58139"] ;
32 -> 36 ;
37 [label=<IN_BYTES &le; -0.016<br/>gini = 0.494<br/>samples = 62<br/>value = [41, 1, 0, 0, 0, 0, 1, 2, 1, 16, 0, 0, 0, 0<br/>0, 0, 0, 0, 0, 0, 0]<br/>class = Benign>, fillcolor="#f1bb93"] ;
5 -> 37 ;
38 [label=<IN_BYTES &le; -0.021<br/>gini = 0.7<br/>samples = 20<br/>value = [8, 1, 0, 0, 0, 0, 1, 2, 1, 7, 0, 0, 0, 0<br/>0, 0, 0, 0, 0, 0, 0]<br/>class = Benign>, fillcolor="#fdf5f0"] ;
37 -> 38 ;
39 [label=<gini = 0.0<br/>samples = 6<br/>value = [6, 0, 0, 0, 0, 0, 0, 0, 0, 0, 0, 0, 0, 0<br/>0, 0, 0, 0, 0, 0, 0]<br/>class = Benign>, fillcolor="#e58139"] ;
38 -> 39 ;
40 [label=<FLOW_DURATION_MILLISECONDS &le; -1.206<br/>gini = 0.694<br/>samples = 14<br/>value = [2, 1, 0, 0, 0, 0, 1, 2, 1, 7, 0, 0, 0, 0<br/>0, 0, 0, 0, 0, 0, 0]<br/>class = Analysis>, fillcolor="#acf4f3"] ;
38 -> 40 ;
41 [label=<gini = 0.0<br/>samples = 1<br/>value = [0, 1, 0, 0, 0, 0, 0, 0, 0, 0, 0, 0, 0, 0<br/>0, 0, 0, 0, 0, 0, 0]<br/>class = Exploits>, fillcolor="#e5b139"] ;
40 -> 41 ;
42 [label=<FLOW_DURATION_MILLISECONDS &le; -1.206<br/>gini = 0.651<br/>samples = 13<br/>value = [2, 0, 0, 0, 0, 0, 1, 2, 1, 7, 0, 0, 0, 0<br/>0, 0, 0, 0, 0, 0, 0]<br/>class = Analysis>, fillcolor="#a5f3f2"] ;
40 -> 42 ;
43 [label=<gini = 0.0<br/>samples = 4<br/>value = [0, 0, 0, 0, 0, 0, 0, 0, 0, 4, 0, 0, 0, 0<br/>0, 0, 0, 0, 0, 0, 0]<br/>class = Analysis>, fillcolor="#39e5e2"] ;
42 -> 43 ;
44 [label=<FLOW_DURATION_MILLISECONDS &le; -1.194<br/>gini = 0.765<br/>samples = 9<br/>value = [2, 0, 0, 0, 0, 0, 1, 2, 1, 3, 0, 0, 0, 0<br/>0, 0, 0, 0, 0, 0, 0]<br/>class = Analysis>, fillcolor="#e3fbfb"] ;
42 -> 44 ;
45 [label=<IN_BYTES &le; -0.019<br/>gini = 0.444<br/>samples = 3<br/>value = [2, 0, 0, 0, 0, 0, 0, 0, 1, 0, 0, 0, 0, 0<br/>0, 0, 0, 0, 0, 0, 0]<br/>class = Benign>, fillcolor="#f2c09c"] ;
44 -> 45 ;
46 [label=<FLOW_DURATION_MILLISECONDS &le; -1.198<br/>gini = 0.5<br/>samples = 2<br/>value = [1, 0, 0, 0, 0, 0, 0, 0, 1, 0, 0, 0, 0, 0<br/>0, 0, 0, 0, 0, 0, 0]<br/>class = Benign>, fillcolor="#ffffff"] ;
45 -> 46 ;
47 [label=<gini = 0.0<br/>samples = 1<br/>value = [0, 0, 0, 0, 0, 0, 0, 0, 1, 0, 0, 0, 0, 0<br/>0, 0, 0, 0, 0, 0, 0]<br/>class = Worms>, fillcolor="#39e5b1"] ;
46 -> 47 ;
48 [label=<gini = 0.0<br/>samples = 1<br/>value = [1, 0, 0, 0, 0, 0, 0, 0, 0, 0, 0, 0, 0, 0<br/>0, 0, 0, 0, 0, 0, 0]<br/>class = Benign>, fillcolor="#e58139"] ;
46 -> 48 ;
49 [label=<gini = 0.0<br/>samples = 1<br/>value = [1, 0, 0, 0, 0, 0, 0, 0, 0, 0, 0, 0, 0, 0<br/>0, 0, 0, 0, 0, 0, 0]<br/>class = Benign>, fillcolor="#e58139"] ;
45 -> 49 ;
50 [label=<FLOW_DURATION_MILLISECONDS &le; -1.179<br/>gini = 0.611<br/>samples = 6<br/>value = [0, 0, 0, 0, 0, 0, 1, 2, 0, 3, 0, 0, 0, 0<br/>0, 0, 0, 0, 0, 0, 0]<br/>class = Analysis>, fillcolor="#cef8f8"] ;
44 -> 50 ;
51 [label=<FLOW_DURATION_MILLISECONDS &le; -1.189<br/>gini = 0.625<br/>samples = 4<br/>value = [0, 0, 0, 0, 0, 0, 1, 2, 0, 1, 0, 0, 0, 0<br/>0, 0, 0, 0, 0, 0, 0]<br/>class = Fuzzers>, fillcolor="#bdf6d4"] ;
50 -> 51 ;
52 [label=<FLOW_DURATION_MILLISECONDS &le; -1.191<br/>gini = 0.5<br/>samples = 2<br/>value = [0, 0, 0, 0, 0, 0, 1, 0, 0, 1, 0, 0, 0, 0<br/>0, 0, 0, 0, 0, 0, 0]<br/>class = Backdoor>, fillcolor="#ffffff"] ;
51 -> 52 ;
53 [label=<gini = 0.0<br/>samples = 1<br/>value = [0, 0, 0, 0, 0, 0, 0, 0, 0, 1, 0, 0, 0, 0<br/>0, 0, 0, 0, 0, 0, 0]<br/>class = Analysis>, fillcolor="#39e5e2"] ;
52 -> 53 ;
54 [label=<gini = 0.0<br/>samples = 1<br/>value = [0, 0, 0, 0, 0, 0, 1, 0, 0, 0, 0, 0, 0, 0<br/>0, 0, 0, 0, 0, 0, 0]<br/>class = Backdoor>, fillcolor="#39e54d"] ;
52 -> 54 ;
55 [label=<gini = 0.0<br/>samples = 2<br/>value = [0, 0, 0, 0, 0, 0, 0, 2, 0, 0, 0, 0, 0, 0<br/>0, 0, 0, 0, 0, 0, 0]<br/>class = Fuzzers>, fillcolor="#39e57e"] ;
51 -> 55 ;
56 [label=<gini = 0.0<br/>samples = 2<br/>value = [0, 0, 0, 0, 0, 0, 0, 0, 0, 2, 0, 0, 0, 0<br/>0, 0, 0, 0, 0, 0, 0]<br/>class = Analysis>, fillcolor="#39e5e2"] ;
50 -> 56 ;
57 [label=<IN_PKTS &le; 0.03<br/>gini = 0.337<br/>samples = 42<br/>value = [33, 0, 0, 0, 0, 0, 0, 0, 0, 9, 0, 0, 0, 0<br/>0, 0, 0, 0, 0, 0, 0]<br/>class = Benign>, fillcolor="#eca36f"] ;
37 -> 57 ;
58 [label=<IN_BYTES &le; 0.023<br/>gini = 0.266<br/>samples = 38<br/>value = [32, 0, 0, 0, 0, 0, 0, 0, 0, 6, 0, 0, 0, 0<br/>0, 0, 0, 0, 0, 0, 0]<br/>class = Benign>, fillcolor="#ea995e"] ;
57 -> 58 ;
59 [label=<IN_BYTES &le; 0.011<br/>gini = 0.43<br/>samples = 16<br/>value = [11, 0, 0, 0, 0, 0, 0, 0, 0, 5, 0, 0, 0, 0<br/>0, 0, 0, 0, 0, 0, 0]<br/>class = Benign>, fillcolor="#f1ba93"] ;
58 -> 59 ;
60 [label=<FLOW_DURATION_MILLISECONDS &le; -1.206<br/>gini = 0.391<br/>samples = 15<br/>value = [11, 0, 0, 0, 0, 0, 0, 0, 0, 4, 0, 0, 0, 0<br/>0, 0, 0, 0, 0, 0, 0]<br/>class = Benign>, fillcolor="#eeaf81"] ;
59 -> 60 ;
61 [label=<gini = 0.0<br/>samples = 2<br/>value = [2, 0, 0, 0, 0, 0, 0, 0, 0, 0, 0, 0, 0, 0<br/>0, 0, 0, 0, 0, 0, 0]<br/>class = Benign>, fillcolor="#e58139"] ;
60 -> 61 ;
62 [label=<FLOW_DURATION_MILLISECONDS &le; -1.206<br/>gini = 0.426<br/>samples = 13<br/>value = [9, 0, 0, 0, 0, 0, 0, 0, 0, 4, 0, 0, 0, 0<br/>0, 0, 0, 0, 0, 0, 0]<br/>class = Benign>, fillcolor="#f1b991"] ;
60 -> 62 ;
63 [label=<gini = 0.0<br/>samples = 1<br/>value = [0, 0, 0, 0, 0, 0, 0, 0, 0, 1, 0, 0, 0, 0<br/>0, 0, 0, 0, 0, 0, 0]<br/>class = Analysis>, fillcolor="#39e5e2"] ;
62 -> 63 ;
64 [label=<IN_BYTES &le; -0.008<br/>gini = 0.375<br/>samples = 12<br/>value = [9, 0, 0, 0, 0, 0, 0, 0, 0, 3, 0, 0, 0, 0<br/>0, 0, 0, 0, 0, 0, 0]<br/>class = Benign>, fillcolor="#eeab7b"] ;
62 -> 64 ;
65 [label=<IN_BYTES &le; -0.015<br/>gini = 0.245<br/>samples = 7<br/>value = [6, 0, 0, 0, 0, 0, 0, 0, 0, 1, 0, 0, 0, 0<br/>0, 0, 0, 0, 0, 0, 0]<br/>class = Benign>, fillcolor="#e9965a"] ;
64 -> 65 ;
66 [label=<FLOW_DURATION_MILLISECONDS &le; -1.197<br/>gini = 0.444<br/>samples = 3<br/>value = [2, 0, 0, 0, 0, 0, 0, 0, 0, 1, 0, 0, 0, 0<br/>0, 0, 0, 0, 0, 0, 0]<br/>class = Benign>, fillcolor="#f2c09c"] ;
65 -> 66 ;
67 [label=<gini = 0.0<br/>samples = 1<br/>value = [0, 0, 0, 0, 0, 0, 0, 0, 0, 1, 0, 0, 0, 0<br/>0, 0, 0, 0, 0, 0, 0]<br/>class = Analysis>, fillcolor="#39e5e2"] ;
66 -> 67 ;
68 [label=<gini = 0.0<br/>samples = 2<br/>value = [2, 0, 0, 0, 0, 0, 0, 0, 0, 0, 0, 0, 0, 0<br/>0, 0, 0, 0, 0, 0, 0]<br/>class = Benign>, fillcolor="#e58139"] ;
66 -> 68 ;
69 [label=<gini = 0.0<br/>samples = 4<br/>value = [4, 0, 0, 0, 0, 0, 0, 0, 0, 0, 0, 0, 0, 0<br/>0, 0, 0, 0, 0, 0, 0]<br/>class = Benign>, fillcolor="#e58139"] ;
65 -> 69 ;
70 [label=<IN_BYTES &le; 0.002<br/>gini = 0.48<br/>samples = 5<br/>value = [3, 0, 0, 0, 0, 0, 0, 0, 0, 2, 0, 0, 0, 0<br/>0, 0, 0, 0, 0, 0, 0]<br/>class = Benign>, fillcolor="#f6d5bd"] ;
64 -> 70 ;
71 [label=<IN_BYTES &le; -0.002<br/>gini = 0.444<br/>samples = 3<br/>value = [1, 0, 0, 0, 0, 0, 0, 0, 0, 2, 0, 0, 0, 0<br/>0, 0, 0, 0, 0, 0, 0]<br/>class = Analysis>, fillcolor="#9cf2f0"] ;
70 -> 71 ;
72 [label=<gini = 0.0<br/>samples = 1<br/>value = [0, 0, 0, 0, 0, 0, 0, 0, 0, 1, 0, 0, 0, 0<br/>0, 0, 0, 0, 0, 0, 0]<br/>class = Analysis>, fillcolor="#39e5e2"] ;
71 -> 72 ;
73 [label=<FLOW_DURATION_MILLISECONDS &le; -1.203<br/>gini = 0.5<br/>samples = 2<br/>value = [1, 0, 0, 0, 0, 0, 0, 0, 0, 1, 0, 0, 0, 0<br/>0, 0, 0, 0, 0, 0, 0]<br/>class = Benign>, fillcolor="#ffffff"] ;
71 -> 73 ;
74 [label=<gini = 0.0<br/>samples = 1<br/>value = [0, 0, 0, 0, 0, 0, 0, 0, 0, 1, 0, 0, 0, 0<br/>0, 0, 0, 0, 0, 0, 0]<br/>class = Analysis>, fillcolor="#39e5e2"] ;
73 -> 74 ;
75 [label=<gini = 0.0<br/>samples = 1<br/>value = [1, 0, 0, 0, 0, 0, 0, 0, 0, 0, 0, 0, 0, 0<br/>0, 0, 0, 0, 0, 0, 0]<br/>class = Benign>, fillcolor="#e58139"] ;
73 -> 75 ;
76 [label=<gini = 0.0<br/>samples = 2<br/>value = [2, 0, 0, 0, 0, 0, 0, 0, 0, 0, 0, 0, 0, 0<br/>0, 0, 0, 0, 0, 0, 0]<br/>class = Benign>, fillcolor="#e58139"] ;
70 -> 76 ;
77 [label=<gini = 0.0<br/>samples = 1<br/>value = [0, 0, 0, 0, 0, 0, 0, 0, 0, 1, 0, 0, 0, 0<br/>0, 0, 0, 0, 0, 0, 0]<br/>class = Analysis>, fillcolor="#39e5e2"] ;
59 -> 77 ;
78 [label=<IN_BYTES &le; 0.063<br/>gini = 0.087<br/>samples = 22<br/>value = [21, 0, 0, 0, 0, 0, 0, 0, 0, 1, 0, 0, 0, 0<br/>0, 0, 0, 0, 0, 0, 0]<br/>class = Benign>, fillcolor="#e68742"] ;
58 -> 78 ;
79 [label=<gini = 0.0<br/>samples = 15<br/>value = [15, 0, 0, 0, 0, 0, 0, 0, 0, 0, 0, 0, 0, 0<br/>0, 0, 0, 0, 0, 0, 0]<br/>class = Benign>, fillcolor="#e58139"] ;
78 -> 79 ;
80 [label=<FLOW_DURATION_MILLISECONDS &le; -1.189<br/>gini = 0.245<br/>samples = 7<br/>value = [6, 0, 0, 0, 0, 0, 0, 0, 0, 1, 0, 0, 0, 0<br/>0, 0, 0, 0, 0, 0, 0]<br/>class = Benign>, fillcolor="#e9965a"] ;
78 -> 80 ;
81 [label=<gini = 0.0<br/>samples = 1<br/>value = [0, 0, 0, 0, 0, 0, 0, 0, 0, 1, 0, 0, 0, 0<br/>0, 0, 0, 0, 0, 0, 0]<br/>class = Analysis>, fillcolor="#39e5e2"] ;
80 -> 81 ;
82 [label=<gini = 0.0<br/>samples = 6<br/>value = [6, 0, 0, 0, 0, 0, 0, 0, 0, 0, 0, 0, 0, 0<br/>0, 0, 0, 0, 0, 0, 0]<br/>class = Benign>, fillcolor="#e58139"] ;
80 -> 82 ;
83 [label=<FLOW_DURATION_MILLISECONDS &le; -1.168<br/>gini = 0.375<br/>samples = 4<br/>value = [1, 0, 0, 0, 0, 0, 0, 0, 0, 3, 0, 0, 0, 0<br/>0, 0, 0, 0, 0, 0, 0]<br/>class = Analysis>, fillcolor="#7beeec"] ;
57 -> 83 ;
84 [label=<gini = 0.0<br/>samples = 1<br/>value = [1, 0, 0, 0, 0, 0, 0, 0, 0, 0, 0, 0, 0, 0<br/>0, 0, 0, 0, 0, 0, 0]<br/>class = Benign>, fillcolor="#e58139"] ;
83 -> 84 ;
85 [label=<gini = 0.0<br/>samples = 3<br/>value = [0, 0, 0, 0, 0, 0, 0, 0, 0, 3, 0, 0, 0, 0<br/>0, 0, 0, 0, 0, 0, 0]<br/>class = Analysis>, fillcolor="#39e5e2"] ;
83 -> 85 ;
86 [label=<OUT_BYTES &le; -0.034<br/>gini = 0.458<br/>samples = 25<br/>value = [0, 1, 0, 0, 0, 0, 0, 17, 7, 0, 0, 0, 0, 0<br/>0, 0, 0, 0, 0, 0, 0]<br/>class = Fuzzers>, fillcolor="#91f1b7"] ;
4 -> 86 ;
87 [label=<L7_PROTO &le; 1.111<br/>gini = 0.219<br/>samples = 8<br/>value = [0, 1, 0, 0, 0, 0, 0, 0, 7, 0, 0, 0, 0, 0<br/>0, 0, 0, 0, 0, 0, 0]<br/>class = Worms>, fillcolor="#55e9bc"] ;
86 -> 87 ;
88 [label=<gini = 0.0<br/>samples = 7<br/>value = [0, 0, 0, 0, 0, 0, 0, 0, 7, 0, 0, 0, 0, 0<br/>0, 0, 0, 0, 0, 0, 0]<br/>class = Worms>, fillcolor="#39e5b1"] ;
87 -> 88 ;
89 [label=<gini = 0.0<br/>samples = 1<br/>value = [0, 1, 0, 0, 0, 0, 0, 0, 0, 0, 0, 0, 0, 0<br/>0, 0, 0, 0, 0, 0, 0]<br/>class = Exploits>, fillcolor="#e5b139"] ;
87 -> 89 ;
90 [label=<gini = 0.0<br/>samples = 17<br/>value = [0, 0, 0, 0, 0, 0, 0, 17, 0, 0, 0, 0, 0, 0<br/>0, 0, 0, 0, 0, 0, 0]<br/>class = Fuzzers>, fillcolor="#39e57e"] ;
86 -> 90 ;
91 [label=<L7_PROTO &le; 0.5<br/>gini = 0.19<br/>samples = 590<br/>value = [0, 0, 5, 0, 530, 0, 25, 11, 13, 6, 0, 0, 0<br/>0, 0, 0, 0, 0, 0, 0, 0]<br/>class = Generic>, fillcolor="#93e84e"] ;
3 -> 91 ;
92 [label=<IN_BYTES &le; -0.019<br/>gini = 0.083<br/>samples = 554<br/>value = [0, 0, 0, 0, 530, 0, 24, 0, 0, 0, 0, 0, 0, 0<br/>0, 0, 0, 0, 0, 0, 0]<br/>class = Generic>, fillcolor="#8be642"] ;
91 -> 92 ;
93 [label=<L4_SRC_PORT &le; 42422.0<br/>gini = 0.339<br/>samples = 111<br/>value = [0, 0, 0, 0, 87, 0, 24, 0, 0, 0, 0, 0, 0, 0<br/>0, 0, 0, 0, 0, 0, 0]<br/>class = Generic>, fillcolor="#a7ec70"] ;
92 -> 93 ;
94 [label=<L4_SRC_PORT &le; 40636.0<br/>gini = 0.469<br/>samples = 32<br/>value = [0, 0, 0, 0, 20, 0, 12, 0, 0, 0, 0, 0, 0, 0<br/>0, 0, 0, 0, 0, 0, 0]<br/>class = Generic>, fillcolor="#cff5b0"] ;
93 -> 94 ;
95 [label=<L4_SRC_PORT &le; 33792.0<br/>gini = 0.365<br/>samples = 25<br/>value = [0, 0, 0, 0, 19, 0, 6, 0, 0, 0, 0, 0, 0, 0<br/>0, 0, 0, 0, 0, 0, 0]<br/>class = Generic>, fillcolor="#aced78"] ;
94 -> 95 ;
96 [label=<gini = 0.0<br/>samples = 5<br/>value = [0, 0, 0, 0, 5, 0, 0, 0, 0, 0, 0, 0, 0, 0<br/>0, 0, 0, 0, 0, 0, 0]<br/>class = Generic>, fillcolor="#86e539"] ;
95 -> 96 ;
97 [label=<L4_SRC_PORT &le; 36836.0<br/>gini = 0.42<br/>samples = 20<br/>value = [0, 0, 0, 0, 14, 0, 6, 0, 0, 0, 0, 0, 0, 0<br/>0, 0, 0, 0, 0, 0, 0]<br/>class = Generic>, fillcolor="#baf08e"] ;
95 -> 97 ;
98 [label=<L4_SRC_PORT &le; 34483.0<br/>gini = 0.496<br/>samples = 11<br/>value = [0, 0, 0, 0, 6, 0, 5, 0, 0, 0, 0, 0, 0, 0<br/>0, 0, 0, 0, 0, 0, 0]<br/>class = Generic>, fillcolor="#ebfbde"] ;
97 -> 98 ;
99 [label=<L4_SRC_PORT &le; 33957.0<br/>gini = 0.32<br/>samples = 5<br/>value = [0, 0, 0, 0, 4, 0, 1, 0, 0, 0, 0, 0, 0, 0<br/>0, 0, 0, 0, 0, 0, 0]<br/>class = Generic>, fillcolor="#a4ec6a"] ;
98 -> 99 ;
100 [label=<gini = 0.0<br/>samples = 1<br/>value = [0, 0, 0, 0, 0, 0, 1, 0, 0, 0, 0, 0, 0, 0<br/>0, 0, 0, 0, 0, 0, 0]<br/>class = Backdoor>, fillcolor="#39e54d"] ;
99 -> 100 ;
101 [label=<gini = 0.0<br/>samples = 4<br/>value = [0, 0, 0, 0, 4, 0, 0, 0, 0, 0, 0, 0, 0, 0<br/>0, 0, 0, 0, 0, 0, 0]<br/>class = Generic>, fillcolor="#86e539"] ;
99 -> 101 ;
102 [label=<L4_SRC_PORT &le; 35038.0<br/>gini = 0.444<br/>samples = 6<br/>value = [0, 0, 0, 0, 2, 0, 4, 0, 0, 0, 0, 0, 0, 0<br/>0, 0, 0, 0, 0, 0, 0]<br/>class = Backdoor>, fillcolor="#9cf2a6"] ;
98 -> 102 ;
103 [label=<gini = 0.0<br/>samples = 2<br/>value = [0, 0, 0, 0, 0, 0, 2, 0, 0, 0, 0, 0, 0, 0<br/>0, 0, 0, 0, 0, 0, 0]<br/>class = Backdoor>, fillcolor="#39e54d"] ;
102 -> 103 ;
104 [label=<L4_SRC_PORT &le; 35628.0<br/>gini = 0.5<br/>samples = 4<br/>value = [0, 0, 0, 0, 2, 0, 2, 0, 0, 0, 0, 0, 0, 0<br/>0, 0, 0, 0, 0, 0, 0]<br/>class = Generic>, fillcolor="#ffffff"] ;
102 -> 104 ;
105 [label=<gini = 0.0<br/>samples = 1<br/>value = [0, 0, 0, 0, 1, 0, 0, 0, 0, 0, 0, 0, 0, 0<br/>0, 0, 0, 0, 0, 0, 0]<br/>class = Generic>, fillcolor="#86e539"] ;
104 -> 105 ;
106 [label=<L4_SRC_PORT &le; 35859.0<br/>gini = 0.444<br/>samples = 3<br/>value = [0, 0, 0, 0, 1, 0, 2, 0, 0, 0, 0, 0, 0, 0<br/>0, 0, 0, 0, 0, 0, 0]<br/>class = Backdoor>, fillcolor="#9cf2a6"] ;
104 -> 106 ;
107 [label=<gini = 0.0<br/>samples = 1<br/>value = [0, 0, 0, 0, 0, 0, 1, 0, 0, 0, 0, 0, 0, 0<br/>0, 0, 0, 0, 0, 0, 0]<br/>class = Backdoor>, fillcolor="#39e54d"] ;
106 -> 107 ;
108 [label=<L4_SRC_PORT &le; 36361.0<br/>gini = 0.5<br/>samples = 2<br/>value = [0, 0, 0, 0, 1, 0, 1, 0, 0, 0, 0, 0, 0, 0<br/>0, 0, 0, 0, 0, 0, 0]<br/>class = Generic>, fillcolor="#ffffff"] ;
106 -> 108 ;
109 [label=<gini = 0.0<br/>samples = 1<br/>value = [0, 0, 0, 0, 1, 0, 0, 0, 0, 0, 0, 0, 0, 0<br/>0, 0, 0, 0, 0, 0, 0]<br/>class = Generic>, fillcolor="#86e539"] ;
108 -> 109 ;
110 [label=<gini = 0.0<br/>samples = 1<br/>value = [0, 0, 0, 0, 0, 0, 1, 0, 0, 0, 0, 0, 0, 0<br/>0, 0, 0, 0, 0, 0, 0]<br/>class = Backdoor>, fillcolor="#39e54d"] ;
108 -> 110 ;
111 [label=<L4_SRC_PORT &le; 39399.0<br/>gini = 0.198<br/>samples = 9<br/>value = [0, 0, 0, 0, 8, 0, 1, 0, 0, 0, 0, 0, 0, 0<br/>0, 0, 0, 0, 0, 0, 0]<br/>class = Generic>, fillcolor="#95e852"] ;
97 -> 111 ;
112 [label=<gini = 0.0<br/>samples = 5<br/>value = [0, 0, 0, 0, 5, 0, 0, 0, 0, 0, 0, 0, 0, 0<br/>0, 0, 0, 0, 0, 0, 0]<br/>class = Generic>, fillcolor="#86e539"] ;
111 -> 112 ;
113 [label=<L4_SRC_PORT &le; 40230.0<br/>gini = 0.375<br/>samples = 4<br/>value = [0, 0, 0, 0, 3, 0, 1, 0, 0, 0, 0, 0, 0, 0<br/>0, 0, 0, 0, 0, 0, 0]<br/>class = Generic>, fillcolor="#aeee7b"] ;
111 -> 113 ;
114 [label=<gini = 0.0<br/>samples = 1<br/>value = [0, 0, 0, 0, 0, 0, 1, 0, 0, 0, 0, 0, 0, 0<br/>0, 0, 0, 0, 0, 0, 0]<br/>class = Backdoor>, fillcolor="#39e54d"] ;
113 -> 114 ;
115 [label=<gini = 0.0<br/>samples = 3<br/>value = [0, 0, 0, 0, 3, 0, 0, 0, 0, 0, 0, 0, 0, 0<br/>0, 0, 0, 0, 0, 0, 0]<br/>class = Generic>, fillcolor="#86e539"] ;
113 -> 115 ;
116 [label=<L4_SRC_PORT &le; 41601.0<br/>gini = 0.245<br/>samples = 7<br/>value = [0, 0, 0, 0, 1, 0, 6, 0, 0, 0, 0, 0, 0, 0<br/>0, 0, 0, 0, 0, 0, 0]<br/>class = Backdoor>, fillcolor="#5ae96b"] ;
94 -> 116 ;
117 [label=<gini = 0.0<br/>samples = 3<br/>value = [0, 0, 0, 0, 0, 0, 3, 0, 0, 0, 0, 0, 0, 0<br/>0, 0, 0, 0, 0, 0, 0]<br/>class = Backdoor>, fillcolor="#39e54d"] ;
116 -> 117 ;
118 [label=<L4_SRC_PORT &le; 41859.0<br/>gini = 0.375<br/>samples = 4<br/>value = [0, 0, 0, 0, 1, 0, 3, 0, 0, 0, 0, 0, 0, 0<br/>0, 0, 0, 0, 0, 0, 0]<br/>class = Backdoor>, fillcolor="#7bee88"] ;
116 -> 118 ;
119 [label=<gini = 0.0<br/>samples = 1<br/>value = [0, 0, 0, 0, 1, 0, 0, 0, 0, 0, 0, 0, 0, 0<br/>0, 0, 0, 0, 0, 0, 0]<br/>class = Generic>, fillcolor="#86e539"] ;
118 -> 119 ;
120 [label=<gini = 0.0<br/>samples = 3<br/>value = [0, 0, 0, 0, 0, 0, 3, 0, 0, 0, 0, 0, 0, 0<br/>0, 0, 0, 0, 0, 0, 0]<br/>class = Backdoor>, fillcolor="#39e54d"] ;
118 -> 120 ;
121 [label=<L4_SRC_PORT &le; 57317.0<br/>gini = 0.258<br/>samples = 79<br/>value = [0, 0, 0, 0, 67, 0, 12, 0, 0, 0, 0, 0, 0, 0<br/>0, 0, 0, 0, 0, 0, 0]<br/>class = Generic>, fillcolor="#9cea5c"] ;
93 -> 121 ;
122 [label=<L4_SRC_PORT &le; 46438.0<br/>gini = 0.221<br/>samples = 71<br/>value = [0, 0, 0, 0, 62, 0, 9, 0, 0, 0, 0, 0, 0, 0<br/>0, 0, 0, 0, 0, 0, 0]<br/>class = Generic>, fillcolor="#98e956"] ;
121 -> 122 ;
123 [label=<L4_SRC_PORT &le; 45910.0<br/>gini = 0.351<br/>samples = 22<br/>value = [0, 0, 0, 0, 17, 0, 5, 0, 0, 0, 0, 0, 0, 0<br/>0, 0, 0, 0, 0, 0, 0]<br/>class = Generic>, fillcolor="#aaed73"] ;
122 -> 123 ;
124 [label=<L4_SRC_PORT &le; 45179.0<br/>gini = 0.105<br/>samples = 18<br/>value = [0, 0, 0, 0, 17, 0, 1, 0, 0, 0, 0, 0, 0, 0<br/>0, 0, 0, 0, 0, 0, 0]<br/>class = Generic>, fillcolor="#8de745"] ;
123 -> 124 ;
125 [label=<gini = 0.0<br/>samples = 14<br/>value = [0, 0, 0, 0, 14, 0, 0, 0, 0, 0, 0, 0, 0, 0<br/>0, 0, 0, 0, 0, 0, 0]<br/>class = Generic>, fillcolor="#86e539"] ;
124 -> 125 ;
126 [label=<L4_SRC_PORT &le; 45198.0<br/>gini = 0.375<br/>samples = 4<br/>value = [0, 0, 0, 0, 3, 0, 1, 0, 0, 0, 0, 0, 0, 0<br/>0, 0, 0, 0, 0, 0, 0]<br/>class = Generic>, fillcolor="#aeee7b"] ;
124 -> 126 ;
127 [label=<gini = 0.0<br/>samples = 1<br/>value = [0, 0, 0, 0, 0, 0, 1, 0, 0, 0, 0, 0, 0, 0<br/>0, 0, 0, 0, 0, 0, 0]<br/>class = Backdoor>, fillcolor="#39e54d"] ;
126 -> 127 ;
128 [label=<gini = 0.0<br/>samples = 3<br/>value = [0, 0, 0, 0, 3, 0, 0, 0, 0, 0, 0, 0, 0, 0<br/>0, 0, 0, 0, 0, 0, 0]<br/>class = Generic>, fillcolor="#86e539"] ;
126 -> 128 ;
129 [label=<gini = 0.0<br/>samples = 4<br/>value = [0, 0, 0, 0, 0, 0, 4, 0, 0, 0, 0, 0, 0, 0<br/>0, 0, 0, 0, 0, 0, 0]<br/>class = Backdoor>, fillcolor="#39e54d"] ;
123 -> 129 ;
130 [label=<L4_SRC_PORT &le; 54085.0<br/>gini = 0.15<br/>samples = 49<br/>value = [0, 0, 0, 0, 45, 0, 4, 0, 0, 0, 0, 0, 0, 0<br/>0, 0, 0, 0, 0, 0, 0]<br/>class = Generic>, fillcolor="#91e74b"] ;
122 -> 130 ;
131 [label=<L4_SRC_PORT &le; 53595.0<br/>gini = 0.208<br/>samples = 34<br/>value = [0, 0, 0, 0, 30, 0, 4, 0, 0, 0, 0, 0, 0, 0<br/>0, 0, 0, 0, 0, 0, 0]<br/>class = Generic>, fillcolor="#96e853"] ;
130 -> 131 ;
132 [label=<L4_SRC_PORT &le; 51274.0<br/>gini = 0.165<br/>samples = 33<br/>value = [0, 0, 0, 0, 30, 0, 3, 0, 0, 0, 0, 0, 0, 0<br/>0, 0, 0, 0, 0, 0, 0]<br/>class = Generic>, fillcolor="#92e84d"] ;
131 -> 132 ;
133 [label=<L4_SRC_PORT &le; 51027.0<br/>gini = 0.227<br/>samples = 23<br/>value = [0, 0, 0, 0, 20, 0, 3, 0, 0, 0, 0, 0, 0, 0<br/>0, 0, 0, 0, 0, 0, 0]<br/>class = Generic>, fillcolor="#98e957"] ;
132 -> 133 ;
134 [label=<L4_SRC_PORT &le; 48555.0<br/>gini = 0.095<br/>samples = 20<br/>value = [0, 0, 0, 0, 19, 0, 1, 0, 0, 0, 0, 0, 0, 0<br/>0, 0, 0, 0, 0, 0, 0]<br/>class = Generic>, fillcolor="#8ce643"] ;
133 -> 134 ;
135 [label=<L4_SRC_PORT &le; 48421.0<br/>gini = 0.245<br/>samples = 7<br/>value = [0, 0, 0, 0, 6, 0, 1, 0, 0, 0, 0, 0, 0, 0<br/>0, 0, 0, 0, 0, 0, 0]<br/>class = Generic>, fillcolor="#9ae95a"] ;
134 -> 135 ;
136 [label=<gini = 0.0<br/>samples = 6<br/>value = [0, 0, 0, 0, 6, 0, 0, 0, 0, 0, 0, 0, 0, 0<br/>0, 0, 0, 0, 0, 0, 0]<br/>class = Generic>, fillcolor="#86e539"] ;
135 -> 136 ;
137 [label=<gini = 0.0<br/>samples = 1<br/>value = [0, 0, 0, 0, 0, 0, 1, 0, 0, 0, 0, 0, 0, 0<br/>0, 0, 0, 0, 0, 0, 0]<br/>class = Backdoor>, fillcolor="#39e54d"] ;
135 -> 137 ;
138 [label=<gini = 0.0<br/>samples = 13<br/>value = [0, 0, 0, 0, 13, 0, 0, 0, 0, 0, 0, 0, 0, 0<br/>0, 0, 0, 0, 0, 0, 0]<br/>class = Generic>, fillcolor="#86e539"] ;
134 -> 138 ;
139 [label=<L4_SRC_PORT &le; 51093.0<br/>gini = 0.444<br/>samples = 3<br/>value = [0, 0, 0, 0, 1, 0, 2, 0, 0, 0, 0, 0, 0, 0<br/>0, 0, 0, 0, 0, 0, 0]<br/>class = Backdoor>, fillcolor="#9cf2a6"] ;
133 -> 139 ;
140 [label=<gini = 0.0<br/>samples = 1<br/>value = [0, 0, 0, 0, 0, 0, 1, 0, 0, 0, 0, 0, 0, 0<br/>0, 0, 0, 0, 0, 0, 0]<br/>class = Backdoor>, fillcolor="#39e54d"] ;
139 -> 140 ;
141 [label=<L4_SRC_PORT &le; 51165.0<br/>gini = 0.5<br/>samples = 2<br/>value = [0, 0, 0, 0, 1, 0, 1, 0, 0, 0, 0, 0, 0, 0<br/>0, 0, 0, 0, 0, 0, 0]<br/>class = Generic>, fillcolor="#ffffff"] ;
139 -> 141 ;
142 [label=<gini = 0.0<br/>samples = 1<br/>value = [0, 0, 0, 0, 1, 0, 0, 0, 0, 0, 0, 0, 0, 0<br/>0, 0, 0, 0, 0, 0, 0]<br/>class = Generic>, fillcolor="#86e539"] ;
141 -> 142 ;
143 [label=<gini = 0.0<br/>samples = 1<br/>value = [0, 0, 0, 0, 0, 0, 1, 0, 0, 0, 0, 0, 0, 0<br/>0, 0, 0, 0, 0, 0, 0]<br/>class = Backdoor>, fillcolor="#39e54d"] ;
141 -> 143 ;
144 [label=<gini = 0.0<br/>samples = 10<br/>value = [0, 0, 0, 0, 10, 0, 0, 0, 0, 0, 0, 0, 0, 0<br/>0, 0, 0, 0, 0, 0, 0]<br/>class = Generic>, fillcolor="#86e539"] ;
132 -> 144 ;
145 [label=<gini = 0.0<br/>samples = 1<br/>value = [0, 0, 0, 0, 0, 0, 1, 0, 0, 0, 0, 0, 0, 0<br/>0, 0, 0, 0, 0, 0, 0]<br/>class = Backdoor>, fillcolor="#39e54d"] ;
131 -> 145 ;
146 [label=<gini = 0.0<br/>samples = 15<br/>value = [0, 0, 0, 0, 15, 0, 0, 0, 0, 0, 0, 0, 0, 0<br/>0, 0, 0, 0, 0, 0, 0]<br/>class = Generic>, fillcolor="#86e539"] ;
130 -> 146 ;
147 [label=<L4_SRC_PORT &le; 59657.0<br/>gini = 0.469<br/>samples = 8<br/>value = [0, 0, 0, 0, 5, 0, 3, 0, 0, 0, 0, 0, 0, 0<br/>0, 0, 0, 0, 0, 0, 0]<br/>class = Generic>, fillcolor="#cff5b0"] ;
121 -> 147 ;
148 [label=<L4_SRC_PORT &le; 57854.0<br/>gini = 0.375<br/>samples = 4<br/>value = [0, 0, 0, 0, 1, 0, 3, 0, 0, 0, 0, 0, 0, 0<br/>0, 0, 0, 0, 0, 0, 0]<br/>class = Backdoor>, fillcolor="#7bee88"] ;
147 -> 148 ;
149 [label=<L4_SRC_PORT &le; 57441.0<br/>gini = 0.5<br/>samples = 2<br/>value = [0, 0, 0, 0, 1, 0, 1, 0, 0, 0, 0, 0, 0, 0<br/>0, 0, 0, 0, 0, 0, 0]<br/>class = Generic>, fillcolor="#ffffff"] ;
148 -> 149 ;
150 [label=<gini = 0.0<br/>samples = 1<br/>value = [0, 0, 0, 0, 0, 0, 1, 0, 0, 0, 0, 0, 0, 0<br/>0, 0, 0, 0, 0, 0, 0]<br/>class = Backdoor>, fillcolor="#39e54d"] ;
149 -> 150 ;
151 [label=<gini = 0.0<br/>samples = 1<br/>value = [0, 0, 0, 0, 1, 0, 0, 0, 0, 0, 0, 0, 0, 0<br/>0, 0, 0, 0, 0, 0, 0]<br/>class = Generic>, fillcolor="#86e539"] ;
149 -> 151 ;
152 [label=<gini = 0.0<br/>samples = 2<br/>value = [0, 0, 0, 0, 0, 0, 2, 0, 0, 0, 0, 0, 0, 0<br/>0, 0, 0, 0, 0, 0, 0]<br/>class = Backdoor>, fillcolor="#39e54d"] ;
148 -> 152 ;
153 [label=<gini = 0.0<br/>samples = 4<br/>value = [0, 0, 0, 0, 4, 0, 0, 0, 0, 0, 0, 0, 0, 0<br/>0, 0, 0, 0, 0, 0, 0]<br/>class = Generic>, fillcolor="#86e539"] ;
147 -> 153 ;
154 [label=<gini = 0.0<br/>samples = 443<br/>value = [0, 0, 0, 0, 443, 0, 0, 0, 0, 0, 0, 0, 0, 0<br/>0, 0, 0, 0, 0, 0, 0]<br/>class = Generic>, fillcolor="#86e539"] ;
92 -> 154 ;
155 [label=<IN_BYTES &le; -0.022<br/>gini = 0.728<br/>samples = 36<br/>value = [0, 0, 5, 0, 0, 0, 1, 11, 13, 6, 0, 0, 0, 0<br/>0, 0, 0, 0, 0, 0, 0]<br/>class = Worms>, fillcolor="#effdf9"] ;
91 -> 155 ;
156 [label=<OUT_BYTES &le; -0.035<br/>gini = 0.357<br/>samples = 14<br/>value = [0, 0, 2, 0, 0, 0, 0, 1, 11, 0, 0, 0, 0, 0<br/>0, 0, 0, 0, 0, 0, 0]<br/>class = Worms>, fillcolor="#6becc4"] ;
155 -> 156 ;
157 [label=<TCP_FLAGS &le; 10.5<br/>gini = 0.444<br/>samples = 3<br/>value = [0, 0, 2, 0, 0, 0, 0, 1, 0, 0, 0, 0, 0, 0<br/>0, 0, 0, 0, 0, 0, 0]<br/>class = Reconnaissance>, fillcolor="#f2f09c"] ;
156 -> 157 ;
158 [label=<gini = 0.0<br/>samples = 2<br/>value = [0, 0, 2, 0, 0, 0, 0, 0, 0, 0, 0, 0, 0, 0<br/>0, 0, 0, 0, 0, 0, 0]<br/>class = Reconnaissance>, fillcolor="#e5e239"] ;
157 -> 158 ;
159 [label=<gini = 0.0<br/>samples = 1<br/>value = [0, 0, 0, 0, 0, 0, 0, 1, 0, 0, 0, 0, 0, 0<br/>0, 0, 0, 0, 0, 0, 0]<br/>class = Fuzzers>, fillcolor="#39e57e"] ;
157 -> 159 ;
160 [label=<gini = 0.0<br/>samples = 11<br/>value = [0, 0, 0, 0, 0, 0, 0, 0, 11, 0, 0, 0, 0, 0<br/>0, 0, 0, 0, 0, 0, 0]<br/>class = Worms>, fillcolor="#39e5b1"] ;
156 -> 160 ;
161 [label=<FLOW_DURATION_MILLISECONDS &le; -1.206<br/>gini = 0.69<br/>samples = 22<br/>value = [0, 0, 3, 0, 0, 0, 1, 10, 2, 6, 0, 0, 0, 0<br/>0, 0, 0, 0, 0, 0, 0]<br/>class = Fuzzers>, fillcolor="#cef8df"] ;
155 -> 161 ;
162 [label=<FLOW_DURATION_MILLISECONDS &le; -1.206<br/>gini = 0.653<br/>samples = 12<br/>value = [0, 0, 3, 0, 0, 0, 0, 2, 1, 6, 0, 0, 0, 0<br/>0, 0, 0, 0, 0, 0, 0]<br/>class = Analysis>, fillcolor="#bdf6f5"] ;
161 -> 162 ;
163 [label=<L7_PROTO &le; 46.5<br/>gini = 0.48<br/>samples = 5<br/>value = [0, 0, 3, 0, 0, 0, 0, 2, 0, 0, 0, 0, 0, 0<br/>0, 0, 0, 0, 0, 0, 0]<br/>class = Reconnaissance>, fillcolor="#f6f5bd"] ;
162 -> 163 ;
164 [label=<gini = 0.0<br/>samples = 2<br/>value = [0, 0, 0, 0, 0, 0, 0, 2, 0, 0, 0, 0, 0, 0<br/>0, 0, 0, 0, 0, 0, 0]<br/>class = Fuzzers>, fillcolor="#39e57e"] ;
163 -> 164 ;
165 [label=<gini = 0.0<br/>samples = 3<br/>value = [0, 0, 3, 0, 0, 0, 0, 0, 0, 0, 0, 0, 0, 0<br/>0, 0, 0, 0, 0, 0, 0]<br/>class = Reconnaissance>, fillcolor="#e5e239"] ;
163 -> 165 ;
166 [label=<L4_SRC_PORT &le; 64683.5<br/>gini = 0.245<br/>samples = 7<br/>value = [0, 0, 0, 0, 0, 0, 0, 0, 1, 6, 0, 0, 0, 0<br/>0, 0, 0, 0, 0, 0, 0]<br/>class = Analysis>, fillcolor="#5ae9e7"] ;
162 -> 166 ;
167 [label=<gini = 0.0<br/>samples = 6<br/>value = [0, 0, 0, 0, 0, 0, 0, 0, 0, 6, 0, 0, 0, 0<br/>0, 0, 0, 0, 0, 0, 0]<br/>class = Analysis>, fillcolor="#39e5e2"] ;
166 -> 167 ;
168 [label=<gini = 0.0<br/>samples = 1<br/>value = [0, 0, 0, 0, 0, 0, 0, 0, 1, 0, 0, 0, 0, 0<br/>0, 0, 0, 0, 0, 0, 0]<br/>class = Worms>, fillcolor="#39e5b1"] ;
166 -> 168 ;
169 [label=<FLOW_DURATION_MILLISECONDS &le; -1.203<br/>gini = 0.34<br/>samples = 10<br/>value = [0, 0, 0, 0, 0, 0, 1, 8, 1, 0, 0, 0, 0, 0<br/>0, 0, 0, 0, 0, 0, 0]<br/>class = Fuzzers>, fillcolor="#65eb9b"] ;
161 -> 169 ;
170 [label=<OUT_BYTES &le; -0.034<br/>gini = 0.198<br/>samples = 9<br/>value = [0, 0, 0, 0, 0, 0, 0, 8, 1, 0, 0, 0, 0, 0<br/>0, 0, 0, 0, 0, 0, 0]<br/>class = Fuzzers>, fillcolor="#52e88e"] ;
169 -> 170 ;
171 [label=<gini = 0.0<br/>samples = 1<br/>value = [0, 0, 0, 0, 0, 0, 0, 0, 1, 0, 0, 0, 0, 0<br/>0, 0, 0, 0, 0, 0, 0]<br/>class = Worms>, fillcolor="#39e5b1"] ;
170 -> 171 ;
172 [label=<gini = 0.0<br/>samples = 8<br/>value = [0, 0, 0, 0, 0, 0, 0, 8, 0, 0, 0, 0, 0, 0<br/>0, 0, 0, 0, 0, 0, 0]<br/>class = Fuzzers>, fillcolor="#39e57e"] ;
170 -> 172 ;
173 [label=<gini = 0.0<br/>samples = 1<br/>value = [0, 0, 0, 0, 0, 0, 1, 0, 0, 0, 0, 0, 0, 0<br/>0, 0, 0, 0, 0, 0, 0]<br/>class = Backdoor>, fillcolor="#39e54d"] ;
169 -> 173 ;
174 [label=<TCP_FLAGS &le; 30.5<br/>gini = 0.936<br/>samples = 7450<br/>value = [274, 506, 141, 0, 0, 453, 390, 460, 481, 465, 35<br/>83, 528, 0, 469, 525, 547, 533, 546, 492, 522]<br/>class = ransomware>, fillcolor="#ffffff"] ;
2 -> 174 ;
175 [label=<L4_DST_PORT &le; 9610.0<br/>gini = 0.932<br/>samples = 6693<br/>value = [274, 502, 140, 0, 0, 370, 359, 460, 481, 465, 35<br/>53, 528, 0, 469, 478, 507, 533, 25, 492, 522]<br/>class = Infilteration>, fillcolor="#ffffff"] ;
174 -> 175 ;
176 [label=<OUT_PKTS &le; 0.022<br/>gini = 0.927<br/>samples = 6086<br/>value = [274, 496, 75, 0, 0, 370, 359, 430, 481, 450, 35<br/>28, 69, 0, 462, 478, 507, 533, 25, 492, 522]<br/>class = Infilteration>, fillcolor="#ffffff"] ;
175 -> 176 ;
177 [label=<IN_PKTS &le; -0.017<br/>gini = 0.92<br/>samples = 5344<br/>value = [274, 9, 59, 0, 0, 370, 359, 345, 479, 388, 35<br/>28, 69, 0, 392, 478, 491, 533, 21, 492, 522]<br/>class = Infilteration>, fillcolor="#ffffff"] ;
176 -> 177 ;
178 [label=<OUT_BYTES &le; -0.035<br/>gini = 0.878<br/>samples = 3325<br/>value = [0, 8, 44, 0, 0, 364, 131, 6, 142, 82, 35, 19<br/>37, 0, 39, 478, 372, 533, 21, 492, 522]<br/>class = Infilteration>, fillcolor="#fffeff"] ;
177 -> 178 ;
179 [label=<L4_DST_PORT &le; 479.5<br/>gini = 0.882<br/>samples = 1761<br/>value = [0, 8, 41, 0, 0, 278, 124, 6, 142, 77, 35, 19<br/>37, 0, 39, 79, 349, 124, 21, 300, 82]<br/>class = ransomware>, fillcolor="#fef8fe"] ;
178 -> 179 ;
180 [label=<OUT_BYTES &le; -0.037<br/>gini = 0.849<br/>samples = 1494<br/>value = [0, 7, 35, 0, 0, 278, 124, 3, 3, 22, 35, 5, 0<br/>0, 27, 79, 349, 124, 21, 300, 82]<br/>class = ransomware>, fillcolor="#fef7fe"] ;
179 -> 180 ;
181 [label=<L4_DST_PORT &le; 409.0<br/>gini = 0.81<br/>samples = 603<br/>value = [0, 0, 4, 0, 0, 174, 97, 1, 3, 20, 1, 5, 0, 0<br/>27, 27, 7, 89, 4, 140, 4]<br/>class = Shellcode>, fillcolor="#f3fdf0"] ;
180 -> 181 ;
182 [label=<L7_PROTO &le; 2.5<br/>gini = 0.82<br/>samples = 501<br/>value = [0, 0, 3, 0, 0, 79, 97, 1, 3, 20, 0, 5, 0, 0<br/>27, 26, 7, 89, 0, 140, 4]<br/>class = Brute Force>, fillcolor="#fceaed"] ;
181 -> 182 ;
183 [label=<IN_BYTES &le; -0.026<br/>gini = 0.44<br/>samples = 114<br/>value = [0, 0, 3, 0, 0, 32, 79, 0, 0, 0, 0, 0, 0, 0<br/>0, 0, 0, 0, 0, 0, 0]<br/>class = Backdoor>, fillcolor="#8ef099"] ;
182 -> 183 ;
184 [label=<L4_SRC_PORT &le; 49456.5<br/>gini = 0.059<br/>samples = 33<br/>value = [0, 0, 1, 0, 0, 32, 0, 0, 0, 0, 0, 0, 0, 0<br/>0, 0, 0, 0, 0, 0, 0]<br/>class = Shellcode>, fillcolor="#5be63f"] ;
183 -> 184 ;
185 [label=<gini = 0.0<br/>samples = 1<br/>value = [0, 0, 1, 0, 0, 0, 0, 0, 0, 0, 0, 0, 0, 0<br/>0, 0, 0, 0, 0, 0, 0]<br/>class = Reconnaissance>, fillcolor="#e5e239"] ;
184 -> 185 ;
186 [label=<gini = 0.0<br/>samples = 32<br/>value = [0, 0, 0, 0, 0, 32, 0, 0, 0, 0, 0, 0, 0, 0<br/>0, 0, 0, 0, 0, 0, 0]<br/>class = Shellcode>, fillcolor="#56e539"] ;
184 -> 186 ;
187 [label=<L4_DST_PORT &le; 66.5<br/>gini = 0.048<br/>samples = 81<br/>value = [0, 0, 2, 0, 0, 0, 79, 0, 0, 0, 0, 0, 0, 0<br/>0, 0, 0, 0, 0, 0, 0]<br/>class = Backdoor>, fillcolor="#3ee652"] ;
183 -> 187 ;
188 [label=<gini = 0.0<br/>samples = 1<br/>value = [0, 0, 1, 0, 0, 0, 0, 0, 0, 0, 0, 0, 0, 0<br/>0, 0, 0, 0, 0, 0, 0]<br/>class = Reconnaissance>, fillcolor="#e5e239"] ;
187 -> 188 ;
189 [label=<L4_SRC_PORT &le; 54673.0<br/>gini = 0.025<br/>samples = 80<br/>value = [0, 0, 1, 0, 0, 0, 79, 0, 0, 0, 0, 0, 0, 0<br/>0, 0, 0, 0, 0, 0, 0]<br/>class = Backdoor>, fillcolor="#3ce54f"] ;
187 -> 189 ;
190 [label=<gini = 0.0<br/>samples = 70<br/>value = [0, 0, 0, 0, 0, 0, 70, 0, 0, 0, 0, 0, 0, 0<br/>0, 0, 0, 0, 0, 0, 0]<br/>class = Backdoor>, fillcolor="#39e54d"] ;
189 -> 190 ;
191 [label=<L4_SRC_PORT &le; 55027.0<br/>gini = 0.18<br/>samples = 10<br/>value = [0, 0, 1, 0, 0, 0, 9, 0, 0, 0, 0, 0, 0, 0<br/>0, 0, 0, 0, 0, 0, 0]<br/>class = Backdoor>, fillcolor="#4fe861"] ;
189 -> 191 ;
192 [label=<gini = 0.0<br/>samples = 1<br/>value = [0, 0, 1, 0, 0, 0, 0, 0, 0, 0, 0, 0, 0, 0<br/>0, 0, 0, 0, 0, 0, 0]<br/>class = Reconnaissance>, fillcolor="#e5e239"] ;
191 -> 192 ;
193 [label=<gini = 0.0<br/>samples = 9<br/>value = [0, 0, 0, 0, 0, 0, 9, 0, 0, 0, 0, 0, 0, 0<br/>0, 0, 0, 0, 0, 0, 0]<br/>class = Backdoor>, fillcolor="#39e54d"] ;
191 -> 193 ;
194 [label=<L7_PROTO &le; 44.5<br/>gini = 0.787<br/>samples = 387<br/>value = [0, 0, 0, 0, 0, 47, 18, 1, 3, 20, 0, 5, 0, 0<br/>27, 26, 7, 89, 0, 140, 4]<br/>class = Brute Force>, fillcolor="#fbdde2"] ;
182 -> 194 ;
195 [label=<TCP_FLAGS &le; 18.5<br/>gini = 0.729<br/>samples = 337<br/>value = [0, 0, 0, 0, 0, 47, 18, 0, 0, 1, 0, 5, 0, 0<br/>0, 26, 7, 89, 0, 140, 4]<br/>class = Brute Force>, fillcolor="#fad6dc"] ;
194 -> 195 ;
196 [label=<TCP_FLAGS &le; 1.0<br/>gini = 0.681<br/>samples = 292<br/>value = [0, 0, 0, 0, 0, 34, 3, 0, 0, 1, 0, 5, 0, 0<br/>0, 23, 7, 80, 0, 138, 1]<br/>class = Brute Force>, fillcolor="#f8c9d1"] ;
195 -> 196 ;
197 [label=<L7_PROTO &le; 8.0<br/>gini = 0.765<br/>samples = 19<br/>value = [0, 0, 0, 0, 0, 1, 2, 0, 0, 1, 0, 5, 0, 0<br/>0, 1, 7, 0, 0, 2, 0]<br/>class = ransomware>, fillcolor="#fbe3fb"] ;
196 -> 197 ;
198 [label=<L4_SRC_PORT &le; 45266.5<br/>gini = 0.694<br/>samples = 14<br/>value = [0, 0, 0, 0, 0, 1, 2, 0, 0, 1, 0, 0, 0, 0<br/>0, 1, 7, 0, 0, 2, 0]<br/>class = ransomware>, fillcolor="#f3acf4"] ;
197 -> 198 ;
199 [label=<gini = 0.0<br/>samples = 4<br/>value = [0, 0, 0, 0, 0, 0, 0, 0, 0, 0, 0, 0, 0, 0<br/>0, 0, 4, 0, 0, 0, 0]<br/>class = ransomware>, fillcolor="#e239e5"] ;
198 -> 199 ;
200 [label=<L4_SRC_PORT &le; 53260.0<br/>gini = 0.8<br/>samples = 10<br/>value = [0, 0, 0, 0, 0, 1, 2, 0, 0, 1, 0, 0, 0, 0<br/>0, 1, 3, 0, 0, 2, 0]<br/>class = ransomware>, fillcolor="#fbe6fc"] ;
198 -> 200 ;
201 [label=<IN_PKTS &le; -0.02<br/>gini = 0.75<br/>samples = 4<br/>value = [0, 0, 0, 0, 0, 1, 1, 0, 0, 1, 0, 0, 0, 0<br/>0, 1, 0, 0, 0, 0, 0]<br/>class = Shellcode>, fillcolor="#ffffff"] ;
200 -> 201 ;
202 [label=<IN_BYTES &le; -0.026<br/>gini = 0.5<br/>samples = 2<br/>value = [0, 0, 0, 0, 0, 1, 1, 0, 0, 0, 0, 0, 0, 0<br/>0, 0, 0, 0, 0, 0, 0]<br/>class = Shellcode>, fillcolor="#ffffff"] ;
201 -> 202 ;
203 [label=<gini = 0.0<br/>samples = 1<br/>value = [0, 0, 0, 0, 0, 1, 0, 0, 0, 0, 0, 0, 0, 0<br/>0, 0, 0, 0, 0, 0, 0]<br/>class = Shellcode>, fillcolor="#56e539"] ;
202 -> 203 ;
204 [label=<gini = 0.0<br/>samples = 1<br/>value = [0, 0, 0, 0, 0, 0, 1, 0, 0, 0, 0, 0, 0, 0<br/>0, 0, 0, 0, 0, 0, 0]<br/>class = Backdoor>, fillcolor="#39e54d"] ;
202 -> 204 ;
205 [label=<FLOW_DURATION_MILLISECONDS &le; -1.205<br/>gini = 0.5<br/>samples = 2<br/>value = [0, 0, 0, 0, 0, 0, 0, 0, 0, 1, 0, 0, 0, 0<br/>0, 1, 0, 0, 0, 0, 0]<br/>class = Analysis>, fillcolor="#ffffff"] ;
201 -> 205 ;
206 [label=<gini = 0.0<br/>samples = 1<br/>value = [0, 0, 0, 0, 0, 0, 0, 0, 0, 0, 0, 0, 0, 0<br/>0, 1, 0, 0, 0, 0, 0]<br/>class = xss>, fillcolor="#b139e5"] ;
205 -> 206 ;
207 [label=<gini = 0.0<br/>samples = 1<br/>value = [0, 0, 0, 0, 0, 0, 0, 0, 0, 1, 0, 0, 0, 0<br/>0, 0, 0, 0, 0, 0, 0]<br/>class = Analysis>, fillcolor="#39e5e2"] ;
205 -> 207 ;
208 [label=<L4_SRC_PORT &le; 58987.5<br/>gini = 0.611<br/>samples = 6<br/>value = [0, 0, 0, 0, 0, 0, 1, 0, 0, 0, 0, 0, 0, 0<br/>0, 0, 3, 0, 0, 2, 0]<br/>class = ransomware>, fillcolor="#f8cef8"] ;
200 -> 208 ;
209 [label=<IN_BYTES &le; -0.026<br/>gini = 0.48<br/>samples = 5<br/>value = [0, 0, 0, 0, 0, 0, 0, 0, 0, 0, 0, 0, 0, 0<br/>0, 0, 3, 0, 0, 2, 0]<br/>class = ransomware>, fillcolor="#f5bdf6"] ;
208 -> 209 ;
210 [label=<L4_SRC_PORT &le; 56663.5<br/>gini = 0.444<br/>samples = 3<br/>value = [0, 0, 0, 0, 0, 0, 0, 0, 0, 0, 0, 0, 0, 0<br/>0, 0, 1, 0, 0, 2, 0]<br/>class = Brute Force>, fillcolor="#f29caa"] ;
209 -> 210 ;
211 [label=<gini = 0.0<br/>samples = 1<br/>value = [0, 0, 0, 0, 0, 0, 0, 0, 0, 0, 0, 0, 0, 0<br/>0, 0, 0, 0, 0, 1, 0]<br/>class = Brute Force>, fillcolor="#e53956"] ;
210 -> 211 ;
212 [label=<L4_SRC_PORT &le; 57291.5<br/>gini = 0.5<br/>samples = 2<br/>value = [0, 0, 0, 0, 0, 0, 0, 0, 0, 0, 0, 0, 0, 0<br/>0, 0, 1, 0, 0, 1, 0]<br/>class = ransomware>, fillcolor="#ffffff"] ;
210 -> 212 ;
213 [label=<gini = 0.0<br/>samples = 1<br/>value = [0, 0, 0, 0, 0, 0, 0, 0, 0, 0, 0, 0, 0, 0<br/>0, 0, 1, 0, 0, 0, 0]<br/>class = ransomware>, fillcolor="#e239e5"] ;
212 -> 213 ;
214 [label=<gini = 0.0<br/>samples = 1<br/>value = [0, 0, 0, 0, 0, 0, 0, 0, 0, 0, 0, 0, 0, 0<br/>0, 0, 0, 0, 0, 1, 0]<br/>class = Brute Force>, fillcolor="#e53956"] ;
212 -> 214 ;
215 [label=<gini = 0.0<br/>samples = 2<br/>value = [0, 0, 0, 0, 0, 0, 0, 0, 0, 0, 0, 0, 0, 0<br/>0, 0, 2, 0, 0, 0, 0]<br/>class = ransomware>, fillcolor="#e239e5"] ;
209 -> 215 ;
216 [label=<gini = 0.0<br/>samples = 1<br/>value = [0, 0, 0, 0, 0, 0, 1, 0, 0, 0, 0, 0, 0, 0<br/>0, 0, 0, 0, 0, 0, 0]<br/>class = Backdoor>, fillcolor="#39e54d"] ;
208 -> 216 ;
217 [label=<gini = 0.0<br/>samples = 5<br/>value = [0, 0, 0, 0, 0, 0, 0, 0, 0, 0, 0, 5, 0, 0<br/>0, 0, 0, 0, 0, 0, 0]<br/>class = DDoS>, fillcolor="#3986e5"] ;
197 -> 217 ;
218 [label=<L4_SRC_PORT &le; 35303.0<br/>gini = 0.645<br/>samples = 273<br/>value = [0, 0, 0, 0, 0, 33, 1, 0, 0, 0, 0, 0, 0, 0<br/>0, 22, 0, 80, 0, 136, 1]<br/>class = Brute Force>, fillcolor="#f7c6ce"] ;
196 -> 218 ;
219 [label=<FLOW_DURATION_MILLISECONDS &le; -1.207<br/>gini = 0.436<br/>samples = 48<br/>value = [0, 0, 0, 0, 0, 1, 0, 0, 0, 0, 0, 0, 0, 0<br/>0, 3, 0, 8, 0, 35, 1]<br/>class = Brute Force>, fillcolor="#ed798d"] ;
218 -> 219 ;
220 [label=<L4_SRC_PORT &le; 34012.0<br/>gini = 0.222<br/>samples = 33<br/>value = [0, 0, 0, 0, 0, 0, 0, 0, 0, 0, 0, 0, 0, 0<br/>0, 1, 0, 2, 0, 29, 1]<br/>class = Brute Force>, fillcolor="#e8536c"] ;
219 -> 220 ;
221 [label=<L4_SRC_PORT &le; 33984.0<br/>gini = 0.436<br/>samples = 15<br/>value = [0, 0, 0, 0, 0, 0, 0, 0, 0, 0, 0, 0, 0, 0<br/>0, 1, 0, 2, 0, 11, 1]<br/>class = Brute Force>, fillcolor="#ed768a"] ;
220 -> 221 ;
222 [label=<L4_SRC_PORT &le; 33664.0<br/>gini = 0.367<br/>samples = 14<br/>value = [0, 0, 0, 0, 0, 0, 0, 0, 0, 0, 0, 0, 0, 0<br/>0, 1, 0, 1, 0, 11, 1]<br/>class = Brute Force>, fillcolor="#eb677d"] ;
221 -> 222 ;
223 [label=<L4_SRC_PORT &le; 33488.0<br/>gini = 0.519<br/>samples = 9<br/>value = [0, 0, 0, 0, 0, 0, 0, 0, 0, 0, 0, 0, 0, 0<br/>0, 1, 0, 1, 0, 6, 1]<br/>class = Brute Force>, fillcolor="#ef8395"] ;
222 -> 223 ;
224 [label=<L4_SRC_PORT &le; 33109.0<br/>gini = 0.245<br/>samples = 7<br/>value = [0, 0, 0, 0, 0, 0, 0, 0, 0, 0, 0, 0, 0, 0<br/>0, 1, 0, 0, 0, 6, 0]<br/>class = Brute Force>, fillcolor="#e95a72"] ;
223 -> 224 ;
225 [label=<gini = 0.0<br/>samples = 4<br/>value = [0, 0, 0, 0, 0, 0, 0, 0, 0, 0, 0, 0, 0, 0<br/>0, 0, 0, 0, 0, 4, 0]<br/>class = Brute Force>, fillcolor="#e53956"] ;
224 -> 225 ;
226 [label=<L4_SRC_PORT &le; 33124.0<br/>gini = 0.444<br/>samples = 3<br/>value = [0, 0, 0, 0, 0, 0, 0, 0, 0, 0, 0, 0, 0, 0<br/>0, 1, 0, 0, 0, 2, 0]<br/>class = Brute Force>, fillcolor="#f29caa"] ;
224 -> 226 ;
227 [label=<gini = 0.0<br/>samples = 1<br/>value = [0, 0, 0, 0, 0, 0, 0, 0, 0, 0, 0, 0, 0, 0<br/>0, 1, 0, 0, 0, 0, 0]<br/>class = xss>, fillcolor="#b139e5"] ;
226 -> 227 ;
228 [label=<gini = 0.0<br/>samples = 2<br/>value = [0, 0, 0, 0, 0, 0, 0, 0, 0, 0, 0, 0, 0, 0<br/>0, 0, 0, 0, 0, 2, 0]<br/>class = Brute Force>, fillcolor="#e53956"] ;
226 -> 228 ;
229 [label=<L4_SRC_PORT &le; 33578.0<br/>gini = 0.5<br/>samples = 2<br/>value = [0, 0, 0, 0, 0, 0, 0, 0, 0, 0, 0, 0, 0, 0<br/>0, 0, 0, 1, 0, 0, 1]<br/>class = Infilteration>, fillcolor="#ffffff"] ;
223 -> 229 ;
230 [label=<gini = 0.0<br/>samples = 1<br/>value = [0, 0, 0, 0, 0, 0, 0, 0, 0, 0, 0, 0, 0, 0<br/>0, 0, 0, 0, 0, 0, 1]<br/>class = Theft>, fillcolor="#e54d39"] ;
229 -> 230 ;
231 [label=<gini = 0.0<br/>samples = 1<br/>value = [0, 0, 0, 0, 0, 0, 0, 0, 0, 0, 0, 0, 0, 0<br/>0, 0, 0, 1, 0, 0, 0]<br/>class = Infilteration>, fillcolor="#e539b7"] ;
229 -> 231 ;
232 [label=<gini = 0.0<br/>samples = 5<br/>value = [0, 0, 0, 0, 0, 0, 0, 0, 0, 0, 0, 0, 0, 0<br/>0, 0, 0, 0, 0, 5, 0]<br/>class = Brute Force>, fillcolor="#e53956"] ;
222 -> 232 ;
233 [label=<gini = 0.0<br/>samples = 1<br/>value = [0, 0, 0, 0, 0, 0, 0, 0, 0, 0, 0, 0, 0, 0<br/>0, 0, 0, 1, 0, 0, 0]<br/>class = Infilteration>, fillcolor="#e539b7"] ;
221 -> 233 ;
234 [label=<gini = 0.0<br/>samples = 18<br/>value = [0, 0, 0, 0, 0, 0, 0, 0, 0, 0, 0, 0, 0, 0<br/>0, 0, 0, 0, 0, 18, 0]<br/>class = Brute Force>, fillcolor="#e53956"] ;
220 -> 234 ;
235 [label=<FLOW_DURATION_MILLISECONDS &le; -1.207<br/>gini = 0.658<br/>samples = 15<br/>value = [0, 0, 0, 0, 0, 1, 0, 0, 0, 0, 0, 0, 0, 0<br/>0, 2, 0, 6, 0, 6, 0]<br/>class = Infilteration>, fillcolor="#ffffff"] ;
219 -> 235 ;
236 [label=<L4_SRC_PORT &le; 33374.0<br/>gini = 0.569<br/>samples = 12<br/>value = [0, 0, 0, 0, 0, 1, 0, 0, 0, 0, 0, 0, 0, 0<br/>0, 0, 0, 5, 0, 6, 0]<br/>class = Brute Force>, fillcolor="#fbe3e7"] ;
235 -> 236 ;
237 [label=<L4_SRC_PORT &le; 32987.0<br/>gini = 0.56<br/>samples = 5<br/>value = [0, 0, 0, 0, 0, 1, 0, 0, 0, 0, 0, 0, 0, 0<br/>0, 0, 0, 3, 0, 1, 0]<br/>class = Infilteration>, fillcolor="#f29cdb"] ;
236 -> 237 ;
238 [label=<gini = 0.0<br/>samples = 1<br/>value = [0, 0, 0, 0, 0, 0, 0, 0, 0, 0, 0, 0, 0, 0<br/>0, 0, 0, 0, 0, 1, 0]<br/>class = Brute Force>, fillcolor="#e53956"] ;
237 -> 238 ;
239 [label=<L4_SRC_PORT &le; 33115.0<br/>gini = 0.375<br/>samples = 4<br/>value = [0, 0, 0, 0, 0, 1, 0, 0, 0, 0, 0, 0, 0, 0<br/>0, 0, 0, 3, 0, 0, 0]<br/>class = Infilteration>, fillcolor="#ee7bcf"] ;
237 -> 239 ;
240 [label=<gini = 0.0<br/>samples = 3<br/>value = [0, 0, 0, 0, 0, 0, 0, 0, 0, 0, 0, 0, 0, 0<br/>0, 0, 0, 3, 0, 0, 0]<br/>class = Infilteration>, fillcolor="#e539b7"] ;
239 -> 240 ;
241 [label=<gini = 0.0<br/>samples = 1<br/>value = [0, 0, 0, 0, 0, 1, 0, 0, 0, 0, 0, 0, 0, 0<br/>0, 0, 0, 0, 0, 0, 0]<br/>class = Shellcode>, fillcolor="#56e539"] ;
239 -> 241 ;
242 [label=<L4_SRC_PORT &le; 35052.0<br/>gini = 0.408<br/>samples = 7<br/>value = [0, 0, 0, 0, 0, 0, 0, 0, 0, 0, 0, 0, 0, 0<br/>0, 0, 0, 2, 0, 5, 0]<br/>class = Brute Force>, fillcolor="#ef889a"] ;
236 -> 242 ;
243 [label=<L4_SRC_PORT &le; 34572.0<br/>gini = 0.278<br/>samples = 6<br/>value = [0, 0, 0, 0, 0, 0, 0, 0, 0, 0, 0, 0, 0, 0<br/>0, 0, 0, 1, 0, 5, 0]<br/>class = Brute Force>, fillcolor="#ea6178"] ;
242 -> 243 ;
244 [label=<L4_SRC_PORT &le; 34361.0<br/>gini = 0.444<br/>samples = 3<br/>value = [0, 0, 0, 0, 0, 0, 0, 0, 0, 0, 0, 0, 0, 0<br/>0, 0, 0, 1, 0, 2, 0]<br/>class = Brute Force>, fillcolor="#f29caa"] ;
243 -> 244 ;
245 [label=<gini = 0.0<br/>samples = 2<br/>value = [0, 0, 0, 0, 0, 0, 0, 0, 0, 0, 0, 0, 0, 0<br/>0, 0, 0, 0, 0, 2, 0]<br/>class = Brute Force>, fillcolor="#e53956"] ;
244 -> 245 ;
246 [label=<gini = 0.0<br/>samples = 1<br/>value = [0, 0, 0, 0, 0, 0, 0, 0, 0, 0, 0, 0, 0, 0<br/>0, 0, 0, 1, 0, 0, 0]<br/>class = Infilteration>, fillcolor="#e539b7"] ;
244 -> 246 ;
247 [label=<gini = 0.0<br/>samples = 3<br/>value = [0, 0, 0, 0, 0, 0, 0, 0, 0, 0, 0, 0, 0, 0<br/>0, 0, 0, 0, 0, 3, 0]<br/>class = Brute Force>, fillcolor="#e53956"] ;
243 -> 247 ;
248 [label=<gini = 0.0<br/>samples = 1<br/>value = [0, 0, 0, 0, 0, 0, 0, 0, 0, 0, 0, 0, 0, 0<br/>0, 0, 0, 1, 0, 0, 0]<br/>class = Infilteration>, fillcolor="#e539b7"] ;
242 -> 248 ;
249 [label=<IN_BYTES &le; -0.026<br/>gini = 0.444<br/>samples = 3<br/>value = [0, 0, 0, 0, 0, 0, 0, 0, 0, 0, 0, 0, 0, 0<br/>0, 2, 0, 1, 0, 0, 0]<br/>class = xss>, fillcolor="#d89cf2"] ;
235 -> 249 ;
250 [label=<gini = 0.0<br/>samples = 2<br/>value = [0, 0, 0, 0, 0, 0, 0, 0, 0, 0, 0, 0, 0, 0<br/>0, 2, 0, 0, 0, 0, 0]<br/>class = xss>, fillcolor="#b139e5"] ;
249 -> 250 ;
251 [label=<gini = 0.0<br/>samples = 1<br/>value = [0, 0, 0, 0, 0, 0, 0, 0, 0, 0, 0, 0, 0, 0<br/>0, 0, 0, 1, 0, 0, 0]<br/>class = Infilteration>, fillcolor="#e539b7"] ;
249 -> 251 ;
252 [label=<L4_SRC_PORT &le; 54902.0<br/>gini = 0.669<br/>samples = 225<br/>value = [0, 0, 0, 0, 0, 32, 1, 0, 0, 0, 0, 0, 0, 0<br/>0, 19, 0, 72, 0, 101, 0]<br/>class = Brute Force>, fillcolor="#fad9df"] ;
218 -> 252 ;
253 [label=<L4_SRC_PORT &le; 45181.0<br/>gini = 0.699<br/>samples = 164<br/>value = [0, 0, 0, 0, 0, 26, 1, 0, 0, 0, 0, 0, 0, 0<br/>0, 18, 0, 58, 0, 61, 0]<br/>class = Brute Force>, fillcolor="#fef9fa"] ;
252 -> 253 ;
254 [label=<OUT_BYTES &le; -0.037<br/>gini = 0.655<br/>samples = 88<br/>value = [0, 0, 0, 0, 0, 12, 1, 0, 0, 0, 0, 0, 0, 0<br/>0, 7, 0, 25, 0, 43, 0]<br/>class = Brute Force>, fillcolor="#f8c6cf"] ;
253 -> 254 ;
255 [label=<TCP_FLAGS &le; 10.0<br/>gini = 0.367<br/>samples = 14<br/>value = [0, 0, 0, 0, 0, 1, 1, 0, 0, 0, 0, 0, 0, 0<br/>0, 1, 0, 0, 0, 11, 0]<br/>class = Brute Force>, fillcolor="#eb677d"] ;
254 -> 255 ;
256 [label=<gini = 0.0<br/>samples = 1<br/>value = [0, 0, 0, 0, 0, 0, 1, 0, 0, 0, 0, 0, 0, 0<br/>0, 0, 0, 0, 0, 0, 0]<br/>class = Backdoor>, fillcolor="#39e54d"] ;
255 -> 256 ;
257 [label=<L4_SRC_PORT &le; 37100.0<br/>gini = 0.272<br/>samples = 13<br/>value = [0, 0, 0, 0, 0, 1, 0, 0, 0, 0, 0, 0, 0, 0<br/>0, 1, 0, 0, 0, 11, 0]<br/>class = Brute Force>, fillcolor="#e95a72"] ;
255 -> 257 ;
258 [label=<gini = 0.0<br/>samples = 1<br/>value = [0, 0, 0, 0, 0, 0, 0, 0, 0, 0, 0, 0, 0, 0<br/>0, 1, 0, 0, 0, 0, 0]<br/>class = xss>, fillcolor="#b139e5"] ;
257 -> 258 ;
259 [label=<L4_SRC_PORT &le; 38150.0<br/>gini = 0.153<br/>samples = 12<br/>value = [0, 0, 0, 0, 0, 1, 0, 0, 0, 0, 0, 0, 0, 0<br/>0, 0, 0, 0, 0, 11, 0]<br/>class = Brute Force>, fillcolor="#e74b65"] ;
257 -> 259 ;
260 [label=<TCP_FLAGS &le; 16.5<br/>gini = 0.444<br/>samples = 3<br/>value = [0, 0, 0, 0, 0, 1, 0, 0, 0, 0, 0, 0, 0, 0<br/>0, 0, 0, 0, 0, 2, 0]<br/>class = Brute Force>, fillcolor="#f29caa"] ;
259 -> 260 ;
261 [label=<gini = 0.0<br/>samples = 2<br/>value = [0, 0, 0, 0, 0, 0, 0, 0, 0, 0, 0, 0, 0, 0<br/>0, 0, 0, 0, 0, 2, 0]<br/>class = Brute Force>, fillcolor="#e53956"] ;
260 -> 261 ;
262 [label=<gini = 0.0<br/>samples = 1<br/>value = [0, 0, 0, 0, 0, 1, 0, 0, 0, 0, 0, 0, 0, 0<br/>0, 0, 0, 0, 0, 0, 0]<br/>class = Shellcode>, fillcolor="#56e539"] ;
260 -> 262 ;
263 [label=<gini = 0.0<br/>samples = 9<br/>value = [0, 0, 0, 0, 0, 0, 0, 0, 0, 0, 0, 0, 0, 0<br/>0, 0, 0, 0, 0, 9, 0]<br/>class = Brute Force>, fillcolor="#e53956"] ;
259 -> 263 ;
264 [label=<FLOW_DURATION_MILLISECONDS &le; -1.207<br/>gini = 0.67<br/>samples = 74<br/>value = [0, 0, 0, 0, 0, 11, 0, 0, 0, 0, 0, 0, 0, 0<br/>0, 6, 0, 25, 0, 32, 0]<br/>class = Brute Force>, fillcolor="#fbe3e7"] ;
254 -> 264 ;
265 [label=<L4_SRC_PORT &le; 43989.0<br/>gini = 0.654<br/>samples = 49<br/>value = [0, 0, 0, 0, 0, 7, 0, 0, 0, 0, 0, 0, 0, 0<br/>0, 3, 0, 22, 0, 17, 0]<br/>class = Infilteration>, fillcolor="#fbe0f4"] ;
264 -> 265 ;
266 [label=<L4_SRC_PORT &le; 35504.0<br/>gini = 0.634<br/>samples = 46<br/>value = [0, 0, 0, 0, 0, 5, 0, 0, 0, 0, 0, 0, 0, 0<br/>0, 3, 0, 22, 0, 16, 0]<br/>class = Infilteration>, fillcolor="#fad7f1"] ;
265 -> 266 ;
267 [label=<gini = 0.0<br/>samples = 3<br/>value = [0, 0, 0, 0, 0, 0, 0, 0, 0, 0, 0, 0, 0, 0<br/>0, 0, 0, 3, 0, 0, 0]<br/>class = Infilteration>, fillcolor="#e539b7"] ;
266 -> 267 ;
268 [label=<L4_SRC_PORT &le; 37267.0<br/>gini = 0.648<br/>samples = 43<br/>value = [0, 0, 0, 0, 0, 5, 0, 0, 0, 0, 0, 0, 0, 0<br/>0, 3, 0, 19, 0, 16, 0]<br/>class = Infilteration>, fillcolor="#fce9f7"] ;
266 -> 268 ;
269 [label=<L4_SRC_PORT &le; 37011.0<br/>gini = 0.628<br/>samples = 11<br/>value = [0, 0, 0, 0, 0, 1, 0, 0, 0, 0, 0, 0, 0, 0<br/>0, 2, 0, 2, 0, 6, 0]<br/>class = Brute Force>, fillcolor="#f3a7b4"] ;
268 -> 269 ;
270 [label=<L4_SRC_PORT &le; 36054.0<br/>gini = 0.719<br/>samples = 8<br/>value = [0, 0, 0, 0, 0, 1, 0, 0, 0, 0, 0, 0, 0, 0<br/>0, 2, 0, 2, 0, 3, 0]<br/>class = Brute Force>, fillcolor="#fbdee3"] ;
269 -> 270 ;
271 [label=<L4_SRC_PORT &le; 35913.0<br/>gini = 0.375<br/>samples = 4<br/>value = [0, 0, 0, 0, 0, 1, 0, 0, 0, 0, 0, 0, 0, 0<br/>0, 0, 0, 0, 0, 3, 0]<br/>class = Brute Force>, fillcolor="#ee7b8e"] ;
270 -> 271 ;
272 [label=<L4_SRC_PORT &le; 35690.0<br/>gini = 0.5<br/>samples = 2<br/>value = [0, 0, 0, 0, 0, 1, 0, 0, 0, 0, 0, 0, 0, 0<br/>0, 0, 0, 0, 0, 1, 0]<br/>class = Shellcode>, fillcolor="#ffffff"] ;
271 -> 272 ;
273 [label=<gini = 0.0<br/>samples = 1<br/>value = [0, 0, 0, 0, 0, 0, 0, 0, 0, 0, 0, 0, 0, 0<br/>0, 0, 0, 0, 0, 1, 0]<br/>class = Brute Force>, fillcolor="#e53956"] ;
272 -> 273 ;
274 [label=<gini = 0.0<br/>samples = 1<br/>value = [0, 0, 0, 0, 0, 1, 0, 0, 0, 0, 0, 0, 0, 0<br/>0, 0, 0, 0, 0, 0, 0]<br/>class = Shellcode>, fillcolor="#56e539"] ;
272 -> 274 ;
275 [label=<gini = 0.0<br/>samples = 2<br/>value = [0, 0, 0, 0, 0, 0, 0, 0, 0, 0, 0, 0, 0, 0<br/>0, 0, 0, 0, 0, 2, 0]<br/>class = Brute Force>, fillcolor="#e53956"] ;
271 -> 275 ;
276 [label=<L4_SRC_PORT &le; 36401.0<br/>gini = 0.5<br/>samples = 4<br/>value = [0, 0, 0, 0, 0, 0, 0, 0, 0, 0, 0, 0, 0, 0<br/>0, 2, 0, 2, 0, 0, 0]<br/>class = xss>, fillcolor="#ffffff"] ;
270 -> 276 ;
277 [label=<gini = 0.0<br/>samples = 1<br/>value = [0, 0, 0, 0, 0, 0, 0, 0, 0, 0, 0, 0, 0, 0<br/>0, 0, 0, 1, 0, 0, 0]<br/>class = Infilteration>, fillcolor="#e539b7"] ;
276 -> 277 ;
278 [label=<FLOW_DURATION_MILLISECONDS &le; -1.207<br/>gini = 0.444<br/>samples = 3<br/>value = [0, 0, 0, 0, 0, 0, 0, 0, 0, 0, 0, 0, 0, 0<br/>0, 2, 0, 1, 0, 0, 0]<br/>class = xss>, fillcolor="#d89cf2"] ;
276 -> 278 ;
279 [label=<gini = 0.0<br/>samples = 1<br/>value = [0, 0, 0, 0, 0, 0, 0, 0, 0, 0, 0, 0, 0, 0<br/>0, 1, 0, 0, 0, 0, 0]<br/>class = xss>, fillcolor="#b139e5"] ;
278 -> 279 ;
280 [label=<L4_SRC_PORT &le; 36810.0<br/>gini = 0.5<br/>samples = 2<br/>value = [0, 0, 0, 0, 0, 0, 0, 0, 0, 0, 0, 0, 0, 0<br/>0, 1, 0, 1, 0, 0, 0]<br/>class = xss>, fillcolor="#ffffff"] ;
278 -> 280 ;
281 [label=<gini = 0.0<br/>samples = 1<br/>value = [0, 0, 0, 0, 0, 0, 0, 0, 0, 0, 0, 0, 0, 0<br/>0, 1, 0, 0, 0, 0, 0]<br/>class = xss>, fillcolor="#b139e5"] ;
280 -> 281 ;
282 [label=<gini = 0.0<br/>samples = 1<br/>value = [0, 0, 0, 0, 0, 0, 0, 0, 0, 0, 0, 0, 0, 0<br/>0, 0, 0, 1, 0, 0, 0]<br/>class = Infilteration>, fillcolor="#e539b7"] ;
280 -> 282 ;
283 [label=<gini = 0.0<br/>samples = 3<br/>value = [0, 0, 0, 0, 0, 0, 0, 0, 0, 0, 0, 0, 0, 0<br/>0, 0, 0, 0, 0, 3, 0]<br/>class = Brute Force>, fillcolor="#e53956"] ;
269 -> 283 ;
284 [label=<L4_SRC_PORT &le; 38565.0<br/>gini = 0.604<br/>samples = 32<br/>value = [0, 0, 0, 0, 0, 4, 0, 0, 0, 0, 0, 0, 0, 0<br/>0, 1, 0, 17, 0, 10, 0]<br/>class = Infilteration>, fillcolor="#f7c0e8"] ;
268 -> 284 ;
285 [label=<L4_SRC_PORT &le; 37642.0<br/>gini = 0.37<br/>samples = 9<br/>value = [0, 0, 0, 0, 0, 1, 0, 0, 0, 0, 0, 0, 0, 0<br/>0, 0, 0, 7, 0, 1, 0]<br/>class = Infilteration>, fillcolor="#ec6ac9"] ;
284 -> 285 ;
286 [label=<FLOW_DURATION_MILLISECONDS &le; -1.207<br/>gini = 0.5<br/>samples = 2<br/>value = [0, 0, 0, 0, 0, 1, 0, 0, 0, 0, 0, 0, 0, 0<br/>0, 0, 0, 1, 0, 0, 0]<br/>class = Shellcode>, fillcolor="#ffffff"] ;
285 -> 286 ;
287 [label=<gini = 0.0<br/>samples = 1<br/>value = [0, 0, 0, 0, 0, 1, 0, 0, 0, 0, 0, 0, 0, 0<br/>0, 0, 0, 0, 0, 0, 0]<br/>class = Shellcode>, fillcolor="#56e539"] ;
286 -> 287 ;
288 [label=<gini = 0.0<br/>samples = 1<br/>value = [0, 0, 0, 0, 0, 0, 0, 0, 0, 0, 0, 0, 0, 0<br/>0, 0, 0, 1, 0, 0, 0]<br/>class = Infilteration>, fillcolor="#e539b7"] ;
286 -> 288 ;
289 [label=<L4_SRC_PORT &le; 38201.0<br/>gini = 0.245<br/>samples = 7<br/>value = [0, 0, 0, 0, 0, 0, 0, 0, 0, 0, 0, 0, 0, 0<br/>0, 0, 0, 6, 0, 1, 0]<br/>class = Infilteration>, fillcolor="#e95ac3"] ;
285 -> 289 ;
290 [label=<L4_SRC_PORT &le; 38030.0<br/>gini = 0.444<br/>samples = 3<br/>value = [0, 0, 0, 0, 0, 0, 0, 0, 0, 0, 0, 0, 0, 0<br/>0, 0, 0, 2, 0, 1, 0]<br/>class = Infilteration>, fillcolor="#f29cdb"] ;
289 -> 290 ;
291 [label=<gini = 0.0<br/>samples = 2<br/>value = [0, 0, 0, 0, 0, 0, 0, 0, 0, 0, 0, 0, 0, 0<br/>0, 0, 0, 2, 0, 0, 0]<br/>class = Infilteration>, fillcolor="#e539b7"] ;
290 -> 291 ;
292 [label=<gini = 0.0<br/>samples = 1<br/>value = [0, 0, 0, 0, 0, 0, 0, 0, 0, 0, 0, 0, 0, 0<br/>0, 0, 0, 0, 0, 1, 0]<br/>class = Brute Force>, fillcolor="#e53956"] ;
290 -> 292 ;
293 [label=<gini = 0.0<br/>samples = 4<br/>value = [0, 0, 0, 0, 0, 0, 0, 0, 0, 0, 0, 0, 0, 0<br/>0, 0, 0, 4, 0, 0, 0]<br/>class = Infilteration>, fillcolor="#e539b7"] ;
289 -> 293 ;
294 [label=<L4_SRC_PORT &le; 39342.0<br/>gini = 0.639<br/>samples = 23<br/>value = [0, 0, 0, 0, 0, 3, 0, 0, 0, 0, 0, 0, 0, 0<br/>0, 1, 0, 10, 0, 9, 0]<br/>class = Infilteration>, fillcolor="#fdf1fa"] ;
284 -> 294 ;
295 [label=<IN_PKTS &le; -0.02<br/>gini = 0.449<br/>samples = 7<br/>value = [0, 0, 0, 0, 0, 1, 0, 0, 0, 0, 0, 0, 0, 0<br/>0, 0, 0, 1, 0, 5, 0]<br/>class = Brute Force>, fillcolor="#ee7b8e"] ;
294 -> 295 ;
296 [label=<gini = 0.0<br/>samples = 1<br/>value = [0, 0, 0, 0, 0, 1, 0, 0, 0, 0, 0, 0, 0, 0<br/>0, 0, 0, 0, 0, 0, 0]<br/>class = Shellcode>, fillcolor="#56e539"] ;
295 -> 296 ;
297 [label=<L4_SRC_PORT &le; 38886.0<br/>gini = 0.278<br/>samples = 6<br/>value = [0, 0, 0, 0, 0, 0, 0, 0, 0, 0, 0, 0, 0, 0<br/>0, 0, 0, 1, 0, 5, 0]<br/>class = Brute Force>, fillcolor="#ea6178"] ;
295 -> 297 ;
298 [label=<L4_SRC_PORT &le; 38724.0<br/>gini = 0.444<br/>samples = 3<br/>value = [0, 0, 0, 0, 0, 0, 0, 0, 0, 0, 0, 0, 0, 0<br/>0, 0, 0, 1, 0, 2, 0]<br/>class = Brute Force>, fillcolor="#f29caa"] ;
297 -> 298 ;
299 [label=<gini = 0.0<br/>samples = 2<br/>value = [0, 0, 0, 0, 0, 0, 0, 0, 0, 0, 0, 0, 0, 0<br/>0, 0, 0, 0, 0, 2, 0]<br/>class = Brute Force>, fillcolor="#e53956"] ;
298 -> 299 ;
300 [label=<gini = 0.0<br/>samples = 1<br/>value = [0, 0, 0, 0, 0, 0, 0, 0, 0, 0, 0, 0, 0, 0<br/>0, 0, 0, 1, 0, 0, 0]<br/>class = Infilteration>, fillcolor="#e539b7"] ;
298 -> 300 ;
301 [label=<gini = 0.0<br/>samples = 3<br/>value = [0, 0, 0, 0, 0, 0, 0, 0, 0, 0, 0, 0, 0, 0<br/>0, 0, 0, 0, 0, 3, 0]<br/>class = Brute Force>, fillcolor="#e53956"] ;
297 -> 301 ;
302 [label=<L4_SRC_PORT &le; 40310.0<br/>gini = 0.602<br/>samples = 16<br/>value = [0, 0, 0, 0, 0, 2, 0, 0, 0, 0, 0, 0, 0, 0<br/>0, 1, 0, 9, 0, 4, 0]<br/>class = Infilteration>, fillcolor="#f4ace1"] ;
294 -> 302 ;
303 [label=<gini = 0.0<br/>samples = 5<br/>value = [0, 0, 0, 0, 0, 0, 0, 0, 0, 0, 0, 0, 0, 0<br/>0, 0, 0, 5, 0, 0, 0]<br/>class = Infilteration>, fillcolor="#e539b7"] ;
302 -> 303 ;
304 [label=<L4_SRC_PORT &le; 42110.0<br/>gini = 0.694<br/>samples = 11<br/>value = [0, 0, 0, 0, 0, 2, 0, 0, 0, 0, 0, 0, 0, 0<br/>0, 1, 0, 4, 0, 4, 0]<br/>class = Infilteration>, fillcolor="#ffffff"] ;
302 -> 304 ;
305 [label=<IN_BYTES &le; -0.026<br/>gini = 0.571<br/>samples = 7<br/>value = [0, 0, 0, 0, 0, 2, 0, 0, 0, 0, 0, 0, 0, 0<br/>0, 0, 0, 1, 0, 4, 0]<br/>class = Brute Force>, fillcolor="#f5b0bb"] ;
304 -> 305 ;
306 [label=<gini = 0.0<br/>samples = 1<br/>value = [0, 0, 0, 0, 0, 0, 0, 0, 0, 0, 0, 0, 0, 0<br/>0, 0, 0, 1, 0, 0, 0]<br/>class = Infilteration>, fillcolor="#e539b7"] ;
305 -> 306 ;
307 [label=<L4_SRC_PORT &le; 40531.0<br/>gini = 0.444<br/>samples = 6<br/>value = [0, 0, 0, 0, 0, 2, 0, 0, 0, 0, 0, 0, 0, 0<br/>0, 0, 0, 0, 0, 4, 0]<br/>class = Brute Force>, fillcolor="#f29caa"] ;
305 -> 307 ;
308 [label=<gini = 0.0<br/>samples = 1<br/>value = [0, 0, 0, 0, 0, 1, 0, 0, 0, 0, 0, 0, 0, 0<br/>0, 0, 0, 0, 0, 0, 0]<br/>class = Shellcode>, fillcolor="#56e539"] ;
307 -> 308 ;
309 [label=<L4_SRC_PORT &le; 41606.0<br/>gini = 0.32<br/>samples = 5<br/>value = [0, 0, 0, 0, 0, 1, 0, 0, 0, 0, 0, 0, 0, 0<br/>0, 0, 0, 0, 0, 4, 0]<br/>class = Brute Force>, fillcolor="#ec6a80"] ;
307 -> 309 ;
310 [label=<gini = 0.0<br/>samples = 4<br/>value = [0, 0, 0, 0, 0, 0, 0, 0, 0, 0, 0, 0, 0, 0<br/>0, 0, 0, 0, 0, 4, 0]<br/>class = Brute Force>, fillcolor="#e53956"] ;
309 -> 310 ;
311 [label=<gini = 0.0<br/>samples = 1<br/>value = [0, 0, 0, 0, 0, 1, 0, 0, 0, 0, 0, 0, 0, 0<br/>0, 0, 0, 0, 0, 0, 0]<br/>class = Shellcode>, fillcolor="#56e539"] ;
309 -> 311 ;
312 [label=<L4_SRC_PORT &le; 43180.0<br/>gini = 0.375<br/>samples = 4<br/>value = [0, 0, 0, 0, 0, 0, 0, 0, 0, 0, 0, 0, 0, 0<br/>0, 1, 0, 3, 0, 0, 0]<br/>class = Infilteration>, fillcolor="#ee7bcf"] ;
304 -> 312 ;
313 [label=<IN_BYTES &le; -0.026<br/>gini = 0.5<br/>samples = 2<br/>value = [0, 0, 0, 0, 0, 0, 0, 0, 0, 0, 0, 0, 0, 0<br/>0, 1, 0, 1, 0, 0, 0]<br/>class = xss>, fillcolor="#ffffff"] ;
312 -> 313 ;
314 [label=<gini = 0.0<br/>samples = 1<br/>value = [0, 0, 0, 0, 0, 0, 0, 0, 0, 0, 0, 0, 0, 0<br/>0, 0, 0, 1, 0, 0, 0]<br/>class = Infilteration>, fillcolor="#e539b7"] ;
313 -> 314 ;
315 [label=<gini = 0.0<br/>samples = 1<br/>value = [0, 0, 0, 0, 0, 0, 0, 0, 0, 0, 0, 0, 0, 0<br/>0, 1, 0, 0, 0, 0, 0]<br/>class = xss>, fillcolor="#b139e5"] ;
313 -> 315 ;
316 [label=<gini = 0.0<br/>samples = 2<br/>value = [0, 0, 0, 0, 0, 0, 0, 0, 0, 0, 0, 0, 0, 0<br/>0, 0, 0, 2, 0, 0, 0]<br/>class = Infilteration>, fillcolor="#e539b7"] ;
312 -> 316 ;
317 [label=<L4_SRC_PORT &le; 44504.0<br/>gini = 0.444<br/>samples = 3<br/>value = [0, 0, 0, 0, 0, 2, 0, 0, 0, 0, 0, 0, 0, 0<br/>0, 0, 0, 0, 0, 1, 0]<br/>class = Shellcode>, fillcolor="#aaf29c"] ;
265 -> 317 ;
318 [label=<gini = 0.0<br/>samples = 1<br/>value = [0, 0, 0, 0, 0, 1, 0, 0, 0, 0, 0, 0, 0, 0<br/>0, 0, 0, 0, 0, 0, 0]<br/>class = Shellcode>, fillcolor="#56e539"] ;
317 -> 318 ;
319 [label=<L4_SRC_PORT &le; 44906.0<br/>gini = 0.5<br/>samples = 2<br/>value = [0, 0, 0, 0, 0, 1, 0, 0, 0, 0, 0, 0, 0, 0<br/>0, 0, 0, 0, 0, 1, 0]<br/>class = Shellcode>, fillcolor="#ffffff"] ;
317 -> 319 ;
320 [label=<gini = 0.0<br/>samples = 1<br/>value = [0, 0, 0, 0, 0, 0, 0, 0, 0, 0, 0, 0, 0, 0<br/>0, 0, 0, 0, 0, 1, 0]<br/>class = Brute Force>, fillcolor="#e53956"] ;
319 -> 320 ;
321 [label=<gini = 0.0<br/>samples = 1<br/>value = [0, 0, 0, 0, 0, 1, 0, 0, 0, 0, 0, 0, 0, 0<br/>0, 0, 0, 0, 0, 0, 0]<br/>class = Shellcode>, fillcolor="#56e539"] ;
319 -> 321 ;
322 [label=<IN_BYTES &le; -0.026<br/>gini = 0.586<br/>samples = 25<br/>value = [0, 0, 0, 0, 0, 4, 0, 0, 0, 0, 0, 0, 0, 0<br/>0, 3, 0, 3, 0, 15, 0]<br/>class = Brute Force>, fillcolor="#f197a6"] ;
264 -> 322 ;
323 [label=<gini = 0.0<br/>samples = 1<br/>value = [0, 0, 0, 0, 0, 0, 0, 0, 0, 0, 0, 0, 0, 0<br/>0, 0, 0, 1, 0, 0, 0]<br/>class = Infilteration>, fillcolor="#e539b7"] ;
322 -> 323 ;
324 [label=<IN_BYTES &le; -0.026<br/>gini = 0.559<br/>samples = 24<br/>value = [0, 0, 0, 0, 0, 4, 0, 0, 0, 0, 0, 0, 0, 0<br/>0, 3, 0, 2, 0, 15, 0]<br/>class = Brute Force>, fillcolor="#f192a2"] ;
322 -> 324 ;
325 [label=<L4_SRC_PORT &le; 35886.0<br/>gini = 0.529<br/>samples = 23<br/>value = [0, 0, 0, 0, 0, 4, 0, 0, 0, 0, 0, 0, 0, 0<br/>0, 2, 0, 2, 0, 15, 0]<br/>class = Brute Force>, fillcolor="#f08c9d"] ;
324 -> 325 ;
326 [label=<gini = 0.0<br/>samples = 1<br/>value = [0, 0, 0, 0, 0, 1, 0, 0, 0, 0, 0, 0, 0, 0<br/>0, 0, 0, 0, 0, 0, 0]<br/>class = Shellcode>, fillcolor="#56e539"] ;
325 -> 326 ;
327 [label=<FLOW_DURATION_MILLISECONDS &le; -1.207<br/>gini = 0.5<br/>samples = 22<br/>value = [0, 0, 0, 0, 0, 3, 0, 0, 0, 0, 0, 0, 0, 0<br/>0, 2, 0, 2, 0, 15, 0]<br/>class = Brute Force>, fillcolor="#ef8294"] ;
325 -> 327 ;
328 [label=<FLOW_DURATION_MILLISECONDS &le; -1.207<br/>gini = 0.628<br/>samples = 11<br/>value = [0, 0, 0, 0, 0, 2, 0, 0, 0, 0, 0, 0, 0, 0<br/>0, 2, 0, 1, 0, 6, 0]<br/>class = Brute Force>, fillcolor="#f3a7b4"] ;
327 -> 328 ;
329 [label=<FLOW_DURATION_MILLISECONDS &le; -1.207<br/>gini = 0.245<br/>samples = 7<br/>value = [0, 0, 0, 0, 0, 0, 0, 0, 0, 0, 0, 0, 0, 0<br/>0, 1, 0, 0, 0, 6, 0]<br/>class = Brute Force>, fillcolor="#e95a72"] ;
328 -> 329 ;
330 [label=<FLOW_DURATION_MILLISECONDS &le; -1.207<br/>gini = 0.5<br/>samples = 2<br/>value = [0, 0, 0, 0, 0, 0, 0, 0, 0, 0, 0, 0, 0, 0<br/>0, 1, 0, 0, 0, 1, 0]<br/>class = xss>, fillcolor="#ffffff"] ;
329 -> 330 ;
331 [label=<gini = 0.0<br/>samples = 1<br/>value = [0, 0, 0, 0, 0, 0, 0, 0, 0, 0, 0, 0, 0, 0<br/>0, 0, 0, 0, 0, 1, 0]<br/>class = Brute Force>, fillcolor="#e53956"] ;
330 -> 331 ;
332 [label=<gini = 0.0<br/>samples = 1<br/>value = [0, 0, 0, 0, 0, 0, 0, 0, 0, 0, 0, 0, 0, 0<br/>0, 1, 0, 0, 0, 0, 0]<br/>class = xss>, fillcolor="#b139e5"] ;
330 -> 332 ;
333 [label=<gini = 0.0<br/>samples = 5<br/>value = [0, 0, 0, 0, 0, 0, 0, 0, 0, 0, 0, 0, 0, 0<br/>0, 0, 0, 0, 0, 5, 0]<br/>class = Brute Force>, fillcolor="#e53956"] ;
329 -> 333 ;
334 [label=<FLOW_DURATION_MILLISECONDS &le; -1.207<br/>gini = 0.625<br/>samples = 4<br/>value = [0, 0, 0, 0, 0, 2, 0, 0, 0, 0, 0, 0, 0, 0<br/>0, 1, 0, 1, 0, 0, 0]<br/>class = Shellcode>, fillcolor="#c7f6bd"] ;
328 -> 334 ;
335 [label=<gini = 0.0<br/>samples = 2<br/>value = [0, 0, 0, 0, 0, 2, 0, 0, 0, 0, 0, 0, 0, 0<br/>0, 0, 0, 0, 0, 0, 0]<br/>class = Shellcode>, fillcolor="#56e539"] ;
334 -> 335 ;
336 [label=<L4_SRC_PORT &le; 40574.0<br/>gini = 0.5<br/>samples = 2<br/>value = [0, 0, 0, 0, 0, 0, 0, 0, 0, 0, 0, 0, 0, 0<br/>0, 1, 0, 1, 0, 0, 0]<br/>class = xss>, fillcolor="#ffffff"] ;
334 -> 336 ;
337 [label=<gini = 0.0<br/>samples = 1<br/>value = [0, 0, 0, 0, 0, 0, 0, 0, 0, 0, 0, 0, 0, 0<br/>0, 0, 0, 1, 0, 0, 0]<br/>class = Infilteration>, fillcolor="#e539b7"] ;
336 -> 337 ;
338 [label=<gini = 0.0<br/>samples = 1<br/>value = [0, 0, 0, 0, 0, 0, 0, 0, 0, 0, 0, 0, 0, 0<br/>0, 1, 0, 0, 0, 0, 0]<br/>class = xss>, fillcolor="#b139e5"] ;
336 -> 338 ;
339 [label=<FLOW_DURATION_MILLISECONDS &le; -1.207<br/>gini = 0.314<br/>samples = 11<br/>value = [0, 0, 0, 0, 0, 1, 0, 0, 0, 0, 0, 0, 0, 0<br/>0, 0, 0, 1, 0, 9, 0]<br/>class = Brute Force>, fillcolor="#ea6178"] ;
327 -> 339 ;
340 [label=<gini = 0.0<br/>samples = 7<br/>value = [0, 0, 0, 0, 0, 0, 0, 0, 0, 0, 0, 0, 0, 0<br/>0, 0, 0, 0, 0, 7, 0]<br/>class = Brute Force>, fillcolor="#e53956"] ;
339 -> 340 ;
341 [label=<IN_BYTES &le; -0.026<br/>gini = 0.625<br/>samples = 4<br/>value = [0, 0, 0, 0, 0, 1, 0, 0, 0, 0, 0, 0, 0, 0<br/>0, 0, 0, 1, 0, 2, 0]<br/>class = Brute Force>, fillcolor="#f6bdc7"] ;
339 -> 341 ;
342 [label=<L4_SRC_PORT &le; 39126.0<br/>gini = 0.5<br/>samples = 2<br/>value = [0, 0, 0, 0, 0, 1, 0, 0, 0, 0, 0, 0, 0, 0<br/>0, 0, 0, 1, 0, 0, 0]<br/>class = Shellcode>, fillcolor="#ffffff"] ;
341 -> 342 ;
343 [label=<gini = 0.0<br/>samples = 1<br/>value = [0, 0, 0, 0, 0, 1, 0, 0, 0, 0, 0, 0, 0, 0<br/>0, 0, 0, 0, 0, 0, 0]<br/>class = Shellcode>, fillcolor="#56e539"] ;
342 -> 343 ;
344 [label=<gini = 0.0<br/>samples = 1<br/>value = [0, 0, 0, 0, 0, 0, 0, 0, 0, 0, 0, 0, 0, 0<br/>0, 0, 0, 1, 0, 0, 0]<br/>class = Infilteration>, fillcolor="#e539b7"] ;
342 -> 344 ;
345 [label=<gini = 0.0<br/>samples = 2<br/>value = [0, 0, 0, 0, 0, 0, 0, 0, 0, 0, 0, 0, 0, 0<br/>0, 0, 0, 0, 0, 2, 0]<br/>class = Brute Force>, fillcolor="#e53956"] ;
341 -> 345 ;
346 [label=<gini = 0.0<br/>samples = 1<br/>value = [0, 0, 0, 0, 0, 0, 0, 0, 0, 0, 0, 0, 0, 0<br/>0, 1, 0, 0, 0, 0, 0]<br/>class = xss>, fillcolor="#b139e5"] ;
324 -> 346 ;
347 [label=<IN_BYTES &le; -0.026<br/>gini = 0.7<br/>samples = 76<br/>value = [0, 0, 0, 0, 0, 14, 0, 0, 0, 0, 0, 0, 0, 0<br/>0, 11, 0, 33, 0, 18, 0]<br/>class = Infilteration>, fillcolor="#f8ccec"] ;
253 -> 347 ;
348 [label=<gini = 0.0<br/>samples = 5<br/>value = [0, 0, 0, 0, 0, 0, 0, 0, 0, 0, 0, 0, 0, 0<br/>0, 0, 0, 5, 0, 0, 0]<br/>class = Infilteration>, fillcolor="#e539b7"] ;
347 -> 348 ;
349 [label=<L4_SRC_PORT &le; 53855.0<br/>gini = 0.717<br/>samples = 71<br/>value = [0, 0, 0, 0, 0, 14, 0, 0, 0, 0, 0, 0, 0, 0<br/>0, 11, 0, 28, 0, 18, 0]<br/>class = Infilteration>, fillcolor="#fadaf1"] ;
347 -> 349 ;
350 [label=<L4_SRC_PORT &le; 52339.0<br/>gini = 0.735<br/>samples = 62<br/>value = [0, 0, 0, 0, 0, 13, 0, 0, 0, 0, 0, 0, 0, 0<br/>0, 11, 0, 21, 0, 17, 0]<br/>class = Infilteration>, fillcolor="#fdedf9"] ;
349 -> 350 ;
351 [label=<L4_SRC_PORT &le; 51314.0<br/>gini = 0.729<br/>samples = 51<br/>value = [0, 0, 0, 0, 0, 12, 0, 0, 0, 0, 0, 0, 0, 0<br/>0, 10, 0, 19, 0, 10, 0]<br/>class = Infilteration>, fillcolor="#fadbf2"] ;
350 -> 351 ;
352 [label=<L4_SRC_PORT &le; 50302.0<br/>gini = 0.739<br/>samples = 42<br/>value = [0, 0, 0, 0, 0, 8, 0, 0, 0, 0, 0, 0, 0, 0<br/>0, 10, 0, 14, 0, 10, 0]<br/>class = Infilteration>, fillcolor="#fce6f6"] ;
351 -> 352 ;
353 [label=<L4_SRC_PORT &le; 46972.0<br/>gini = 0.703<br/>samples = 32<br/>value = [0, 0, 0, 0, 0, 6, 0, 0, 0, 0, 0, 0, 0, 0<br/>0, 6, 0, 14, 0, 6, 0]<br/>class = Infilteration>, fillcolor="#f7c2e9"] ;
352 -> 353 ;
354 [label=<FLOW_DURATION_MILLISECONDS &le; -1.207<br/>gini = 0.692<br/>samples = 17<br/>value = [0, 0, 0, 0, 0, 1, 0, 0, 0, 0, 0, 0, 0, 0<br/>0, 6, 0, 6, 0, 4, 0]<br/>class = xss>, fillcolor="#ffffff"] ;
353 -> 354 ;
355 [label=<L4_SRC_PORT &le; 46604.0<br/>gini = 0.693<br/>samples = 15<br/>value = [0, 0, 0, 0, 0, 1, 0, 0, 0, 0, 0, 0, 0, 0<br/>0, 4, 0, 6, 0, 4, 0]<br/>class = Infilteration>, fillcolor="#fadbf2"] ;
354 -> 355 ;
356 [label=<L4_SRC_PORT &le; 46158.0<br/>gini = 0.645<br/>samples = 11<br/>value = [0, 0, 0, 0, 0, 1, 0, 0, 0, 0, 0, 0, 0, 0<br/>0, 1, 0, 5, 0, 4, 0]<br/>class = Infilteration>, fillcolor="#fbe3f5"] ;
355 -> 356 ;
357 [label=<FLOW_DURATION_MILLISECONDS &le; -1.207<br/>gini = 0.562<br/>samples = 8<br/>value = [0, 0, 0, 0, 0, 1, 0, 0, 0, 0, 0, 0, 0, 0<br/>0, 1, 0, 5, 0, 1, 0]<br/>class = Infilteration>, fillcolor="#f08ed6"] ;
356 -> 357 ;
358 [label=<L4_SRC_PORT &le; 45201.0<br/>gini = 0.449<br/>samples = 7<br/>value = [0, 0, 0, 0, 0, 1, 0, 0, 0, 0, 0, 0, 0, 0<br/>0, 1, 0, 5, 0, 0, 0]<br/>class = Infilteration>, fillcolor="#ee7bcf"] ;
357 -> 358 ;
359 [label=<L4_SRC_PORT &le; 45189.0<br/>gini = 0.5<br/>samples = 2<br/>value = [0, 0, 0, 0, 0, 0, 0, 0, 0, 0, 0, 0, 0, 0<br/>0, 1, 0, 1, 0, 0, 0]<br/>class = xss>, fillcolor="#ffffff"] ;
358 -> 359 ;
360 [label=<gini = 0.0<br/>samples = 1<br/>value = [0, 0, 0, 0, 0, 0, 0, 0, 0, 0, 0, 0, 0, 0<br/>0, 0, 0, 1, 0, 0, 0]<br/>class = Infilteration>, fillcolor="#e539b7"] ;
359 -> 360 ;
361 [label=<gini = 0.0<br/>samples = 1<br/>value = [0, 0, 0, 0, 0, 0, 0, 0, 0, 0, 0, 0, 0, 0<br/>0, 1, 0, 0, 0, 0, 0]<br/>class = xss>, fillcolor="#b139e5"] ;
359 -> 361 ;
362 [label=<L4_SRC_PORT &le; 45376.0<br/>gini = 0.32<br/>samples = 5<br/>value = [0, 0, 0, 0, 0, 1, 0, 0, 0, 0, 0, 0, 0, 0<br/>0, 0, 0, 4, 0, 0, 0]<br/>class = Infilteration>, fillcolor="#ec6ac9"] ;
358 -> 362 ;
363 [label=<gini = 0.0<br/>samples = 2<br/>value = [0, 0, 0, 0, 0, 0, 0, 0, 0, 0, 0, 0, 0, 0<br/>0, 0, 0, 2, 0, 0, 0]<br/>class = Infilteration>, fillcolor="#e539b7"] ;
362 -> 363 ;
364 [label=<L4_SRC_PORT &le; 45667.0<br/>gini = 0.444<br/>samples = 3<br/>value = [0, 0, 0, 0, 0, 1, 0, 0, 0, 0, 0, 0, 0, 0<br/>0, 0, 0, 2, 0, 0, 0]<br/>class = Infilteration>, fillcolor="#f29cdb"] ;
362 -> 364 ;
365 [label=<gini = 0.0<br/>samples = 1<br/>value = [0, 0, 0, 0, 0, 1, 0, 0, 0, 0, 0, 0, 0, 0<br/>0, 0, 0, 0, 0, 0, 0]<br/>class = Shellcode>, fillcolor="#56e539"] ;
364 -> 365 ;
366 [label=<gini = 0.0<br/>samples = 2<br/>value = [0, 0, 0, 0, 0, 0, 0, 0, 0, 0, 0, 0, 0, 0<br/>0, 0, 0, 2, 0, 0, 0]<br/>class = Infilteration>, fillcolor="#e539b7"] ;
364 -> 366 ;
367 [label=<gini = 0.0<br/>samples = 1<br/>value = [0, 0, 0, 0, 0, 0, 0, 0, 0, 0, 0, 0, 0, 0<br/>0, 0, 0, 0, 0, 1, 0]<br/>class = Brute Force>, fillcolor="#e53956"] ;
357 -> 367 ;
368 [label=<gini = 0.0<br/>samples = 3<br/>value = [0, 0, 0, 0, 0, 0, 0, 0, 0, 0, 0, 0, 0, 0<br/>0, 0, 0, 0, 0, 3, 0]<br/>class = Brute Force>, fillcolor="#e53956"] ;
356 -> 368 ;
369 [label=<L4_SRC_PORT &le; 46814.0<br/>gini = 0.375<br/>samples = 4<br/>value = [0, 0, 0, 0, 0, 0, 0, 0, 0, 0, 0, 0, 0, 0<br/>0, 3, 0, 1, 0, 0, 0]<br/>class = xss>, fillcolor="#cb7bee"] ;
355 -> 369 ;
370 [label=<L4_SRC_PORT &le; 46720.0<br/>gini = 0.5<br/>samples = 2<br/>value = [0, 0, 0, 0, 0, 0, 0, 0, 0, 0, 0, 0, 0, 0<br/>0, 1, 0, 1, 0, 0, 0]<br/>class = xss>, fillcolor="#ffffff"] ;
369 -> 370 ;
371 [label=<gini = 0.0<br/>samples = 1<br/>value = [0, 0, 0, 0, 0, 0, 0, 0, 0, 0, 0, 0, 0, 0<br/>0, 1, 0, 0, 0, 0, 0]<br/>class = xss>, fillcolor="#b139e5"] ;
370 -> 371 ;
372 [label=<gini = 0.0<br/>samples = 1<br/>value = [0, 0, 0, 0, 0, 0, 0, 0, 0, 0, 0, 0, 0, 0<br/>0, 0, 0, 1, 0, 0, 0]<br/>class = Infilteration>, fillcolor="#e539b7"] ;
370 -> 372 ;
373 [label=<gini = 0.0<br/>samples = 2<br/>value = [0, 0, 0, 0, 0, 0, 0, 0, 0, 0, 0, 0, 0, 0<br/>0, 2, 0, 0, 0, 0, 0]<br/>class = xss>, fillcolor="#b139e5"] ;
369 -> 373 ;
374 [label=<gini = 0.0<br/>samples = 2<br/>value = [0, 0, 0, 0, 0, 0, 0, 0, 0, 0, 0, 0, 0, 0<br/>0, 2, 0, 0, 0, 0, 0]<br/>class = xss>, fillcolor="#b139e5"] ;
354 -> 374 ;
375 [label=<FLOW_DURATION_MILLISECONDS &le; -1.207<br/>gini = 0.587<br/>samples = 15<br/>value = [0, 0, 0, 0, 0, 5, 0, 0, 0, 0, 0, 0, 0, 0<br/>0, 0, 0, 8, 0, 2, 0]<br/>class = Infilteration>, fillcolor="#f7c4e9"] ;
353 -> 375 ;
376 [label=<L4_SRC_PORT &le; 48498.0<br/>gini = 0.529<br/>samples = 11<br/>value = [0, 0, 0, 0, 0, 2, 0, 0, 0, 0, 0, 0, 0, 0<br/>0, 0, 0, 7, 0, 2, 0]<br/>class = Infilteration>, fillcolor="#f191d7"] ;
375 -> 376 ;
377 [label=<gini = 0.0<br/>samples = 4<br/>value = [0, 0, 0, 0, 0, 0, 0, 0, 0, 0, 0, 0, 0, 0<br/>0, 0, 0, 4, 0, 0, 0]<br/>class = Infilteration>, fillcolor="#e539b7"] ;
376 -> 377 ;
378 [label=<L4_SRC_PORT &le; 48948.0<br/>gini = 0.653<br/>samples = 7<br/>value = [0, 0, 0, 0, 0, 2, 0, 0, 0, 0, 0, 0, 0, 0<br/>0, 0, 0, 3, 0, 2, 0]<br/>class = Infilteration>, fillcolor="#fad7f1"] ;
376 -> 378 ;
379 [label=<gini = 0.0<br/>samples = 2<br/>value = [0, 0, 0, 0, 0, 2, 0, 0, 0, 0, 0, 0, 0, 0<br/>0, 0, 0, 0, 0, 0, 0]<br/>class = Shellcode>, fillcolor="#56e539"] ;
378 -> 379 ;
380 [label=<IN_BYTES &le; -0.026<br/>gini = 0.48<br/>samples = 5<br/>value = [0, 0, 0, 0, 0, 0, 0, 0, 0, 0, 0, 0, 0, 0<br/>0, 0, 0, 3, 0, 2, 0]<br/>class = Infilteration>, fillcolor="#f6bde7"] ;
378 -> 380 ;
381 [label=<gini = 0.0<br/>samples = 1<br/>value = [0, 0, 0, 0, 0, 0, 0, 0, 0, 0, 0, 0, 0, 0<br/>0, 0, 0, 0, 0, 1, 0]<br/>class = Brute Force>, fillcolor="#e53956"] ;
380 -> 381 ;
382 [label=<L4_SRC_PORT &le; 49854.0<br/>gini = 0.375<br/>samples = 4<br/>value = [0, 0, 0, 0, 0, 0, 0, 0, 0, 0, 0, 0, 0, 0<br/>0, 0, 0, 3, 0, 1, 0]<br/>class = Infilteration>, fillcolor="#ee7bcf"] ;
380 -> 382 ;
383 [label=<gini = 0.0<br/>samples = 2<br/>value = [0, 0, 0, 0, 0, 0, 0, 0, 0, 0, 0, 0, 0, 0<br/>0, 0, 0, 2, 0, 0, 0]<br/>class = Infilteration>, fillcolor="#e539b7"] ;
382 -> 383 ;
384 [label=<FLOW_DURATION_MILLISECONDS &le; -1.207<br/>gini = 0.5<br/>samples = 2<br/>value = [0, 0, 0, 0, 0, 0, 0, 0, 0, 0, 0, 0, 0, 0<br/>0, 0, 0, 1, 0, 1, 0]<br/>class = Infilteration>, fillcolor="#ffffff"] ;
382 -> 384 ;
385 [label=<gini = 0.0<br/>samples = 1<br/>value = [0, 0, 0, 0, 0, 0, 0, 0, 0, 0, 0, 0, 0, 0<br/>0, 0, 0, 0, 0, 1, 0]<br/>class = Brute Force>, fillcolor="#e53956"] ;
384 -> 385 ;
386 [label=<gini = 0.0<br/>samples = 1<br/>value = [0, 0, 0, 0, 0, 0, 0, 0, 0, 0, 0, 0, 0, 0<br/>0, 0, 0, 1, 0, 0, 0]<br/>class = Infilteration>, fillcolor="#e539b7"] ;
384 -> 386 ;
387 [label=<FLOW_DURATION_MILLISECONDS &le; -1.206<br/>gini = 0.375<br/>samples = 4<br/>value = [0, 0, 0, 0, 0, 3, 0, 0, 0, 0, 0, 0, 0, 0<br/>0, 0, 0, 1, 0, 0, 0]<br/>class = Shellcode>, fillcolor="#8eee7b"] ;
375 -> 387 ;
388 [label=<gini = 0.0<br/>samples = 3<br/>value = [0, 0, 0, 0, 0, 3, 0, 0, 0, 0, 0, 0, 0, 0<br/>0, 0, 0, 0, 0, 0, 0]<br/>class = Shellcode>, fillcolor="#56e539"] ;
387 -> 388 ;
389 [label=<gini = 0.0<br/>samples = 1<br/>value = [0, 0, 0, 0, 0, 0, 0, 0, 0, 0, 0, 0, 0, 0<br/>0, 0, 0, 1, 0, 0, 0]<br/>class = Infilteration>, fillcolor="#e539b7"] ;
387 -> 389 ;
390 [label=<L4_SRC_PORT &le; 50515.0<br/>gini = 0.64<br/>samples = 10<br/>value = [0, 0, 0, 0, 0, 2, 0, 0, 0, 0, 0, 0, 0, 0<br/>0, 4, 0, 0, 0, 4, 0]<br/>class = xss>, fillcolor="#ffffff"] ;
352 -> 390 ;
391 [label=<gini = 0.0<br/>samples = 2<br/>value = [0, 0, 0, 0, 0, 0, 0, 0, 0, 0, 0, 0, 0, 0<br/>0, 2, 0, 0, 0, 0, 0]<br/>class = xss>, fillcolor="#b139e5"] ;
390 -> 391 ;
392 [label=<L4_SRC_PORT &le; 51019.0<br/>gini = 0.625<br/>samples = 8<br/>value = [0, 0, 0, 0, 0, 2, 0, 0, 0, 0, 0, 0, 0, 0<br/>0, 2, 0, 0, 0, 4, 0]<br/>class = Brute Force>, fillcolor="#f6bdc7"] ;
390 -> 392 ;
393 [label=<L4_SRC_PORT &le; 50836.0<br/>gini = 0.32<br/>samples = 5<br/>value = [0, 0, 0, 0, 0, 1, 0, 0, 0, 0, 0, 0, 0, 0<br/>0, 0, 0, 0, 0, 4, 0]<br/>class = Brute Force>, fillcolor="#ec6a80"] ;
392 -> 393 ;
394 [label=<gini = 0.0<br/>samples = 3<br/>value = [0, 0, 0, 0, 0, 0, 0, 0, 0, 0, 0, 0, 0, 0<br/>0, 0, 0, 0, 0, 3, 0]<br/>class = Brute Force>, fillcolor="#e53956"] ;
393 -> 394 ;
395 [label=<L4_SRC_PORT &le; 50877.0<br/>gini = 0.5<br/>samples = 2<br/>value = [0, 0, 0, 0, 0, 1, 0, 0, 0, 0, 0, 0, 0, 0<br/>0, 0, 0, 0, 0, 1, 0]<br/>class = Shellcode>, fillcolor="#ffffff"] ;
393 -> 395 ;
396 [label=<gini = 0.0<br/>samples = 1<br/>value = [0, 0, 0, 0, 0, 1, 0, 0, 0, 0, 0, 0, 0, 0<br/>0, 0, 0, 0, 0, 0, 0]<br/>class = Shellcode>, fillcolor="#56e539"] ;
395 -> 396 ;
397 [label=<gini = 0.0<br/>samples = 1<br/>value = [0, 0, 0, 0, 0, 0, 0, 0, 0, 0, 0, 0, 0, 0<br/>0, 0, 0, 0, 0, 1, 0]<br/>class = Brute Force>, fillcolor="#e53956"] ;
395 -> 397 ;
398 [label=<FLOW_DURATION_MILLISECONDS &le; -1.207<br/>gini = 0.444<br/>samples = 3<br/>value = [0, 0, 0, 0, 0, 1, 0, 0, 0, 0, 0, 0, 0, 0<br/>0, 2, 0, 0, 0, 0, 0]<br/>class = xss>, fillcolor="#d89cf2"] ;
392 -> 398 ;
399 [label=<L4_SRC_PORT &le; 51246.0<br/>gini = 0.5<br/>samples = 2<br/>value = [0, 0, 0, 0, 0, 1, 0, 0, 0, 0, 0, 0, 0, 0<br/>0, 1, 0, 0, 0, 0, 0]<br/>class = Shellcode>, fillcolor="#ffffff"] ;
398 -> 399 ;
400 [label=<gini = 0.0<br/>samples = 1<br/>value = [0, 0, 0, 0, 0, 1, 0, 0, 0, 0, 0, 0, 0, 0<br/>0, 0, 0, 0, 0, 0, 0]<br/>class = Shellcode>, fillcolor="#56e539"] ;
399 -> 400 ;
401 [label=<gini = 0.0<br/>samples = 1<br/>value = [0, 0, 0, 0, 0, 0, 0, 0, 0, 0, 0, 0, 0, 0<br/>0, 1, 0, 0, 0, 0, 0]<br/>class = xss>, fillcolor="#b139e5"] ;
399 -> 401 ;
402 [label=<gini = 0.0<br/>samples = 1<br/>value = [0, 0, 0, 0, 0, 0, 0, 0, 0, 0, 0, 0, 0, 0<br/>0, 1, 0, 0, 0, 0, 0]<br/>class = xss>, fillcolor="#b139e5"] ;
398 -> 402 ;
403 [label=<FLOW_DURATION_MILLISECONDS &le; -1.207<br/>gini = 0.494<br/>samples = 9<br/>value = [0, 0, 0, 0, 0, 4, 0, 0, 0, 0, 0, 0, 0, 0<br/>0, 0, 0, 5, 0, 0, 0]<br/>class = Infilteration>, fillcolor="#fad7f1"] ;
351 -> 403 ;
404 [label=<L4_SRC_PORT &le; 51616.0<br/>gini = 0.444<br/>samples = 6<br/>value = [0, 0, 0, 0, 0, 4, 0, 0, 0, 0, 0, 0, 0, 0<br/>0, 0, 0, 2, 0, 0, 0]<br/>class = Shellcode>, fillcolor="#aaf29c"] ;
403 -> 404 ;
405 [label=<gini = 0.0<br/>samples = 2<br/>value = [0, 0, 0, 0, 0, 2, 0, 0, 0, 0, 0, 0, 0, 0<br/>0, 0, 0, 0, 0, 0, 0]<br/>class = Shellcode>, fillcolor="#56e539"] ;
404 -> 405 ;
406 [label=<L4_SRC_PORT &le; 51958.0<br/>gini = 0.5<br/>samples = 4<br/>value = [0, 0, 0, 0, 0, 2, 0, 0, 0, 0, 0, 0, 0, 0<br/>0, 0, 0, 2, 0, 0, 0]<br/>class = Shellcode>, fillcolor="#ffffff"] ;
404 -> 406 ;
407 [label=<gini = 0.0<br/>samples = 2<br/>value = [0, 0, 0, 0, 0, 0, 0, 0, 0, 0, 0, 0, 0, 0<br/>0, 0, 0, 2, 0, 0, 0]<br/>class = Infilteration>, fillcolor="#e539b7"] ;
406 -> 407 ;
408 [label=<gini = 0.0<br/>samples = 2<br/>value = [0, 0, 0, 0, 0, 2, 0, 0, 0, 0, 0, 0, 0, 0<br/>0, 0, 0, 0, 0, 0, 0]<br/>class = Shellcode>, fillcolor="#56e539"] ;
406 -> 408 ;
409 [label=<gini = 0.0<br/>samples = 3<br/>value = [0, 0, 0, 0, 0, 0, 0, 0, 0, 0, 0, 0, 0, 0<br/>0, 0, 0, 3, 0, 0, 0]<br/>class = Infilteration>, fillcolor="#e539b7"] ;
403 -> 409 ;
410 [label=<FLOW_DURATION_MILLISECONDS &le; -1.207<br/>gini = 0.545<br/>samples = 11<br/>value = [0, 0, 0, 0, 0, 1, 0, 0, 0, 0, 0, 0, 0, 0<br/>0, 1, 0, 2, 0, 7, 0]<br/>class = Brute Force>, fillcolor="#f191a1"] ;
350 -> 410 ;
411 [label=<L4_SRC_PORT &le; 53671.0<br/>gini = 0.346<br/>samples = 9<br/>value = [0, 0, 0, 0, 0, 0, 0, 0, 0, 0, 0, 0, 0, 0<br/>0, 0, 0, 2, 0, 7, 0]<br/>class = Brute Force>, fillcolor="#ec7286"] ;
410 -> 411 ;
412 [label=<L4_SRC_PORT &le; 53106.0<br/>gini = 0.245<br/>samples = 7<br/>value = [0, 0, 0, 0, 0, 0, 0, 0, 0, 0, 0, 0, 0, 0<br/>0, 0, 0, 1, 0, 6, 0]<br/>class = Brute Force>, fillcolor="#e95a72"] ;
411 -> 412 ;
413 [label=<L4_SRC_PORT &le; 52636.0<br/>gini = 0.444<br/>samples = 3<br/>value = [0, 0, 0, 0, 0, 0, 0, 0, 0, 0, 0, 0, 0, 0<br/>0, 0, 0, 1, 0, 2, 0]<br/>class = Brute Force>, fillcolor="#f29caa"] ;
412 -> 413 ;
414 [label=<gini = 0.0<br/>samples = 2<br/>value = [0, 0, 0, 0, 0, 0, 0, 0, 0, 0, 0, 0, 0, 0<br/>0, 0, 0, 0, 0, 2, 0]<br/>class = Brute Force>, fillcolor="#e53956"] ;
413 -> 414 ;
415 [label=<gini = 0.0<br/>samples = 1<br/>value = [0, 0, 0, 0, 0, 0, 0, 0, 0, 0, 0, 0, 0, 0<br/>0, 0, 0, 1, 0, 0, 0]<br/>class = Infilteration>, fillcolor="#e539b7"] ;
413 -> 415 ;
416 [label=<gini = 0.0<br/>samples = 4<br/>value = [0, 0, 0, 0, 0, 0, 0, 0, 0, 0, 0, 0, 0, 0<br/>0, 0, 0, 0, 0, 4, 0]<br/>class = Brute Force>, fillcolor="#e53956"] ;
412 -> 416 ;
417 [label=<L4_SRC_PORT &le; 53767.0<br/>gini = 0.5<br/>samples = 2<br/>value = [0, 0, 0, 0, 0, 0, 0, 0, 0, 0, 0, 0, 0, 0<br/>0, 0, 0, 1, 0, 1, 0]<br/>class = Infilteration>, fillcolor="#ffffff"] ;
411 -> 417 ;
418 [label=<gini = 0.0<br/>samples = 1<br/>value = [0, 0, 0, 0, 0, 0, 0, 0, 0, 0, 0, 0, 0, 0<br/>0, 0, 0, 1, 0, 0, 0]<br/>class = Infilteration>, fillcolor="#e539b7"] ;
417 -> 418 ;
419 [label=<gini = 0.0<br/>samples = 1<br/>value = [0, 0, 0, 0, 0, 0, 0, 0, 0, 0, 0, 0, 0, 0<br/>0, 0, 0, 0, 0, 1, 0]<br/>class = Brute Force>, fillcolor="#e53956"] ;
417 -> 419 ;
420 [label=<FLOW_DURATION_MILLISECONDS &le; -1.207<br/>gini = 0.5<br/>samples = 2<br/>value = [0, 0, 0, 0, 0, 1, 0, 0, 0, 0, 0, 0, 0, 0<br/>0, 1, 0, 0, 0, 0, 0]<br/>class = Shellcode>, fillcolor="#ffffff"] ;
410 -> 420 ;
421 [label=<gini = 0.0<br/>samples = 1<br/>value = [0, 0, 0, 0, 0, 1, 0, 0, 0, 0, 0, 0, 0, 0<br/>0, 0, 0, 0, 0, 0, 0]<br/>class = Shellcode>, fillcolor="#56e539"] ;
420 -> 421 ;
422 [label=<gini = 0.0<br/>samples = 1<br/>value = [0, 0, 0, 0, 0, 0, 0, 0, 0, 0, 0, 0, 0, 0<br/>0, 1, 0, 0, 0, 0, 0]<br/>class = xss>, fillcolor="#b139e5"] ;
420 -> 422 ;
423 [label=<L4_SRC_PORT &le; 54555.0<br/>gini = 0.37<br/>samples = 9<br/>value = [0, 0, 0, 0, 0, 1, 0, 0, 0, 0, 0, 0, 0, 0<br/>0, 0, 0, 7, 0, 1, 0]<br/>class = Infilteration>, fillcolor="#ec6ac9"] ;
349 -> 423 ;
424 [label=<gini = 0.0<br/>samples = 6<br/>value = [0, 0, 0, 0, 0, 0, 0, 0, 0, 0, 0, 0, 0, 0<br/>0, 0, 0, 6, 0, 0, 0]<br/>class = Infilteration>, fillcolor="#e539b7"] ;
423 -> 424 ;
425 [label=<L4_SRC_PORT &le; 54742.0<br/>gini = 0.667<br/>samples = 3<br/>value = [0, 0, 0, 0, 0, 1, 0, 0, 0, 0, 0, 0, 0, 0<br/>0, 0, 0, 1, 0, 1, 0]<br/>class = Shellcode>, fillcolor="#ffffff"] ;
423 -> 425 ;
426 [label=<gini = 0.0<br/>samples = 1<br/>value = [0, 0, 0, 0, 0, 1, 0, 0, 0, 0, 0, 0, 0, 0<br/>0, 0, 0, 0, 0, 0, 0]<br/>class = Shellcode>, fillcolor="#56e539"] ;
425 -> 426 ;
427 [label=<L4_SRC_PORT &le; 54810.0<br/>gini = 0.5<br/>samples = 2<br/>value = [0, 0, 0, 0, 0, 0, 0, 0, 0, 0, 0, 0, 0, 0<br/>0, 0, 0, 1, 0, 1, 0]<br/>class = Infilteration>, fillcolor="#ffffff"] ;
425 -> 427 ;
428 [label=<gini = 0.0<br/>samples = 1<br/>value = [0, 0, 0, 0, 0, 0, 0, 0, 0, 0, 0, 0, 0, 0<br/>0, 0, 0, 0, 0, 1, 0]<br/>class = Brute Force>, fillcolor="#e53956"] ;
427 -> 428 ;
429 [label=<gini = 0.0<br/>samples = 1<br/>value = [0, 0, 0, 0, 0, 0, 0, 0, 0, 0, 0, 0, 0, 0<br/>0, 0, 0, 1, 0, 0, 0]<br/>class = Infilteration>, fillcolor="#e539b7"] ;
427 -> 429 ;
430 [label=<L4_SRC_PORT &le; 58227.0<br/>gini = 0.507<br/>samples = 61<br/>value = [0, 0, 0, 0, 0, 6, 0, 0, 0, 0, 0, 0, 0, 0<br/>0, 1, 0, 14, 0, 40, 0]<br/>class = Brute Force>, fillcolor="#f191a2"] ;
252 -> 430 ;
431 [label=<L4_SRC_PORT &le; 57524.0<br/>gini = 0.375<br/>samples = 47<br/>value = [0, 0, 0, 0, 0, 2, 0, 0, 0, 0, 0, 0, 0, 0<br/>0, 0, 0, 9, 0, 36, 0]<br/>class = Brute Force>, fillcolor="#ed7287"] ;
430 -> 431 ;
432 [label=<L4_SRC_PORT &le; 57357.0<br/>gini = 0.452<br/>samples = 36<br/>value = [0, 0, 0, 0, 0, 2, 0, 0, 0, 0, 0, 0, 0, 0<br/>0, 0, 0, 9, 0, 25, 0]<br/>class = Brute Force>, fillcolor="#f08a9b"] ;
431 -> 432 ;
433 [label=<IN_BYTES &le; -0.026<br/>gini = 0.38<br/>samples = 33<br/>value = [0, 0, 0, 0, 0, 1, 0, 0, 0, 0, 0, 0, 0, 0<br/>0, 0, 0, 7, 0, 25, 0]<br/>class = Brute Force>, fillcolor="#ed768a"] ;
432 -> 433 ;
434 [label=<gini = 0.0<br/>samples = 2<br/>value = [0, 0, 0, 0, 0, 0, 0, 0, 0, 0, 0, 0, 0, 0<br/>0, 0, 0, 2, 0, 0, 0]<br/>class = Infilteration>, fillcolor="#e539b7"] ;
433 -> 434 ;
435 [label=<FLOW_DURATION_MILLISECONDS &le; -1.207<br/>gini = 0.323<br/>samples = 31<br/>value = [0, 0, 0, 0, 0, 1, 0, 0, 0, 0, 0, 0, 0, 0<br/>0, 0, 0, 5, 0, 25, 0]<br/>class = Brute Force>, fillcolor="#eb677d"] ;
433 -> 435 ;
436 [label=<L4_SRC_PORT &le; 55433.0<br/>gini = 0.226<br/>samples = 24<br/>value = [0, 0, 0, 0, 0, 1, 0, 0, 0, 0, 0, 0, 0, 0<br/>0, 0, 0, 2, 0, 21, 0]<br/>class = Brute Force>, fillcolor="#e9546d"] ;
435 -> 436 ;
437 [label=<L4_SRC_PORT &le; 55308.0<br/>gini = 0.444<br/>samples = 3<br/>value = [0, 0, 0, 0, 0, 0, 0, 0, 0, 0, 0, 0, 0, 0<br/>0, 0, 0, 1, 0, 2, 0]<br/>class = Brute Force>, fillcolor="#f29caa"] ;
436 -> 437 ;
438 [label=<gini = 0.0<br/>samples = 2<br/>value = [0, 0, 0, 0, 0, 0, 0, 0, 0, 0, 0, 0, 0, 0<br/>0, 0, 0, 0, 0, 2, 0]<br/>class = Brute Force>, fillcolor="#e53956"] ;
437 -> 438 ;
439 [label=<gini = 0.0<br/>samples = 1<br/>value = [0, 0, 0, 0, 0, 0, 0, 0, 0, 0, 0, 0, 0, 0<br/>0, 0, 0, 1, 0, 0, 0]<br/>class = Infilteration>, fillcolor="#e539b7"] ;
437 -> 439 ;
440 [label=<L4_SRC_PORT &le; 56077.0<br/>gini = 0.177<br/>samples = 21<br/>value = [0, 0, 0, 0, 0, 1, 0, 0, 0, 0, 0, 0, 0, 0<br/>0, 0, 0, 1, 0, 19, 0]<br/>class = Brute Force>, fillcolor="#e84d67"] ;
436 -> 440 ;
441 [label=<gini = 0.0<br/>samples = 8<br/>value = [0, 0, 0, 0, 0, 0, 0, 0, 0, 0, 0, 0, 0, 0<br/>0, 0, 0, 0, 0, 8, 0]<br/>class = Brute Force>, fillcolor="#e53956"] ;
440 -> 441 ;
442 [label=<L4_SRC_PORT &le; 56274.0<br/>gini = 0.272<br/>samples = 13<br/>value = [0, 0, 0, 0, 0, 1, 0, 0, 0, 0, 0, 0, 0, 0<br/>0, 0, 0, 1, 0, 11, 0]<br/>class = Brute Force>, fillcolor="#e95a72"] ;
440 -> 442 ;
443 [label=<gini = 0.0<br/>samples = 1<br/>value = [0, 0, 0, 0, 0, 0, 0, 0, 0, 0, 0, 0, 0, 0<br/>0, 0, 0, 1, 0, 0, 0]<br/>class = Infilteration>, fillcolor="#e539b7"] ;
442 -> 443 ;
444 [label=<L4_SRC_PORT &le; 56738.0<br/>gini = 0.153<br/>samples = 12<br/>value = [0, 0, 0, 0, 0, 1, 0, 0, 0, 0, 0, 0, 0, 0<br/>0, 0, 0, 0, 0, 11, 0]<br/>class = Brute Force>, fillcolor="#e74b65"] ;
442 -> 444 ;
445 [label=<L4_SRC_PORT &le; 56665.0<br/>gini = 0.278<br/>samples = 6<br/>value = [0, 0, 0, 0, 0, 1, 0, 0, 0, 0, 0, 0, 0, 0<br/>0, 0, 0, 0, 0, 5, 0]<br/>class = Brute Force>, fillcolor="#ea6178"] ;
444 -> 445 ;
446 [label=<gini = 0.0<br/>samples = 5<br/>value = [0, 0, 0, 0, 0, 0, 0, 0, 0, 0, 0, 0, 0, 0<br/>0, 0, 0, 0, 0, 5, 0]<br/>class = Brute Force>, fillcolor="#e53956"] ;
445 -> 446 ;
447 [label=<gini = 0.0<br/>samples = 1<br/>value = [0, 0, 0, 0, 0, 1, 0, 0, 0, 0, 0, 0, 0, 0<br/>0, 0, 0, 0, 0, 0, 0]<br/>class = Shellcode>, fillcolor="#56e539"] ;
445 -> 447 ;
448 [label=<gini = 0.0<br/>samples = 6<br/>value = [0, 0, 0, 0, 0, 0, 0, 0, 0, 0, 0, 0, 0, 0<br/>0, 0, 0, 0, 0, 6, 0]<br/>class = Brute Force>, fillcolor="#e53956"] ;
444 -> 448 ;
449 [label=<FLOW_DURATION_MILLISECONDS &le; -1.207<br/>gini = 0.49<br/>samples = 7<br/>value = [0, 0, 0, 0, 0, 0, 0, 0, 0, 0, 0, 0, 0, 0<br/>0, 0, 0, 3, 0, 4, 0]<br/>class = Brute Force>, fillcolor="#f8ced5"] ;
435 -> 449 ;
450 [label=<gini = 0.0<br/>samples = 2<br/>value = [0, 0, 0, 0, 0, 0, 0, 0, 0, 0, 0, 0, 0, 0<br/>0, 0, 0, 2, 0, 0, 0]<br/>class = Infilteration>, fillcolor="#e539b7"] ;
449 -> 450 ;
451 [label=<L4_SRC_PORT &le; 57032.0<br/>gini = 0.32<br/>samples = 5<br/>value = [0, 0, 0, 0, 0, 0, 0, 0, 0, 0, 0, 0, 0, 0<br/>0, 0, 0, 1, 0, 4, 0]<br/>class = Brute Force>, fillcolor="#ec6a80"] ;
449 -> 451 ;
452 [label=<gini = 0.0<br/>samples = 4<br/>value = [0, 0, 0, 0, 0, 0, 0, 0, 0, 0, 0, 0, 0, 0<br/>0, 0, 0, 0, 0, 4, 0]<br/>class = Brute Force>, fillcolor="#e53956"] ;
451 -> 452 ;
453 [label=<gini = 0.0<br/>samples = 1<br/>value = [0, 0, 0, 0, 0, 0, 0, 0, 0, 0, 0, 0, 0, 0<br/>0, 0, 0, 1, 0, 0, 0]<br/>class = Infilteration>, fillcolor="#e539b7"] ;
451 -> 453 ;
454 [label=<L4_SRC_PORT &le; 57431.0<br/>gini = 0.444<br/>samples = 3<br/>value = [0, 0, 0, 0, 0, 1, 0, 0, 0, 0, 0, 0, 0, 0<br/>0, 0, 0, 2, 0, 0, 0]<br/>class = Infilteration>, fillcolor="#f29cdb"] ;
432 -> 454 ;
455 [label=<gini = 0.0<br/>samples = 1<br/>value = [0, 0, 0, 0, 0, 1, 0, 0, 0, 0, 0, 0, 0, 0<br/>0, 0, 0, 0, 0, 0, 0]<br/>class = Shellcode>, fillcolor="#56e539"] ;
454 -> 455 ;
456 [label=<gini = 0.0<br/>samples = 2<br/>value = [0, 0, 0, 0, 0, 0, 0, 0, 0, 0, 0, 0, 0, 0<br/>0, 0, 0, 2, 0, 0, 0]<br/>class = Infilteration>, fillcolor="#e539b7"] ;
454 -> 456 ;
457 [label=<gini = 0.0<br/>samples = 11<br/>value = [0, 0, 0, 0, 0, 0, 0, 0, 0, 0, 0, 0, 0, 0<br/>0, 0, 0, 0, 0, 11, 0]<br/>class = Brute Force>, fillcolor="#e53956"] ;
431 -> 457 ;
458 [label=<L4_SRC_PORT &le; 60190.0<br/>gini = 0.704<br/>samples = 14<br/>value = [0, 0, 0, 0, 0, 4, 0, 0, 0, 0, 0, 0, 0, 0<br/>0, 1, 0, 5, 0, 4, 0]<br/>class = Infilteration>, fillcolor="#fcebf8"] ;
430 -> 458 ;
459 [label=<L4_SRC_PORT &le; 59728.0<br/>gini = 0.681<br/>samples = 12<br/>value = [0, 0, 0, 0, 0, 4, 0, 0, 0, 0, 0, 0, 0, 0<br/>0, 1, 0, 5, 0, 2, 0]<br/>class = Infilteration>, fillcolor="#fce6f6"] ;
458 -> 459 ;
460 [label=<L4_SRC_PORT &le; 58373.0<br/>gini = 0.593<br/>samples = 9<br/>value = [0, 0, 0, 0, 0, 2, 0, 0, 0, 0, 0, 0, 0, 0<br/>0, 0, 0, 5, 0, 2, 0]<br/>class = Infilteration>, fillcolor="#f4aae0"] ;
459 -> 460 ;
461 [label=<L4_SRC_PORT &le; 58319.0<br/>gini = 0.5<br/>samples = 2<br/>value = [0, 0, 0, 0, 0, 1, 0, 0, 0, 0, 0, 0, 0, 0<br/>0, 0, 0, 0, 0, 1, 0]<br/>class = Shellcode>, fillcolor="#ffffff"] ;
460 -> 461 ;
462 [label=<gini = 0.0<br/>samples = 1<br/>value = [0, 0, 0, 0, 0, 1, 0, 0, 0, 0, 0, 0, 0, 0<br/>0, 0, 0, 0, 0, 0, 0]<br/>class = Shellcode>, fillcolor="#56e539"] ;
461 -> 462 ;
463 [label=<gini = 0.0<br/>samples = 1<br/>value = [0, 0, 0, 0, 0, 0, 0, 0, 0, 0, 0, 0, 0, 0<br/>0, 0, 0, 0, 0, 1, 0]<br/>class = Brute Force>, fillcolor="#e53956"] ;
461 -> 463 ;
464 [label=<L4_SRC_PORT &le; 58495.0<br/>gini = 0.449<br/>samples = 7<br/>value = [0, 0, 0, 0, 0, 1, 0, 0, 0, 0, 0, 0, 0, 0<br/>0, 0, 0, 5, 0, 1, 0]<br/>class = Infilteration>, fillcolor="#ee7bcf"] ;
460 -> 464 ;
465 [label=<gini = 0.0<br/>samples = 4<br/>value = [0, 0, 0, 0, 0, 0, 0, 0, 0, 0, 0, 0, 0, 0<br/>0, 0, 0, 4, 0, 0, 0]<br/>class = Infilteration>, fillcolor="#e539b7"] ;
464 -> 465 ;
466 [label=<TCP_FLAGS &le; 17.5<br/>gini = 0.667<br/>samples = 3<br/>value = [0, 0, 0, 0, 0, 1, 0, 0, 0, 0, 0, 0, 0, 0<br/>0, 0, 0, 1, 0, 1, 0]<br/>class = Shellcode>, fillcolor="#ffffff"] ;
464 -> 466 ;
467 [label=<gini = 0.0<br/>samples = 1<br/>value = [0, 0, 0, 0, 0, 0, 0, 0, 0, 0, 0, 0, 0, 0<br/>0, 0, 0, 0, 0, 1, 0]<br/>class = Brute Force>, fillcolor="#e53956"] ;
466 -> 467 ;
468 [label=<L4_SRC_PORT &le; 59080.0<br/>gini = 0.5<br/>samples = 2<br/>value = [0, 0, 0, 0, 0, 1, 0, 0, 0, 0, 0, 0, 0, 0<br/>0, 0, 0, 1, 0, 0, 0]<br/>class = Shellcode>, fillcolor="#ffffff"] ;
466 -> 468 ;
469 [label=<gini = 0.0<br/>samples = 1<br/>value = [0, 0, 0, 0, 0, 1, 0, 0, 0, 0, 0, 0, 0, 0<br/>0, 0, 0, 0, 0, 0, 0]<br/>class = Shellcode>, fillcolor="#56e539"] ;
468 -> 469 ;
470 [label=<gini = 0.0<br/>samples = 1<br/>value = [0, 0, 0, 0, 0, 0, 0, 0, 0, 0, 0, 0, 0, 0<br/>0, 0, 0, 1, 0, 0, 0]<br/>class = Infilteration>, fillcolor="#e539b7"] ;
468 -> 470 ;
471 [label=<IN_PKTS &le; -0.02<br/>gini = 0.444<br/>samples = 3<br/>value = [0, 0, 0, 0, 0, 2, 0, 0, 0, 0, 0, 0, 0, 0<br/>0, 1, 0, 0, 0, 0, 0]<br/>class = Shellcode>, fillcolor="#aaf29c"] ;
459 -> 471 ;
472 [label=<gini = 0.0<br/>samples = 2<br/>value = [0, 0, 0, 0, 0, 2, 0, 0, 0, 0, 0, 0, 0, 0<br/>0, 0, 0, 0, 0, 0, 0]<br/>class = Shellcode>, fillcolor="#56e539"] ;
471 -> 472 ;
473 [label=<gini = 0.0<br/>samples = 1<br/>value = [0, 0, 0, 0, 0, 0, 0, 0, 0, 0, 0, 0, 0, 0<br/>0, 1, 0, 0, 0, 0, 0]<br/>class = xss>, fillcolor="#b139e5"] ;
471 -> 473 ;
474 [label=<gini = 0.0<br/>samples = 2<br/>value = [0, 0, 0, 0, 0, 0, 0, 0, 0, 0, 0, 0, 0, 0<br/>0, 0, 0, 0, 0, 2, 0]<br/>class = Brute Force>, fillcolor="#e53956"] ;
458 -> 474 ;
475 [label=<OUT_BYTES &le; -0.037<br/>gini = 0.755<br/>samples = 45<br/>value = [0, 0, 0, 0, 0, 13, 15, 0, 0, 0, 0, 0, 0, 0<br/>0, 3, 0, 9, 0, 2, 3]<br/>class = Backdoor>, fillcolor="#f3fdf4"] ;
195 -> 475 ;
476 [label=<FLOW_DURATION_MILLISECONDS &le; -1.084<br/>gini = 0.53<br/>samples = 29<br/>value = [0, 0, 0, 0, 0, 13, 15, 0, 0, 0, 0, 0, 0, 0<br/>0, 0, 0, 1, 0, 0, 0]<br/>class = Backdoor>, fillcolor="#e6fce9"] ;
475 -> 476 ;
477 [label=<FLOW_DURATION_MILLISECONDS &le; -1.177<br/>gini = 0.537<br/>samples = 23<br/>value = [0, 0, 0, 0, 0, 12, 10, 0, 0, 0, 0, 0, 0, 0<br/>0, 0, 0, 1, 0, 0, 0]<br/>class = Shellcode>, fillcolor="#e5fbe1"] ;
476 -> 477 ;
478 [label=<L4_SRC_PORT &le; 34722.0<br/>gini = 0.545<br/>samples = 20<br/>value = [0, 0, 0, 0, 0, 9, 10, 0, 0, 0, 0, 0, 0, 0<br/>0, 0, 0, 1, 0, 0, 0]<br/>class = Backdoor>, fillcolor="#edfdef"] ;
477 -> 478 ;
479 [label=<gini = 0.0<br/>samples = 2<br/>value = [0, 0, 0, 0, 0, 2, 0, 0, 0, 0, 0, 0, 0, 0<br/>0, 0, 0, 0, 0, 0, 0]<br/>class = Shellcode>, fillcolor="#56e539"] ;
478 -> 479 ;
480 [label=<IN_BYTES &le; -0.026<br/>gini = 0.537<br/>samples = 18<br/>value = [0, 0, 0, 0, 0, 7, 10, 0, 0, 0, 0, 0, 0, 0<br/>0, 0, 0, 1, 0, 0, 0]<br/>class = Backdoor>, fillcolor="#c9f8ce"] ;
478 -> 480 ;
481 [label=<L4_SRC_PORT &le; 60790.0<br/>gini = 0.469<br/>samples = 16<br/>value = [0, 0, 0, 0, 0, 6, 10, 0, 0, 0, 0, 0, 0, 0<br/>0, 0, 0, 0, 0, 0, 0]<br/>class = Backdoor>, fillcolor="#b0f5b8"] ;
480 -> 481 ;
482 [label=<L4_SRC_PORT &le; 56286.0<br/>gini = 0.444<br/>samples = 15<br/>value = [0, 0, 0, 0, 0, 5, 10, 0, 0, 0, 0, 0, 0, 0<br/>0, 0, 0, 0, 0, 0, 0]<br/>class = Backdoor>, fillcolor="#9cf2a6"] ;
481 -> 482 ;
483 [label=<L4_SRC_PORT &le; 53825.0<br/>gini = 0.496<br/>samples = 11<br/>value = [0, 0, 0, 0, 0, 5, 6, 0, 0, 0, 0, 0, 0, 0<br/>0, 0, 0, 0, 0, 0, 0]<br/>class = Backdoor>, fillcolor="#defbe1"] ;
482 -> 483 ;
484 [label=<L4_SRC_PORT &le; 53006.0<br/>gini = 0.444<br/>samples = 9<br/>value = [0, 0, 0, 0, 0, 3, 6, 0, 0, 0, 0, 0, 0, 0<br/>0, 0, 0, 0, 0, 0, 0]<br/>class = Backdoor>, fillcolor="#9cf2a6"] ;
483 -> 484 ;
485 [label=<L4_SRC_PORT &le; 34958.0<br/>gini = 0.5<br/>samples = 6<br/>value = [0, 0, 0, 0, 0, 3, 3, 0, 0, 0, 0, 0, 0, 0<br/>0, 0, 0, 0, 0, 0, 0]<br/>class = Shellcode>, fillcolor="#ffffff"] ;
484 -> 485 ;
486 [label=<gini = 0.0<br/>samples = 1<br/>value = [0, 0, 0, 0, 0, 0, 1, 0, 0, 0, 0, 0, 0, 0<br/>0, 0, 0, 0, 0, 0, 0]<br/>class = Backdoor>, fillcolor="#39e54d"] ;
485 -> 486 ;
487 [label=<L4_SRC_PORT &le; 35221.0<br/>gini = 0.48<br/>samples = 5<br/>value = [0, 0, 0, 0, 0, 3, 2, 0, 0, 0, 0, 0, 0, 0<br/>0, 0, 0, 0, 0, 0, 0]<br/>class = Shellcode>, fillcolor="#c7f6bd"] ;
485 -> 487 ;
488 [label=<gini = 0.0<br/>samples = 1<br/>value = [0, 0, 0, 0, 0, 1, 0, 0, 0, 0, 0, 0, 0, 0<br/>0, 0, 0, 0, 0, 0, 0]<br/>class = Shellcode>, fillcolor="#56e539"] ;
487 -> 488 ;
489 [label=<L4_SRC_PORT &le; 43849.0<br/>gini = 0.5<br/>samples = 4<br/>value = [0, 0, 0, 0, 0, 2, 2, 0, 0, 0, 0, 0, 0, 0<br/>0, 0, 0, 0, 0, 0, 0]<br/>class = Shellcode>, fillcolor="#ffffff"] ;
487 -> 489 ;
490 [label=<gini = 0.0<br/>samples = 1<br/>value = [0, 0, 0, 0, 0, 0, 1, 0, 0, 0, 0, 0, 0, 0<br/>0, 0, 0, 0, 0, 0, 0]<br/>class = Backdoor>, fillcolor="#39e54d"] ;
489 -> 490 ;
491 [label=<L4_SRC_PORT &le; 52340.0<br/>gini = 0.444<br/>samples = 3<br/>value = [0, 0, 0, 0, 0, 2, 1, 0, 0, 0, 0, 0, 0, 0<br/>0, 0, 0, 0, 0, 0, 0]<br/>class = Shellcode>, fillcolor="#aaf29c"] ;
489 -> 491 ;
492 [label=<gini = 0.0<br/>samples = 1<br/>value = [0, 0, 0, 0, 0, 1, 0, 0, 0, 0, 0, 0, 0, 0<br/>0, 0, 0, 0, 0, 0, 0]<br/>class = Shellcode>, fillcolor="#56e539"] ;
491 -> 492 ;
493 [label=<L4_SRC_PORT &le; 52571.0<br/>gini = 0.5<br/>samples = 2<br/>value = [0, 0, 0, 0, 0, 1, 1, 0, 0, 0, 0, 0, 0, 0<br/>0, 0, 0, 0, 0, 0, 0]<br/>class = Shellcode>, fillcolor="#ffffff"] ;
491 -> 493 ;
494 [label=<gini = 0.0<br/>samples = 1<br/>value = [0, 0, 0, 0, 0, 0, 1, 0, 0, 0, 0, 0, 0, 0<br/>0, 0, 0, 0, 0, 0, 0]<br/>class = Backdoor>, fillcolor="#39e54d"] ;
493 -> 494 ;
495 [label=<gini = 0.0<br/>samples = 1<br/>value = [0, 0, 0, 0, 0, 1, 0, 0, 0, 0, 0, 0, 0, 0<br/>0, 0, 0, 0, 0, 0, 0]<br/>class = Shellcode>, fillcolor="#56e539"] ;
493 -> 495 ;
496 [label=<gini = 0.0<br/>samples = 3<br/>value = [0, 0, 0, 0, 0, 0, 3, 0, 0, 0, 0, 0, 0, 0<br/>0, 0, 0, 0, 0, 0, 0]<br/>class = Backdoor>, fillcolor="#39e54d"] ;
484 -> 496 ;
497 [label=<gini = 0.0<br/>samples = 2<br/>value = [0, 0, 0, 0, 0, 2, 0, 0, 0, 0, 0, 0, 0, 0<br/>0, 0, 0, 0, 0, 0, 0]<br/>class = Shellcode>, fillcolor="#56e539"] ;
483 -> 497 ;
498 [label=<gini = 0.0<br/>samples = 4<br/>value = [0, 0, 0, 0, 0, 0, 4, 0, 0, 0, 0, 0, 0, 0<br/>0, 0, 0, 0, 0, 0, 0]<br/>class = Backdoor>, fillcolor="#39e54d"] ;
482 -> 498 ;
499 [label=<gini = 0.0<br/>samples = 1<br/>value = [0, 0, 0, 0, 0, 1, 0, 0, 0, 0, 0, 0, 0, 0<br/>0, 0, 0, 0, 0, 0, 0]<br/>class = Shellcode>, fillcolor="#56e539"] ;
481 -> 499 ;
500 [label=<FLOW_DURATION_MILLISECONDS &le; -1.205<br/>gini = 0.5<br/>samples = 2<br/>value = [0, 0, 0, 0, 0, 1, 0, 0, 0, 0, 0, 0, 0, 0<br/>0, 0, 0, 1, 0, 0, 0]<br/>class = Shellcode>, fillcolor="#ffffff"] ;
480 -> 500 ;
501 [label=<gini = 0.0<br/>samples = 1<br/>value = [0, 0, 0, 0, 0, 0, 0, 0, 0, 0, 0, 0, 0, 0<br/>0, 0, 0, 1, 0, 0, 0]<br/>class = Infilteration>, fillcolor="#e539b7"] ;
500 -> 501 ;
502 [label=<gini = 0.0<br/>samples = 1<br/>value = [0, 0, 0, 0, 0, 1, 0, 0, 0, 0, 0, 0, 0, 0<br/>0, 0, 0, 0, 0, 0, 0]<br/>class = Shellcode>, fillcolor="#56e539"] ;
500 -> 502 ;
503 [label=<gini = 0.0<br/>samples = 3<br/>value = [0, 0, 0, 0, 0, 3, 0, 0, 0, 0, 0, 0, 0, 0<br/>0, 0, 0, 0, 0, 0, 0]<br/>class = Shellcode>, fillcolor="#56e539"] ;
477 -> 503 ;
504 [label=<L4_SRC_PORT &le; 35692.0<br/>gini = 0.278<br/>samples = 6<br/>value = [0, 0, 0, 0, 0, 1, 5, 0, 0, 0, 0, 0, 0, 0<br/>0, 0, 0, 0, 0, 0, 0]<br/>class = Backdoor>, fillcolor="#61ea71"] ;
476 -> 504 ;
505 [label=<gini = 0.0<br/>samples = 3<br/>value = [0, 0, 0, 0, 0, 0, 3, 0, 0, 0, 0, 0, 0, 0<br/>0, 0, 0, 0, 0, 0, 0]<br/>class = Backdoor>, fillcolor="#39e54d"] ;
504 -> 505 ;
506 [label=<FLOW_DURATION_MILLISECONDS &le; -1.013<br/>gini = 0.444<br/>samples = 3<br/>value = [0, 0, 0, 0, 0, 1, 2, 0, 0, 0, 0, 0, 0, 0<br/>0, 0, 0, 0, 0, 0, 0]<br/>class = Backdoor>, fillcolor="#9cf2a6"] ;
504 -> 506 ;
507 [label=<gini = 0.0<br/>samples = 1<br/>value = [0, 0, 0, 0, 0, 1, 0, 0, 0, 0, 0, 0, 0, 0<br/>0, 0, 0, 0, 0, 0, 0]<br/>class = Shellcode>, fillcolor="#56e539"] ;
506 -> 507 ;
508 [label=<gini = 0.0<br/>samples = 2<br/>value = [0, 0, 0, 0, 0, 0, 2, 0, 0, 0, 0, 0, 0, 0<br/>0, 0, 0, 0, 0, 0, 0]<br/>class = Backdoor>, fillcolor="#39e54d"] ;
506 -> 508 ;
509 [label=<L4_SRC_PORT &le; 56485.0<br/>gini = 0.664<br/>samples = 16<br/>value = [0, 0, 0, 0, 0, 0, 0, 0, 0, 0, 0, 0, 0, 0<br/>0, 3, 0, 8, 0, 2, 3]<br/>class = Infilteration>, fillcolor="#f5b3e3"] ;
475 -> 509 ;
510 [label=<L4_SRC_PORT &le; 47252.0<br/>gini = 0.486<br/>samples = 12<br/>value = [0, 0, 0, 0, 0, 0, 0, 0, 0, 0, 0, 0, 0, 0<br/>0, 1, 0, 8, 0, 0, 3]<br/>class = Infilteration>, fillcolor="#f191d7"] ;
509 -> 510 ;
